# Token count: 44933
# Smoothing: Modified Kneser-Ney
\data\
ngram 1=8625
ngram 2=33073
ngram 3=39804

\1-grams:
-4.5298586	<unk>	0
0	<s>	-0.46348524
-1.1813354	</s>	0
-3.2545824	而	-0.08223304
-2.6251402	对	-0.113385886
-3.4624503	楼市	-0.08952235
-3.4259431	成交	-0.18813469
-4.385871	抑制	-0.077122994
-3.7130828	作用	-0.31588942
-2.6657565	最	-0.2577311
-2.9704323	大	-0.26214686
-1.4631774	的	-0.2562117
-3.5023105	限	-0.5602135
-4.2522893	购	-0.077122994
-2.480444	也	-0.2717384
-3.0816739	成为	-0.113685355
-3.3922682	地方	-0.123785794
-3.3610175	政府	-0.0971355
-4.385871	眼中	-0.077122994
-4.385871	钉	-0.077122994
-3.4259431	自	-0.10228611
-3.7130828	六月	-0.11422432
-3.5950336	底	-0.099417105
-4.385871	呼和浩特	-0.077122994
-3.022501	市	-0.1185991
-3.6500595	率先	-0.12291792
-3.5023105	宣布	-0.0937354
-3.4624503	取消	-0.23278435
-2.6972852	后	-0.30928883
-4.1387	各地	-0.099417105
-3.5023105	便	-0.077122994
-3.5023105	纷纷	-0.09132289
-4.2522893	跟进	-0.077122994
-3.3045473	仅	-0.15868212
-2.2680712	一	-0.36488858
-2.7681706	个	-0.15110846
-2.9130588	多	-0.3025185
-3.6500595	月	-0.1294922
-3.2097774	时间	-0.12029264
-3.0088868	里	-0.286423
-3.8757143	除了	-0.08754084
-3.1502001	北京	-0.12211017
-3.3610175	上海	-0.10559056
-3.5462022	广州	-0.077122994
-3.7130828	深圳	-0.077122994
-3.0510805	四	-0.2529711
-3.1691654	线	-0.25444302
-3.0088868	城市	-0.14894526
-2.211116	和	-0.09898431
-4.385871	三亚	-0.077122994
-3.5023105	之外	-0.4541921
-3.8757143	四十六	-0.13694093
-3.6500595	当中	-0.31588942
-3.9875977	四十一	-0.077122994
-2.9130588	已	-0.10105576
-3.2545824	正式	-0.10995413
-3.0816739	或	-0.11436821
-4.385871	变相	-0.077122994
-3.78683	放松	-0.1574597
-2.131367	了	-0.23430853
-3.5023105	财政	-0.12230819
-3.3045473	金融	-0.12254667
-2.9828758	政策	-0.26677084
-4.2522893	紧随	-0.18791908
-4.2522893	其后	-0.077122994
-4.385871	而来	-0.077122994
-3.3318653	显示	-0.36393505
-3.1320283	出	-0.11073756
-3.9875977	极	-0.1181149
-3.78683	强	-0.111008584
-4.385871	威力	-0.077122994
-2.553787	与	-0.10356618
-4.2522893	往	-0.077122994
-3.4624503	需求	-0.18810932
-4.2522893	密切	-0.18791908
-3.022501	相关	-0.23281452
-3.7130828	房贷	-0.077122994
-3.9875977	其中	-0.086537845
-3.5023105	包括	-0.077122964
-3.5462022	拥有	-0.077122994
-4.385871	套住	-0.077122994
-3.5023105	房	-0.1259868
-2.9351072	并	-0.2789979
-4.385871	结清	-0.077122994
-4.1387	相应	-0.1289973
-3.5462022	购房	-0.2500177
-3.4259431	贷款	-0.1397846
-3.9875977	家庭	-0.1289973
-2.457256	为	-0.12105316
-3.5462022	改善	-0.21779084
-3.9875977	居住	-0.077122994
-3.7130828	条件	-0.17274643
-3.5950336	再次	-0.077122994
-3.6500595	申请	-0.14960358
-3.5462022	购买	-0.17820261
-3.5462022	普通	-0.0971355
-3.5950336	商品	-0.14960358
-3.4624503	住房	-0.17149794
-3.0365555	银行	-0.13700818
-4.385871	业金	-0.077122994
-4.385871	融机	-0.077122994
-4.2522893	构	-0.077122994
-3.4624503	执行	-0.10830604
-4.1387	首套	-0.077122994
-3.4624503	款	-0.123785794
-3.0978186	这个	-0.11548261
-4.2522893	后来	-0.077122994
-2.4388359	被	-0.1264618
-3.0510805	称	-0.16002236
-4.2522893	九三零	-0.077122994
-3.9875977	新政	-0.1289973
-4.1387	策	-0.1289973
-3.5023105	措施	-0.29787987
-2.7105668	市场	-0.19052611
-4.2522893	公认	-0.077122994
-2.2490203	是	-0.1472061
-3.1502001	今年	-0.105455495
-3.4624503	影响	-0.13375168
-2.760538	以	-0.13331367
-3.2545824	提高	-0.20897059
-4.2522893	公积金	-0.077122994
-4.2522893	缴存	-0.18791908
-4.1387	职工	-0.077123016
-3.1320283	消费	-0.3357735
-3.5950336	能力	-0.22887392
-3.3610175	支持	-0.13533401
-3.7130828	型	-0.077123016
-3.5023105	住	-0.124779485
-3.2545824	通过	-0.08309058
-3.8757143	补贴	-0.077123016
-3.78683	手段	-0.1595772
-4.1387	鼓励	-0.077122994
-3.8757143	地区	-0.077122994
-2.1551044	在	-0.16135925
-2.1943622	不	-0.26169172
-4.2522893	断	-0.077122994
-3.3610175	增加	-0.16823198
-4.2522893	多项	-0.077122994
-4.385871	惠及	-0.077122994
-3.022501	者	-0.1788667
-3.9875977	尚未	-0.077122994
-3.8757143	大幅	-0.077122994
-3.4259431	调整	-0.10600289
-3.4259431	住宅	-0.13375168
-4.1387	总价	-0.077122994
-3.7130828	认定	-0.099417105
-3.2788467	标准	-0.2327622
-3.4624503	方式	-0.28791443
-4.1387	刺激	-0.077122994
-3.9875977	入市	-0.077122994
-4.1387	另外	-0.111008584
-4.2522893	剂	-0.077122994
-4.385871	强心剂	-0.077122994
-3.0661077	则	-0.13445476
-4.1387	当属	-0.077122994
-4.1387	央行	-0.077122994
-4.385871	对称	-0.077122994
-4.2522893	降息	-0.077122994
-4.385871	有业	-0.077122994
-4.2522893	内人	-0.14776348
-4.2522893	士	-0.077122994
-4.1387	当时	-0.077122994
-2.6780946	就	-0.24616754
-3.5950336	指出	-0.47306335
-3.3610175	对于	-0.08727058
-2.8257194	房地	-1.0631669
-3.0978186	产业	-0.1783998
-3.8757143	来说	-0.56748664
-3.8757143	货币	-0.111008584
-4.2522893	历来	-0.077122994
-3.8757143	有效	-0.077123016
-3.9875977	工具	-0.26144335
-3.7130828	此次	-0.18105371
-2.350967	将	-0.17576385
-3.78683	加快	-0.111008584
-4.1387	库存	-0.077122994
-3.022501	去	-0.111430556
-2.8819528	化	-0.33221996
-3.5023105	重要	-0.20115606
-4.385871	利器	-0.077122994
-3.4259431	产	-0.10600285
-3.7130828	迅速	-0.077122994
-3.8757143	变化	-0.2969721
-4.385871	城乡	-0.077122994
-3.3045473	建设	-0.13533401
-4.2522893	部会	-0.077122994
-4.385871	配合	-0.077122994
-2.4177158	有	-0.16073611
-3.5950336	关	-0.10228611
-3.1889968	部门	-0.15280844
-4.2522893	强化	-0.077122994
-3.7130828	调控	-0.10228611
-3.8757143	主体	-0.077123016
-3.5023105	责任	-0.22887392
-3.8757143	及时	-0.077123016
-4.385871	差别	-0.077122994
-3.9875977	信贷	-0.077122994
-2.5879998	等	-0.21696785
-3.2316022	方面	-0.2745423
-3.6500595	居民	-0.077122994
-3.5950336	合理	-0.1181149
-4.1387	总体	-0.14776348
-2.410898	上	-0.259792
-3.5950336	保持	-0.099417105
-4.1387	平稳	-0.1181149
-3.9875977	运行	-0.077122994
-4.2522893	建	-0.077122994
-3.2097774	部	-0.13214824
-3.5023105	新闻	-0.14315838
-4.2522893	发言	-0.18791908
-2.6843977	人	-0.21994938
-4.385871	倪	-0.077122994
-4.1387	虹	-0.077123016
-3.5950336	近日	-0.15817147
-3.0816739	表示	-0.54249865
-3.8757143	即	-0.077122994
-3.9875977	做好	-0.077122994
-3.7130828	事	-0.1595772
-3.78683	发挥	-0.111008584
-3.0088868	经济	-0.1682115
-4.2522893	规律	-0.077122994
-3.9875977	事情	-0.10228611
-3.9875977	望	-0.077123016
-3.8757143	超	-0.077123016
-4.1387	三百亿	-0.14776348
-3.9875977	美元	-0.47057664
-4.1387	连	-0.077123016
-4.1387	一向	-0.077122994
-4.385871	看多	-0.077122994
-4.2522893	任	-0.077122994
-4.385871	志强	-0.077122994
-3.9875977	近期	-0.1181149
-4.385871	反常	-0.077122994
-4.385871	态	-0.077122994
-2.9351072	地	-0.1101483
-4.2522893	发表	-0.077122994
-4.385871	看空	-0.077122994
-4.385871	言论	-0.077122994
-3.9875977	为了	-0.077123016
-3.8757143	维持	-0.077123016
-3.7130828	业绩	-0.111008584
-4.1387	稳步	-0.14776348
-3.2097774	增长	-0.29951093
-3.0661077	房企	-0.2053063
-3.8757143	加大	-0.077122994
-3.4624503	海外	-0.20094323
-2.9465659	投资	-0.24885847
-3.9875977	力度	-0.26144335
-4.385871	填补	-0.077122994
-3.5950336	国内	-0.1563165
-3.9875977	下滑	-0.26144335
-3.2316022	带来	-0.22844593
-3.9875977	损失	-0.077122994
-4.1387	近年	-0.1289973
-2.9704323	来	-0.17936859
-2.6972852	中国	-0.22125679
-3.1502001	全球	-0.16144699
-3.1145868	资本	-0.308826
-3.9875977	输出	-0.1181149
-4.2522893	大国	-0.18791908
-3.7130828	对外	-0.077122994
-4.2522893	跨境	-0.077122994
-3.78683	额	-0.09036168
-4.2522893	则有	-0.077122994
-3.4624503	超过	-0.077122994
-3.9875977	此前	-0.077122994
-3.5950336	数	-0.09132289
-2.8257194	年	-0.17082736
-4.2522893	总和	-0.077122994
-4.385871	新华	-0.077122994
-4.1387	联	-0.111008584
-3.78683	一月	-0.099417105
-3.78683	份	-0.09527761
-4.385871	进军	-0.077122994
-4.385871	澳大利亚	-0.077122994
-3.2316022	规模	-0.1303182
-3.78683	两家	-0.077122994
-2.862388	无	-0.25009897
-3.8757143	疑	-0.077122994
-4.1387	绿地	-0.077122994
-3.5023105	万达	-0.121196434
-4.1387	建成	-0.077122994
-3.0816739	该	-0.31183285
-2.9956868	项目	-0.21884122
-4.385871	望成	-0.077122994
-4.385871	芝加哥	-0.077122994
-2.7530377	第	-0.37734327
-4.385871	三高	-0.077122994
-3.7130828	建筑	-0.10228611
-3.3922682	总	-0.1488666
-4.2522893	两百亿	-0.077122994
-3.3318653	国家	-0.10532833
-4.385871	变动	-0.077122994
-3.3318653	进一步	-0.10600285
-2.5491123	到	-0.13422994
-4.1387	国务院	-0.077123016
-4.1387	一般	-0.077122994
-4.385871	境外	-0.077122994
-4.385871	审核	-0.077122994
-3.5462022	制度	-0.14178635
-3.9875977	打破	-0.077122994
-3.6500595	过去	-0.077122994
-4.385871	外汇	-0.077122994
-3.3318653	管理	-0.10915761
-3.3922682	资金	-0.12998757
-3.8757143	流动	-0.43753457
-3.4259431	重	-0.124779485
-3.7130828	限制	-0.25789747
-3.8757143	移民	-0.077123016
-3.8757143	人数	-0.077123016
-4.385871	出海	-0.077122994
-3.1145868	提供	-0.21746609
-3.5950336	大量	-0.099417105
-4.385871	胡润	-0.077122994
-4.2522893	私人	-0.077122994
-4.385871	财富	-0.077122994
-4.385871	白皮书	-0.077122994
-3.3045473	调查	-0.24978669
-3.8757143	内地	-0.077123016
-4.1387	千万	-0.077122994
-4.385871	富豪	-0.077122994
-2.5879998	中	-0.34851655
-3.1320283	百分	-1.0446079
-2.8720603	之	-0.16364907
-3.1502001	正在	-0.11164172
-3.6500595	考虑	-0.099417105
-4.1387	国外	-0.077122994
-3.4624503	十四	-0.111008584
-2.9351072	已经	-0.18034217
-3.8757143	或者	-0.077122994
-3.2097774	家	-0.18743356
-4.385871	资	-0.077122994
-3.9875977	一亿	-0.1289973
-2.8920758	元	-0.45428962
-3.5950336	以上	-0.2591835
-4.385871	富人	-0.077122994
-4.1387	意向	-0.077122994
-3.1691654	的人	-0.16663973
-3.6500595	比例	-0.14178635
-3.0978186	高	-0.27447063
-3.5950336	达	-0.0937354
-4.1387	七十四	-0.077122994
-3.1502001	公布	-0.41838378
-4.385871	招股	-0.077122994
-3.78683	书	-0.19095066
-4.1387	二零一一	-0.3456379
-3.5950336	十月	-0.22183014
-3.0365555	日	-0.3415932
-2.760538	公司	-0.23179433
-3.3318653	的大	-0.08812701
-3.6500595	客户	-0.077122994
-3.6500595	分别	-0.09243465
-4.2522893	通号	-0.077122994
-3.3610175	集团	-0.11308665
-3.5462022	院	-0.09132289
-4.385871	现任	-0.077122994
-3.9875977	董事	-0.077122994
-4.2522893	会成	-0.077122994
-3.3922682	员	-0.10341394
-4.385871	信号	-0.077122994
-3.2788467	系统	-0.24872454
-3.3922682	这种	-0.077123016
-2.8529265	产品	-0.23455763
-4.1387	本身	-0.077122994
-3.2545824	是一	-0.22669938
-4.2522893	指定	-0.18791908
-2.8001165	性	-0.2905249
-4.385871	而是	-0.077123016
-3.1889968	竞争	-0.22183014
-3.9875977	争	-0.077122994
-3.0510805	领域	-0.3426296
-3.3922682	它	-0.09305851
-3.9875977	形式	-0.1289973
-3.5950336	意义	-0.17607264
-4.1387	上有	-0.077122994
-3.8757143	但	-0.082441494
-3.8757143	实际	-0.1181149
-2.7759395	没	-0.4585771
-3.4259431	形成	-0.11543638
-3.8757143	利益	-0.111008584
-3.5950336	圈	-0.077122994
-3.4624503	所有	-0.08812701
-4.2522893	特定	-0.18791908
-4.385871	圈子	-0.077122994
-4.385871	里来	-0.077122994
-3.9875977	分配	-0.077122994
-3.78683	相对	-0.077122994
-3.4259431	应	-0.08878303
-4.1387	管制	-0.14776348
-4.385871	较少	-0.077122994
-3.5462022	过程	-0.33173418
-4.2522893	中间	-0.077122994
-3.78683	只是	-0.14776348
-4.385871	表面	-0.077122994
-4.385871	层次	-0.077122994
-3.78683	展开	-0.111008584
-4.2522893	实质	-0.077122994
-3.1889968	完成	-0.12313874
-3.78683	如果	-0.09305851
-3.8757143	话	-0.17274643
-3.5023105	之间	-0.19411184
-2.7312832	会	-0.13282992
-4.1387	相互	-0.077122994
-4.385871	制约	-0.077122994
-3.5950336	监督	-0.14178635
-3.3922682	这样	-0.30041048
-3.2788467	能够	-0.108252294
-3.5950336	保障	-0.17607264
-3.8757143	质量	-0.10228611
-4.1387	从而	-0.077122994
-3.5462022	导致	-0.09132289
-3.5950336	对其	-0.12291792
-3.7130828	评价	-0.12291792
-3.5950336	处于	-0.077122994
-4.385871	缺失	-0.077122994
-3.9875977	状态	-0.111008584
-4.1387	央	-0.3456379
-4.1387	企	-0.077122994
-4.2522893	无限	-0.077122994
-3.8757143	制	-0.077123016
-4.2522893	边际	-0.18791908
-3.78683	扩张	-0.13694093
-4.1387	失败	-0.14776348
-2.9024405	这	-0.1838909
-4.1387	利于	-0.077122994
-3.6500595	机制	-0.099417105
-3.6500595	垄断	-0.0971355
-2.7530377	企业	-0.21593034
-2.6142008	都	-0.29597387
-3.7130828	内部	-0.10600289
-3.5950336	采购	-0.099417105
-3.2545824	模式	-0.21141179
-4.385871	能保	-0.077122994
-4.385871	证所	-0.077122994
-3.0816739	好	-0.26783922
-4.2522893	政企	-0.077122994
-4.2522893	兴	-0.077122994
-3.0088868	分	-0.22814226
-4.2522893	痼疾	-0.077122994
-4.385871	难消	-0.077122994
-3.8757143	待	-0.077123016
-4.2522893	破除	-0.077122994
-3.6500595	种	-0.077122994
-4.1387	迄今	-0.077122994
-3.1320283	很	-0.17439061
-4.385871	难说	-0.077122994
-3.5950336	完全	-0.077122994
-3.9875977	分开	-0.1289973
-4.1387	尤其	-0.21779084
-4.1387	号称	-0.077122994
-3.9875977	自然	-0.1181149
-2.9956868	行业	-0.18910904
-2.9130588	更	-0.23406707
-3.9875977	如此	-0.077122994
-3.1320283	还是	-0.091857836
-4.2522893	合一	-0.077122994
-4.2522893	体制	-0.077122994
-3.2316022	这些	-0.09132289
-3.9875977	如今	-0.077123016
-4.385871	日之	-0.077122994
-4.385871	铁道	-0.077122994
-3.7130828	法律	-0.077123016
-3.7130828	地位	-0.3639189
-4.1387	著名	-0.077122994
-4.385871	学家	-0.077122994
-4.1387	修	-0.077122994
-4.1387	泽	-0.077122994
-4.1387	参考	-0.14776348
-3.1502001	记者	-0.14309864
-4.385871	常修	-0.077122994
-3.2097774	向	-0.11275088
-3.1145868	数据	-0.26795995
-4.385871	固定	-0.077122994
-3.3922682	资产	-0.12713118
-3.78683	铁路	-0.0971355
-3.8757143	运输	-0.077122994
-3.3922682	业	-0.13223052
-4.385871	一半来	-0.077122994
-2.9351072	于	-0.10058286
-4.385871	国有	-0.077122994
-4.1387	控股	-0.077122994
-3.6500595	八十	-0.099417105
-4.2522893	危害	-0.077122994
-3.0661077	让	-0.13551927
-4.2522893	失效	-0.18791908
-2.791907	要	-0.1094108
-3.2316022	起	-0.13533401
-3.5023105	资源	-0.14315838
-3.6500595	配置	-0.10228611
-4.1387	极大	-0.077122994
-4.385871	激发	-0.077122994
-3.1889968	创造	-0.22402044
-3.4624503	推动	-0.09132289
-3.1145868	社会	-0.20440985
-3.5023105	生产	-0.111008584
-3.2316022	力	-0.21833423
-2.8257194	发展	-0.32321972
-3.9875977	消除	-0.1289973
-3.3318653	行为	-0.17308466
-3.4624503	就会	-0.09243465
-3.3922682	功能	-0.27408156
-3.9875977	整个	-0.077122994
-3.9875977	效率	-0.099417105
-4.385871	打折	-0.077122994
-4.1387	扣	-0.077122994
-4.385871	失灵	-0.077122994
-3.78683	方法	-0.111008584
-4.385871	引入	-0.077122994
-2.6537592	点	-0.2862826
-3.5950336	改革	-0.19051632
-3.5462022	民营	-0.39974603
-3.1691654	进入	-0.085710995
-4.385871	但是	-0.077122994
-3.9875977	些	-0.077122994
-4.385871	难进	-0.077122994
-3.78683	入	-0.111008584
-3.0816739	应用	-0.22643048
-3.3922682	应该	-0.100764856
-4.2522893	交给	-0.18791908
-3.9875977	起来	-0.47057664
-3.5023105	现在	-0.14733459
-3.0661077	需要	-0.08677005
-4.2522893	现有	-0.077122994
-3.5950336	经营	-0.09527761
-4.385871	链条	-0.077122994
-2.760538	进行	-0.13726987
-4.385871	重新	-0.077122994
-3.8757143	思考	-0.1181149
-3.9875977	链	-0.077123016
-4.1387	是有	-0.077122994
-3.9875977	放	-0.077122994
-2.9956868	给	-0.08191974
-4.1387	介入	-0.077122994
-3.9875977	单独	-0.077122994
-4.2522893	家来	-0.077122994
-3.2545824	提出	-0.19536105
-3.8757143	细化	-0.1181149
-3.3610175	三公	-0.5680663
-3.9875977	经费	-0.0971355
-3.9875977	解释	-0.09527761
-4.385871	说明	-0.077122994
-3.4624503	推进	-0.13809377
-3.8757143	重点	-0.077122994
-3.1691654	信息	-0.20600854
-3.1889968	公开	-0.16178039
-4.385871	各省	-0.077122994
-3.0978186	区	-0.13151243
-4.2522893	市政	-0.18791908
-4.2522893	府	-0.077122994
-4.385871	订制	-0.077122994
-4.2522893	表	-0.14776348
-4.1387	争取	-0.077122994
-3.5950336	两年	-0.0971355
-3.5950336	左右	-0.4116186
-3.1502001	内	-0.12468617
-3.2097774	实现	-0.096949294
-4.1387	省级	-0.14776348
-3.4624503	全面	-0.124779485
-3.78683	中央	-0.11422432
-3.78683	行政	-0.10600289
-3.3610175	费	-0.18813469
-4.2522893	此项	-0.077122994
-2.9956868	工作	-0.24199809
-3.2545824	由	-0.077122994
-4.385871	牵头	-0.077122994
-3.78683	落实	-0.077122994
-4.2522893	繁杂	-0.077122994
-3.9875977	预算	-0.077122994
-4.1387	苹果	-0.077122994
-4.385871	代工	-0.077122994
-3.9875977	厂	-0.077122994
-4.385871	和硕	-0.077122994
-3.5462022	展会	-0.15447477
-3.78683	计划	-0.111008584
-3.4624503	五月	-0.15151685
-3.5023105	二十五	-0.19608569
-3.6500595	二十七	-0.41279942
-3.7130828	举行	-0.248655
-4.2522893	汇聚	-0.077122994
-3.2788467	近	-0.09447229
-3.8757143	一百	-0.13694093
-3.2545824	位	-0.14549342
-4.2522893	高管	-0.077122994
-4.385871	并举	-0.077122994
-3.78683	办	-0.077122994
-4.385871	为期	-0.077122994
-3.9875977	三天	-0.077122994
-3.6500595	会议	-0.0971355
-3.0365555	从	-0.0832784
-4.385871	新机	-0.077122994
-3.5950336	器	-0.18390493
-3.5023105	物	-0.34148908
-3.9875977	联网	-0.09527761
-3.5023105	娱乐	-0.17820261
-3.1691654	可	-0.15550287
-3.9875977	穿戴	-0.10600289
-3.2545824	设备	-0.101251066
-4.385871	听取	-0.077122994
-3.3610175	部分	-0.11185292
-4.1387	具	-0.077122994
-3.5950336	创新	-0.09527761
-3.8757143	思维	-0.111008584
-4.385871	深刻	-0.077122994
-4.385871	见解	-0.077122994
-3.3045473	我们	-0.13355568
-4.1387	大会	-0.14776348
-3.8757143	具体	-0.099417105
-4.2522893	中美	-0.077122994
-3.5462022	科技	-0.1181149
-4.385871	展望	-0.077122994
-4.385871	周一	-0.077122994
-4.2522893	嘉里	-0.18791908
-4.385871	大酒	-0.077122994
-3.9875977	店	-0.077123016
-4.385871	三楼	-0.077122994
-4.2522893	宴会	-0.18791908
-3.7130828	厅	-0.099417105
-4.2522893	详细	-0.077122994
-3.3922682	了解	-0.28786066
-4.1387	两大	-0.077123016
-3.2788467	主要	-0.091857836
-3.6500595	因素	-0.3604661
-4.2522893	促成	-0.077122994
-3.5023105	以及	-0.077122994
-4.385871	塑造	-0.077122994
-4.1387	定义	-0.077122994
-3.1320283	未来	-0.15993544
-4.2522893	途径	-0.077122994
-3.78683	演讲	-0.111008584
-4.2522893	总经	-0.077122994
-4.1387	济	-0.077122994
-3.6500595	师	-0.09527761
-3.9875977	高级	-0.077122994
-3.2788467	研究	-0.13770914
-4.1387	总监	-0.077122994
-3.5462022	周	-0.13549349
-4.2522893	群	-0.077122994
-4.2522893	捷	-0.077122994
-4.385871	孚	-0.077122994
-4.385871	凯	-0.077122994
-3.7130828	咨询	-0.10600289
-3.8757143	有限	-0.21779084
-3.3922682	亚洲	-0.17026278
-3.9875977	传媒	-0.077123016
-4.385871	黎	-0.077122994
-4.385871	瑞刚	-0.077122994
-4.385871	炉边	-0.077122994
-4.385871	谈话	-0.077122994
-2.9024405	三	-0.28269675
-3.78683	电影	-0.077122994
-3.78683	电视	-0.111008584
-4.2522893	和数	-0.077122994
-3.8757143	字	-0.077123016
-4.1387	制作	-0.077122994
-3.6500595	内容	-0.14960358
-4.385871	分发	-0.077122994
-3.4259431	营销	-0.1257682
-4.385871	主持	-0.077122994
-4.385871	华为	-0.077122994
-3.1502001	手机	-0.1520057
-4.2522893	华人	-0.077122994
-3.6500595	文化	-0.077122994
-3.8757143	基金	-0.077122994
-4.385871	浦东	-0.077122994
-3.78683	专家	-0.16509955
-3.7130828	们	-0.077122994
-4.1387	讨论	-0.14776348
-3.78683	哪些	-0.1595772
-4.385871	将获	-0.077122994
-3.3318653	得	-0.077122964
-3.8757143	广泛	-0.077123016
-3.9875977	普及	-0.1289973
-3.3045473	发生	-0.10995413
-4.385871	大变	-0.077122994
-4.385871	爱特	-0.077122994
-3.9875977	梅尔	-0.077122994
-4.385871	亚太	-0.077122994
-4.2522893	高科	-0.077122994
-4.2522893	技	-0.077122994
-3.5950336	电子	-0.077122994
-4.2522893	主管	-0.077122994
-4.385871	埃森哲	-0.077122994
-3.1691654	张	-0.13061093
-3.8757143	程	-0.077123016
-4.385871	首席	-0.077122994
-4.2522893	官	-0.077122994
-4.385871	兼	-0.077122994
-3.78683	联合	-0.077122994
-4.2522893	创始	-0.18791908
-4.1387	迈	-0.077122994
-3.2788467	外	-0.32989055
-4.2522893	迪	-0.077122994
-3.3045473	网络	-0.16663973
-3.6500595	二十六	-0.17607264
-4.385871	周二	-0.077122994
-3.022501	五	-0.24680758
-3.9875977	京	-0.35835332
-3.9875977	东	-0.0971355
-3.8757143	构建	-0.1181149
-4.1387	完整	-0.077122994
-3.7130828	开放	-0.25789747
-3.022501	智能	-0.2804022
-4.385871	生态	-0.077122994
-4.2522893	翁	-0.077122994
-4.2522893	志	-0.077122994
-3.0978186	技术	-0.1827852
-4.385871	革命	-0.077122994
-3.9875977	手表	-0.077122994
-3.3922682	带	-0.121196434
-4.385871	嵌入	-0.077122994
-3.5023105	式	-0.08952235
-3.8757143	健身	-0.077123016
-4.385871	手镯	-0.077122994
-4.2522893	珠宝	-0.077122994
-4.1387	衣服	-0.3456379
-4.385871	博士	-0.077122994
-4.385871	比如	-0.077122994
-4.1387	参观	-0.14776348
-4.1387	合照	-0.077122994
-3.8757143	主动	-0.077123016
-3.0816739	说	-0.35796863
-3.78683	如	-0.077123016
-4.385871	搂	-0.077122994
-2.8819528	着	-0.09527757
-3.0816739	我	-0.14770997
-4.385871	腰	-0.077122994
-4.2522893	吧	-0.18791908
-4.2522893	类似	-0.1181149
-3.0978186	机器	-0.38117334
-3.7130828	在国	-0.22312714
-4.2522893	网点	-0.077122994
-3.3318653	使用	-0.13605578
-4.2522893	看点	-0.077123016
-3.022501	二	-0.17674951
-3.6500595	送	-0.099417105
-3.7130828	热	-0.10228611
-4.1387	咖啡	-0.077122994
-3.5950336	昨日	-0.077122994
-3.5023105	当	-0.08878303
-4.2522893	人大	-0.077122994
-3.0978186	世界	-0.2415651
-3.3610175	楼	-0.16460818
-4.1387	时候	-0.077122994
-4.2522893	稳稳	-0.18791908
-4.385871	递	-0.077122994
-4.2522893	面前	-0.18791908
-3.9875977	运用	-0.077122994
-3.2097774	一些	-0.08914138
-4.1387	餐厅	-0.077122994
-3.7130828	据	-0.104515016
-3.1889968	服务	-0.15942502
-4.1387	厂家	-0.077122994
-3.5462022	介绍	-0.41279942
-4.1387	一台	-0.077122994
-3.9875977	售价	-0.077122994
-3.7130828	约	-0.077122994
-4.1387	五万	-0.21779084
-4.1387	只要	-0.077123016
-4.1387	提前	-0.077122994
-3.78683	设置	-0.077122994
-3.7130828	程序	-0.3639189
-3.3318653	规划	-0.19102977
-4.2522893	路线	-0.18791908
-3.78683	来到	-0.077122994
-3.9875977	顾客	-0.1289973
-4.385871	座位	-0.077122994
-2.9704323	前	-0.18357511
-3.9875977	只需	-0.077122994
-4.2522893	击	-0.077122994
-3.1502001	人脸	-0.46206707
-4.385871	屏	-0.077123016
-4.385871	选好	-0.077122994
-2.8001165	自己	-0.27713633
-4.1387	喜欢	-0.077122994
-4.2522893	饮料	-0.077122994
-4.1387	品种	-0.14776348
-3.4624503	台	-0.1303182
-4.385871	实时	-0.077122994
-4.1387	收	-0.14776348
-4.1387	订单	-0.077122994
-3.3610175	消息	-0.39705887
-3.5950336	自动	-0.18943223
-3.3045473	走	-0.13605578
-4.385871	餐	-0.077122994
-3.5023105	拿	-0.20294558
-4.385871	餐点	-0.077122994
-3.3610175	再	-0.0971355
-4.385871	折返	-0.077122994
-3.8757143	东西	-0.111008584
-4.2522893	送到	-0.077122994
-4.385871	桌前	-0.077122994
-3.8757143	它们	-0.10600289
-3.8757143	代	-0.08812701
-3.8757143	消防	-0.14776348
-3.9875977	亮相	-0.077122994
-3.4624503	还有	-0.087014005
-3.5950336	保护	-0.1181149
-3.5023105	身	-0.23675375
-3.3922682	安全	-0.12998757
-4.385871	人制	-0.077122994
-4.2522893	造	-0.077122994
-3.4259431	商	-0.1379905
-3.5023105	人员	-0.10228611
-4.2522893	易	-0.077122994
-3.8757143	接近	-0.077123016
-4.2522893	火灾	-0.077122994
-4.385871	扑救	-0.077122994
-3.9875977	帮助	-0.077122994
-4.385871	扑灭	-0.077122994
-4.385871	琴	-0.077122994
-4.2522893	棋	-0.077122994
-4.385871	书画	-0.077122994
-4.385871	样样	-0.077122994
-4.2522893	精	-0.077122994
-3.3318653	很多	-0.14509381
-3.1145868	能	-0.10630936
-4.385871	下棋	-0.077122994
-3.5023105	现场	-0.24022886
-4.2522893	拿起	-0.077122994
-3.9875977	五子	-0.1289973
-4.385871	棋盘	-0.077122994
-2.7759395	下	-0.2112015
-3.78683	就能	-0.077122994
-3.1502001	用	-0.10643195
-4.2522893	灵敏	-0.18791908
-3.5462022	手	-0.14717385
-4.385871	抓起	-0.077122994
-4.385871	棋子	-0.077122994
-4.2522893	对弈	-0.077122994
-4.2522893	比拼	-0.077122994
-4.2522893	棋艺	-0.077122994
-3.5950336	参展	-0.35835332
-3.5023105	单位	-0.10830604
-3.6500595	负责	-0.5308183
-4.1387	输入	-0.077122994
-4.385871	棋棋	-0.077122994
-4.385871	谱	-0.077122994
-4.385871	有兴	-0.077122994
-4.2522893	趣	-0.18791908
-3.6500595	市民	-0.077123016
-4.1387	届时	-0.077122994
-3.022501	可以	-0.1440422
-4.385871	展位	-0.077122994
-4.385871	番	-0.077122994
-4.385871	看看	-0.077122994
-3.8757143	谁	-0.14776348
-3.4624503	更加	-0.0937354
-4.385871	精湛	-0.077122994
-4.385871	才艺	-0.077122994
-2.8346002	还	-0.16482466
-4.385871	绘画	-0.077122994
-3.7130828	拍	-0.13694093
-3.5023105	照片	-0.168057
-4.385871	蓝牙	-0.077122994
-4.2522893	传到	-0.077122994
-3.9875977	电脑	-0.077123016
-3.6500595	杭州	-0.10401662
-3.3045473	成功	-0.15151685
-3.0510805	获得	-0.23360507
-3.6500595	二零二	-0.47306335
-4.385871	二年	-0.077123016
-3.5023105	亚运	-0.47788966
-3.1145868	举办	-0.15851715
-3.5023105	权	-0.23675375
-3.78683	申办	-0.10600289
-4.2522893	一路	-0.077122994
-4.2522893	胸	-0.077122994
-4.385871	有成	-0.077122994
-4.2522893	竹	-0.077122994
-3.3610175	十九	-0.25121367
-3.7130828	届	-0.10830604
-3.5950336	这次	-0.12230819
-4.1387	紧	-0.077122994
-4.385871	锣	-0.077122994
-4.2522893	密	-0.077122994
-4.385871	鼓	-0.077122994
-4.2522893	筹备	-0.18791908
-3.2097774	作为	-0.0832784
-3.3045473	浙江	-0.2299057
-3.3610175	省	-0.077122994
-4.385871	省会	-0.077122994
-4.385871	奥体	-0.077122994
-3.3922682	中心	-0.12669325
-4.385871	西湖	-0.077122994
-4.385871	一江	-0.077122994
-4.1387	隔	-0.077122994
-3.9875977	即将	-0.077122994
-4.1387	二零一	-0.14776348
-4.1387	七年	-0.077122994
-4.385871	交付	-0.077122994
-4.385871	八万人	-0.077122994
-3.8757143	育	-0.1181149
-3.4259431	场	-0.12669325
-3.8757143	游泳	-0.077122994
-3.7130828	馆	-0.10228611
-3.4259431	全国	-0.077123016
-4.385871	洲际	-0.077122994
-3.1145868	体育	-0.23613949
-3.78683	赛事	-0.077122994
-3.0816739	八	-0.375904
-4.385871	短池	-0.077122994
-3.6500595	锦标	-0.56247336
-3.3922682	赛	-0.18451189
-3.5023105	概念	-0.20649222
-3.8757143	股	-0.077122994
-4.2522893	涨停	-0.077122994
-4.385871	赞	-0.077122994
-3.6500595	虽然	-0.08610547
-3.5462022	投入	-0.0971355
-3.9875977	多少	-0.077123016
-3.5950336	官方	-0.077122994
-3.9875977	声音	-0.077122994
-4.2522893	流出	-0.077122994
-4.385871	总计	-0.077122994
-4.1387	超越	-0.077122994
-3.9875977	五年	-0.077122994
-3.2545824	达到	-0.11551007
-4.385871	一千二百多	-0.077122994
-3.6500595	亿	-0.1595772
-3.7130828	人民	-0.099417105
-4.2522893	币	-0.18791908
-3.3045473	证券	-0.23360544
-3.5462022	报	-0.20257318
-3.3318653	报道	-0.37223527
-3.4259431	八月	-0.17443529
-3.5950336	三十	-0.111008584
-4.2522893	日发	-0.18791908
-4.2522893	布	-0.077122994
-4.2522893	券商	-0.077122994
-4.1387	研	-0.077122994
-3.8757143	对比	-0.077123016
-4.2522893	一千二百	-0.077122994
-3.2545824	亿元	-0.5510477
-4.1387	预计	-0.077122994
-3.3610175	只	-0.11308665
-4.2522893	少	-0.09243465
-4.385871	围绕	-0.077122994
-4.385871	会进	-0.077122994
-3.5462022	行	-0.0937354
-3.78683	改造	-0.077122994
-4.385871	场馆	-0.077122994
-4.385871	维护	-0.077122994
-3.9875977	用于	-0.077122994
-4.385871	面貌	-0.077122994
-3.2788467	环境	-0.14256129
-4.2522893	地铁	-0.077122994
-4.385871	道路	-0.077122994
-4.385871	桥梁	-0.077122994
-3.3318653	基础	-0.36114082
-4.1387	设施	-0.111008584
-3.5023105	综合	-0.1563233
-4.385871	整治	-0.077122994
-3.78683	工业	-0.077122994
-4.2522893	污水	-0.077122994
-3.9875977	治理	-0.077122994
-4.1387	系列	-0.077123016
-3.7130828	工程	-0.17274643
-3.7130828	开展	-0.077122994
-3.78683	首先	-0.077122994
-4.385871	令杭	-0.077122994
-3.78683	州	-0.077122994
-3.5462022	当地	-0.1259868
-4.2522893	基建	-0.077122994
-3.4259431	上市	-0.46110693
-4.385871	获益	-0.077122994
-4.385871	精工	-0.077122994
-4.385871	钢构	-0.077122994
-4.385871	亚	-0.077122994
-4.385871	厦	-0.077122994
-3.78683	股份	-0.111008584
-4.385871	杭钢	-0.077122994
-4.385871	等值	-0.077122994
-3.2788467	关注	-0.54001015
-4.2522893	逆市	-0.077122994
-3.5462022	代表	-0.09527761
-3.8757143	团队	-0.077123016
-3.7130828	核心	-0.099417105
-4.385871	成员	-0.077122994
-3.8757143	阿里巴巴	-0.111008584
-3.9875977	副总	-0.26144335
-4.385871	裁	-0.077122994
-4.385871	金建	-0.077122994
-4.385871	杭	-0.077122994
-4.2522893	会来	-0.077122994
-3.8757143	总部	-0.077123016
-4.2522893	淘宝	-0.077122994
-3.78683	怎么	-0.077122994
-3.2097774	商业	-0.15270875
-4.385871	嗅觉	-0.077122994
-3.8757143	风口	-0.21779084
-4.2522893	民间	-0.077122994
-4.2522893	空前	-0.077122994
-4.2522893	成立	-0.077122994
-4.1387	阿里	-0.14776348
-3.5023105	数字	-0.10401662
-3.78683	首次	-0.13694093
-4.2522893	设立	-0.077122994
-4.2522893	大平	-0.18791908
-4.385871	在仁	-0.077122994
-4.385871	川亚	-0.077122994
-4.1387	运	-0.14776348
-4.385871	练	-0.077122994
-4.385871	借助	-0.077122994
-3.3318653	布局	-0.16954328
-3.022501	用户	-0.22868282
-4.385871	后端	-0.077122994
-3.2545824	交易	-0.13650271
-3.5023105	体系	-0.29787987
-4.1387	云	-0.14776348
-3.7130828	计算	-0.10228611
-3.9875977	大数	-0.47057664
-4.385871	二中	-0.077122994
-3.3922682	国	-0.08610547
-3.3318653	站	-0.1532865
-4.385871	上体	-0.077122994
-3.9875977	随着	-0.08812701
-4.385871	会花	-0.077122994
-4.1387	落	-0.077122994
-3.6500595	在世	-0.5217292
-3.9875977	界	-0.077122994
-4.1387	能否	-0.077122994
-3.9875977	顺利	-0.077122994
-4.385871	起飞	-0.077122994
-4.1387	花	-0.077122994
-4.385871	首尾	-0.077122994
-4.385871	呼应	-0.077122994
-4.1387	盛会	-0.14776348
-3.0661077	其	-0.08082899
-3.9875977	特殊	-0.1289973
-3.78683	局	-0.09036168
-3.78683	处	-0.077122994
-3.9875977	主任	-0.077122994
-3.1502001	王	-0.23725137
-3.5950336	正	-0.0971355
-4.385871	璋	-0.077122994
-3.4259431	目标	-0.29079702
-4.385871	五千亿	-0.077122994
-4.1387	意味	-0.26144335
-4.385871	八百亿	-0.077122994
-3.9875977	增量	-0.1289973
-3.78683	杯	-0.14015944
-4.385871	何时	-0.077122994
-3.7130828	令人	-0.10600289
-4.2522893	瞩目	-0.18791908
-3.8757143	足球	-0.1181149
-4.385871	落户	-0.077122994
-3.5023105	也是	-0.08534977
-4.385871	迷	-0.077122994
-4.385871	关心	-0.077122994
-3.1889968	问题	-0.5397264
-4.385871	卡塔尔	-0.077122994
-4.1387	早	-0.077123016
-4.385871	等到	-0.077122994
-4.1387	二零三	-0.077122994
-3.9875977	四年	-0.1289973
-3.8757143	才能	-0.1181149
-4.2522893	非洲	-0.077122994
-4.385871	过世	-0.077122994
-3.3318653	国际	-0.15245047
-4.385871	足联	-0.077122994
-3.4259431	一直	-0.10830604
-4.2522893	佳	-0.10228611
-4.2522893	时机	-0.077122994
-4.1387	虽	-0.077122994
-3.1502001	却	-0.091857836
-3.022501	过	-0.09421949
-4.385871	书面	-0.077122994
-3.7130828	明确	-0.13694093
-3.9875977	直	-0.077122994
-4.2522893	盯	-0.077122994
-4.385871	前方	-0.077122994
-4.385871	海报	-0.077122994
-4.2522893	创意	-0.077122994
-2.8529265	他	-0.16968693
-4.2522893	领带	-0.077122994
-3.8757143	条	-0.077122994
-3.5462022	另	-0.31787762
-4.385871	一端	-0.077122994
-4.1387	变成	-0.077122994
-4.385871	导火索	-0.077122994
-4.385871	咏荷	-0.077122994
-3.3610175	女儿	-0.100764856
-4.385871	息影	-0.077122994
-4.385871	复出	-0.077122994
-4.2522893	为重	-0.077122994
-3.78683	搜狐	-0.25648725
-3.4624503	讯	-0.18527512
-4.385871	香港	-0.077122994
-3.2316022	媒体	-0.10341394
-3.7130828	日前	-0.10600289
-4.1387	出席	-0.077122994
-4.2522893	护	-0.077122994
-4.1387	眼	-0.077122994
-3.3318653	活动	-0.34590635
-3.1691654	她	-0.11091993
-3.7130828	透露	-0.10228611
-4.385871	大使	-0.077122994
-3.3318653	身份	-0.18807304
-4.2522893	四川	-0.077122994
-4.2522893	探访	-0.077122994
-4.385871	眼疾	-0.077122994
-4.385871	病童	-0.077122994
-4.2522893	曝	-0.077122994
-3.1320283	曾	-0.13129131
-4.2522893	打算	-0.077122994
-4.385871	同行	-0.077122994
-3.8757143	这么	-0.1181149
-4.385871	我有	-0.077122994
-4.385871	想过	-0.077122994
-3.7130828	准备	-0.13694093
-4.2522893	野外	-0.18791908
-4.385871	如厕	-0.077122994
-4.2522893	昆虫	-0.077122994
-4.1387	吓	-0.1289973
-4.385871	傻	-0.077122994
-4.385871	震撼	-0.077122994
-3.9875977	以往	-0.077122994
-4.385871	拍剧	-0.077122994
-3.9875977	习惯	-0.077122994
-4.385871	路途	-0.077122994
-4.2522893	中加	-0.077122994
-4.2522893	油	-0.077122994
-4.2522893	厕所	-0.077122994
-3.5950336	因为	-0.077122994
-4.2522893	布满	-0.077122994
-3.0978186	可能	-0.15631472
-4.385871	吓死	-0.077122994
-3.78683	黄	-0.111008584
-4.385871	毅清	-0.077122994
-3.78683	见	-0.077122994
-4.2522893	后首	-0.077122994
-3.4259431	度	-0.12230819
-4.385871	感谢	-0.077122994
-4.2522893	黄奕	-0.077122994
-4.1387	频道	-0.077122994
-4.385871	前夫	-0.077122994
-4.2522893	出书	-0.077122994
-3.9875977	记录	-0.077122994
-3.9875977	成长	-0.1289973
-4.2522893	故事	-0.077122994
-3.6500595	九月	-0.10830604
-3.5462022	十六	-0.16509955
-4.2522893	台湾	-0.077122994
-4.2522893	三十九	-0.077122994
-2.78385	岁	-0.35282117
-4.385871	关颖	-0.077122994
-4.385871	直挺挺	-0.077122994
-3.9875977	抱	-0.21779084
-4.385871	肉肉	-0.077122994
-3.9875977	身材	-0.077123016
-4.385871	可爱	-0.077122994
-4.385871	爆	-0.077122994
-4.385871	中新	-0.077122994
-3.2788467	网	-0.09488422
-3.6500595	日电	-0.19019079
-3.9875977	时报	-0.1181149
-4.385871	即时	-0.077122994
-4.385871	西夏	-0.077122994
-4.385871	农科所	-0.077122994
-4.385871	小学	-0.077122994
-4.2522893	门口	-0.077122994
-3.5023105	交通	-0.11422432
-3.5950336	事故	-0.12291792
-3.9875977	一辆	-0.077122994
-4.385871	牌照	-0.077122994
-4.385871	二轮	-0.077122994
-4.2522893	摩托	-0.18791908
-3.1889968	车	-0.16971473
-3.5950336	一名	-0.09243465
-3.8757143	小孩	-0.077123016
-4.385871	碰撞	-0.077122994
-3.2545824	孩子	-0.098600864
-4.2522893	送往	-0.18791908
-3.3318653	医院	-0.08610547
-3.8757143	抢救	-0.25789747
-4.385871	效	-0.077122994
-3.9875977	死亡	-0.1181149
-3.7130828	原因	-0.077122994
-4.385871	智障	-0.077122994
-3.9875977	儿	-0.1289973
-3.9875977	走失	-0.077122994
-3.8757143	三百	-0.1181149
-4.385871	天母	-0.077122994
-4.2522893	亲	-0.077122994
-3.9875977	放弃	-0.1289973
-3.78683	寻找	-0.077122994
-4.385871	悔恨	-0.077122994
-3.4624503	男孩	-0.10406316
-4.2522893	下身	-0.077122994
-4.385871	烧伤	-0.077122994
-4.385871	玩伴	-0.077122994
-4.2522893	汽	-0.077122994
-4.385871	淋	-0.077122994
-4.385871	点燃	-0.077122994
-4.385871	裤子	-0.077122994
-3.1889968	警方	-0.1563165
-3.78683	事发	-0.10600289
-3.78683	取证	-0.111008584
-3.6500595	来自	-0.077122994
-3.7130828	患	-0.1289973
-4.2522893	白血	-0.18791908
-3.7130828	病	-0.077122994
-4.385871	扛	-0.077122994
-3.5462022	十三	-0.13549349
-3.3922682	次	-0.1185991
-4.385871	化疗	-0.077122994
-3.7130828	期待	-0.3639189
-4.385871	早点	-0.077122994
-4.1387	上学	-0.3456379
-3.6500595	蔡	-0.17607264
-4.385871	君彦	-0.077122994
-3.4624503	许	-0.19411184
-3.8757143	文	-0.077123016
-4.385871	俊	-0.077122994
-4.385871	摄影	-0.077122994
-3.7130828	本报	-0.16509955
-4.1387	我想	-0.077122994
-3.78683	脸	-0.11639617
-4.2522893	情愿	-0.077122994
-4.385871	地埋	-0.077122994
-4.385871	怨	-0.077122994
-3.7130828	道	-0.25789747
-3.9875977	妈妈	-0.077123016
-4.385871	崔	-0.077122994
-4.1387	女士	-0.077122994
-3.78683	装	-0.077122994
-4.385871	笑脸	-0.077122994
-4.2522893	安慰	-0.077122994
-3.9875977	走出	-0.1181149
-4.385871	病房	-0.077122994
-4.1387	忍	-0.077122994
-4.1387	哗哗	-0.077122994
-4.385871	眼泪	-0.077122994
-3.7130828	三年	-0.10228611
-4.385871	多来	-0.077122994
-4.2522893	原本	-0.077122994
-4.385871	盼	-0.077122994
-4.2522893	恢复	-0.077122994
-4.385871	今秋	-0.077122994
-4.385871	能顺	-0.077122994
-3.78683	利	-0.111008584
-4.2522893	入学	-0.18791908
-3.9875977	想到	-0.077122994
-4.385871	病情	-0.077122994
-4.385871	复发	-0.077122994
-4.385871	背负	-0.077122994
-4.385871	宝剑	-0.077122994
-4.385871	负气	-0.077122994
-4.385871	出走	-0.077122994
-3.3045473	因	-0.086537845
-4.385871	祖母	-0.077122994
-4.385871	逗	-0.077122994
-3.8757143	一句	-0.077123016
-3.4259431	陈	-0.15953687
-4.385871	雷	-0.077122994
-3.78683	通讯	-0.111008584
-4.385871	德峰	-0.077122994
-3.6500595	男童	-0.09082546
-4.385871	八楼	-0.077122994
-3.8757143	坠	-0.56748664
-4.1387	砸	-0.14776348
-4.2522893	轿车	-0.18791908
-2.7384143	时	-0.22450098
-3.9875977	先	-0.077122994
-3.78683	辆	-0.17274643
-3.9875977	出门	-0.077122994
-4.1387	玩耍	-0.077122994
-4.385871	掉入	-0.077122994
-4.385871	排污	-0.077122994
-4.1387	管道	-0.077122994
-3.78683	溺亡	-0.2969721
-4.385871	据说	-0.077122994
-3.4624503	附近	-0.1303182
-3.2788467	看	-0.16466646
-4.1387	牙	-0.077122994
-4.2522893	两小	-0.18791908
-3.9875977	后身	-0.26144335
-3.78683	亡	-0.20904434
-4.1387	鹏鹏	-0.077122994
-3.7130828	家人	-0.077122994
-4.2522893	院方	-0.077122994
-4.385871	协商	-0.077122994
-3.6500595	赔偿	-0.10228611
-3.78683	前往	-0.077122994
-4.385871	顺义	-0.077122994
-4.385871	首儿	-0.077122994
-3.5023105	李	-0.19857495
-4.385871	娇	-0.077122994
-3.8757143	儿童	-0.077122994
-4.385871	口腔	-0.077122994
-3.78683	科	-0.077122994
-4.2522893	看病	-0.077122994
-3.2316022	本	-0.25685236
-4.1387	以为	-0.077122994
-4.385871	次普	-0.077122994
-4.2522893	通	-0.077122994
-4.385871	换药	-0.077122994
-3.7130828	竟	-0.077122994
-4.2522893	治疗	-0.077122994
-4.385871	中意	-0.077122994
-3.78683	身亡	-0.1595772
-4.385871	台风	-0.077122994
-3.5950336	天	-0.17607264
-3.5950336	失踪	-0.12291792
-3.7130828	找到	-0.10600289
-4.2522893	可惜	-0.077122994
-4.385871	命丧	-0.077122994
-4.2522893	溪流	-0.077122994
-3.2316022	九	-0.21862319
-3.2545824	十二	-0.21341892
-4.2522893	上午	-0.14776348
-4.385871	十时	-0.077122994
-4.385871	小叮	-0.077122994
-3.78683	失	-0.2969721
-4.385871	整整	-0.077122994
-3.8757143	六十三	-0.077123016
-3.4259431	小时	-0.13880862
-3.78683	父母	-0.0971355
-4.385871	亲友	-0.077122994
-3.3318653	个人	-0.14177312
-3.6500595	希望	-0.09036168
-4.385871	能平	-0.077122994
-4.2522893	安	-0.077122994
-4.1387	回家	-0.3456379
-3.9875977	不幸	-0.077122994
-3.5462022	最终	-0.077122964
-4.2522893	台州	-0.077122994
-4.385871	仙居	-0.077122994
-4.385871	一处	-0.077122994
-3.7130828	尸体	-0.25789747
-3.5462022	幼儿	-0.40533897
-4.385871	园内	-0.077122994
-4.2522893	摔	-0.077122994
-3.3045473	成	-0.08812701
-4.2522893	九级	-0.18791908
-4.385871	伤残	-0.077122994
-3.3045473	选择	-0.111008584
-4.385871	沉默	-0.077122994
-4.385871	新文	-0.077122994
-4.385871	跃如	-0.077122994
-4.385871	果	-0.077122994
-4.385871	倒流	-0.077122994
-4.385871	宁可	-0.077122994
-3.1320283	把	-0.077123016
-4.385871	留在	-0.077122994
-4.1387	身边	-0.077122994
-4.385871	照顾	-0.077122994
-4.385871	园	-0.077122994
-4.2522893	看着	-0.077122994
-4.2522893	左臂	-0.077122994
-3.8757143	依旧	-0.077123016
-4.385871	缠	-0.077122994
-4.385871	绷带	-0.077122994
-3.3045473	医疗	-0.384524
-4.385871	鉴定	-0.077122994
-3.7130828	结果	-0.099417105
-4.385871	宝贝	-0.077122994
-3.6500595	儿子	-0.077122994
-3.9875977	林	-0.077122994
-4.1387	心中	-0.14776348
-4.385871	痛悔	-0.077122994
-4.2522893	莫名	-0.077122994
-4.385871	园里	-0.077122994
-4.2522893	骨折	-0.18791908
-4.1387	家门	-0.3456379
-3.7130828	口	-0.077122994
-4.1387	陌生	-0.077122994
-3.3318653	女子	-0.15758489
-4.385871	拐走	-0.077122994
-4.2522893	悬赏	-0.18791908
-4.1387	奖励	-0.14776348
-4.385871	线索	-0.077122994
-3.78683	每天	-0.077122994
-3.8757143	喝	-0.077122994
-4.385871	可乐	-0.077122994
-4.385871	喝水	-0.077122994
-4.2522893	颗牙	-0.18791908
-4.2522893	齿	-0.077122994
-4.1387	齐	-0.077122994
-4.2522893	根	-0.077122994
-4.385871	烂掉	-0.077122994
-3.8757143	二十八	-0.077122994
-4.2522893	颗	-0.077122994
-4.1387	烂	-0.077122994
-4.1387	剩	-0.1181149
-4.385871	牙根	-0.077122994
-3.5462022	不仅	-0.14914283
-4.385871	吃饭	-0.077122994
-4.2522893	了难	-0.077122994
-4.1387	题	-0.14776348
-4.2522893	说话	-0.077122994
-3.9875977	不清	-0.1289973
-4.385871	楚	-0.077122994
-4.385871	牙科	-0.077122994
-3.5023105	医生	-0.13549349
-4.385871	碰到	-0.077122994
-4.385871	惨	-0.077122994
-4.2522893	睹	-0.077122994
-4.385871	牙齿	-0.077122994
-3.9875977	晚上	-0.077122994
-4.2522893	牛奶	-0.077122994
-4.385871	刷牙	-0.077122994
-3.5023105	伤	-0.0937354
-3.0088868	两	-0.28338718
-4.2522893	坏	-0.077122994
-4.385871	活泼	-0.077122994
-3.3318653	健康	-0.24924792
-3.7130828	遭	-0.077122994
-4.2522893	邻居	-0.077122994
-4.385871	嫉妒	-0.077122994
-4.385871	被拐	-0.077122994
-4.385871	掐死	-0.077122994
-2.9828758	七	-0.29337513
-3.9875977	早上	-0.077122994
-3.7130828	河南	-0.077122994
-3.9875977	新乡	-0.1289973
-3.5950336	公安	-0.14776348
-3.9875977	获悉	-0.26144335
-4.385871	备受	-0.077122994
-4.385871	小冀	-0.077122994
-3.7130828	镇	-0.077122994
-4.385871	明涵	-0.077122994
-3.6500595	案	-0.16509955
-4.385871	告破	-0.077122994
-3.8757143	在家	-0.077123016
-4.385871	神秘	-0.077122994
-4.385871	牵动	-0.077122994
-3.5950336	观众	-0.1181149
-3.5950336	网友	-0.077122994
-4.1387	心	-0.14776348
-3.8757143	经	-0.19095066
-4.385871	市县	-0.077122994
-3.5462022	级	-0.0971355
-4.1387	机关	-0.077122994
-3.8757143	连续	-0.077122994
-3.78683	十七	-0.14776348
-4.385871	昼夜	-0.077122994
-4.385871	强力	-0.077122994
-4.385871	攻坚	-0.077122994
-4.385871	日夜	-0.077122994
-4.385871	侦破	-0.077122994
-3.4624503	犯罪	-0.30930442
-3.7130828	嫌疑	-0.40469384
-4.1387	某某	-0.077123016
-4.385871	归案	-0.077122994
-4.385871	遇害	-0.077122994
-4.1387	遗体	-0.077122994
-4.385871	家院	-0.077122994
-4.385871	花池	-0.077122994
-4.385871	挖出	-0.077122994
-4.385871	涵涵	-0.077122994
-4.385871	家邻	-0.077122994
-4.1387	居	-0.077122994
-4.385871	肝癌	-0.077122994
-4.385871	晚期	-0.077122994
-4.2522893	忠告	-0.077122994
-3.5023105	六	-0.12038338
-4.385871	零食	-0.077122994
-4.2522893	毒	-0.077122994
-4.1387	老年	-0.077122994
-4.2522893	人才	-0.077122994
-4.385871	癌症	-0.077122994
-4.385871	净值	-0.077122994
-3.3922682	人士	-0.09447229
-3.78683	上述	-0.077122994
-4.1387	潜在	-0.077122994
-4.385871	客群	-0.077122994
-3.9875977	多家	-0.077122994
-3.1502001	开发	-0.32383502
-3.3318653	他们	-0.116377935
-3.9875977	锁定	-0.077122994
-4.2522893	置业	-0.077122994
-4.385871	的华	-0.077122994
-4.2522893	同策	-0.077122994
-4.385871	宏伟	-0.077122994
-3.3045473	认为	-0.21093598
-3.7130828	大多	-0.2818909
-3.9875977	发达	-0.1289973
-4.385871	复苏	-0.077122994
-3.9875977	仍然	-0.077122994
-3.7130828	价值	-0.077122994
-4.2522893	低估	-0.077122994
-3.4259431	阶段	-0.28791443
-3.8757143	买	-0.1181149
-4.385871	刚好	-0.077122994
-4.385871	抄底	-0.077122994
-3.78683	周期	-0.077122994
-3.8757143	特征	-0.099417105
-3.7130828	决定	-0.10228611
-3.3610175	品牌	-0.24850826
-3.3922682	继续	-0.09036168
-3.4624503	积极	-0.0937354
-3.9875977	大型	-0.1289973
-3.5950336	基本	-0.0971355
-3.3610175	战略	-0.12669325
-3.7130828	角度	-0.077122994
-3.8757143	因此	-0.077122994
-3.2316022	业务	-0.16027999
-3.5023105	逐步	-0.0937354
-4.1387	二八	-0.077123016
-4.1387	原则	-0.3456379
-4.385871	开启	-0.077122994
-2.9024405	互联	-0.5949318
-4.385871	网元	-0.077122994
-3.4624503	时代	-0.26624227
-3.78683	任何	-0.0971355
-3.8757143	之路	-0.21779084
-4.2522893	绕	-0.077122994
-3.9875977	开	-0.077122994
-4.385871	截至	-0.077122994
-3.4259431	二零一四	-0.47411466
-3.6500595	移动	-0.1563233
-4.385871	已达	-0.077122994
-4.1387	七四	-0.14776348
-3.8757143	庞大	-0.21779084
-3.2545824	量	-0.13325652
-3.7130828	吸引	-0.17274643
-4.1387	每	-0.16338307
-3.1502001	传统	-0.25556833
-4.385871	靠近	-0.077122994
-3.6500595	几乎	-0.077122994
-4.385871	每家	-0.077122994
-4.2522893	老板	-0.077122994
-3.9875977	谈	-0.077122994
-3.3318653	如何	-0.10532833
-4.2522893	论	-0.077122994
-3.9875977	变革	-0.077122994
-3.5023105	甚至	-0.11639617
-4.2522893	融合	-0.077122994
-4.2522893	落地	-0.077122994
-4.385871	纵观	-0.077122994
-4.1387	触网	-0.1289973
-3.7130828	动作	-0.1595772
-3.3045473	目前	-0.10140771
-3.9875977	成熟	-0.18791908
-3.3922682	运营	-0.21072975
-4.385871	端口	-0.077122994
-4.385871	切入	-0.077122994
-3.9875977	零二零	-0.077122994
-4.1387	卖房	-0.14776348
-3.9875977	似乎	-0.077123016
-3.5462022	得到	-0.1563233
-4.1387	快	-0.077122994
-3.6500595	直接	-0.077122994
-3.5950336	产生	-0.077123016
-3.6500595	效果	-0.23073839
-3.3922682	合作	-0.3938821
-3.6500595	确实	-0.10228611
-3.5023105	小	-0.14914283
-4.385871	节点	-0.077122994
-3.5950336	同时	-0.12713118
-4.1387	到来	-0.14776348
-3.7130828	看到	-0.10228611
-4.385871	马云	-0.077122994
-4.385871	赌王	-0.077122994
-4.2522893	健林	-0.077122994
-3.78683	万科	-0.077122994
-4.1387	双十	-0.3456379
-4.385871	双十二	-0.077122994
-3.7130828	电商	-0.077122994
-4.385871	狂欢	-0.077122994
-4.2522893	身影	-0.1289973
-3.3610175	越来	-0.7435779
-4.2522893	越多	-0.13694093
-4.2522893	跨界	-0.077122994
-4.385871	试水	-0.077122994
-3.9875977	大战	-0.17274643
-4.2522893	抢食	-0.077122994
-3.9875977	蛋糕	-0.26144335
-4.2522893	房子	-0.077122994
-3.0510805	开始	-0.0916686
-3.5462022	卖	-0.0971355
-4.1387	在天	-0.1289973
-4.385871	猫	-0.077122994
-4.2522893	开辟	-0.077122994
-4.385871	专区	-0.077122994
-4.385871	上线	-0.077122994
-4.385871	十大	-0.077122994
-4.1387	商家	-0.077122994
-4.1387	搭建	-0.077122994
-4.385871	乐透	-0.077122994
-4.1387	联盟	-0.077122994
-3.3610175	平台	-0.27019206
-4.385871	一举	-0.077122994
-3.5023105	推出	-0.13549349
-4.1387	一千	-0.077122994
-4.1387	套	-0.077122994
-4.2522893	优惠	-0.077122994
-4.385871	房源	-0.077122994
-3.78683	四十三	-0.14776348
-3.2316022	销售	-0.20911744
-4.385871	远洋	-0.077122994
-3.2545824	地产	-0.12956294
-4.385871	二十五亿	-0.077122994
-3.5023105	房产	-0.20649222
-4.1387	众	-0.077122994
-4.2522893	筹	-0.077122994
-3.78683	引发	-0.111008584
-3.6500595	很大	-0.25724617
-3.8757143	程度	-0.13694093
-4.2522893	上来	-0.077122994
-3.7130828	压力	-0.2818909
-4.385871	上思	-0.077122994
-3.9875977	变	-0.1289973
-4.2522893	正如	-0.077122994
-4.385871	操盘	-0.077122994
-3.1320283	所	-0.11866642
-3.5023105	打	-0.077122994
-4.1387	抢	-0.077122994
-4.2522893	整合	-0.077122994
-4.2522893	各界	-0.077122994
-3.5950336	长期	-0.09527761
-3.7130828	复杂	-0.13694093
-4.385871	属性	-0.077122994
-4.1387	像	-0.077122994
-4.2522893	其它	-0.077122994
-3.78683	样	-0.10600289
-3.9875977	日记	-0.18791908
-4.2522893	延续	-0.077122994
-4.1387	腾讯	-0.077122994
-4.2522893	百度	-0.077122994
-4.385871	土豪	-0.077122994
-4.2522893	声称	-0.077122994
-3.5023105	打造	-0.09243465
-3.3318653	发现	-0.22689761
-3.6500595	女孩	-0.09132289
-3.78683	子	-0.10600289
-4.385871	裙子	-0.077122994
-4.385871	漂亮	-0.077122994
-3.9875977	知道	-0.077122994
-3.9875977	哪	-0.077122994
-4.385871	院线	-0.077122994
-3.3922682	几	-0.26114407
-4.385871	放映	-0.077122994
-4.1387	选	-0.077122994
-4.1387	座	-0.077122994
-3.5462022	支付	-0.13549349
-3.7130828	多次	-0.077122994
-3.3922682	美国	-0.13448775
-3.7130828	学习	-0.14960358
-4.385871	等高	-0.077122994
-3.9875977	明年	-0.077123016
-3.5462022	利用	-0.077123016
-3.1889968	转型	-0.2579547
-3.4259431	你	-0.1532865
-4.385871	当作	-0.077122994
-4.385871	虎头	-0.077122994
-4.2522893	思路	-0.077122994
-3.9875977	尝试	-0.077123016
-3.9875977	转变	-0.21779084
-3.8757143	那么	-0.19095066
-3.7130828	既	-0.31259584
-3.5462022	优势	-0.124779485
-4.385871	瞬间	-0.077122994
-3.9875977	改变	-0.1181149
-4.385871	逆转	-0.077122994
-4.1387	清晰	-0.077122994
-4.385871	易懂	-0.077122994
-3.3318653	受	-0.39948103
-4.385871	温	-0.077122994
-4.385871	家宝	-0.077122994
-4.2522893	常务	-0.077122994
-3.9875977	预	-0.077122994
-4.385871	决算	-0.077122994
-4.385871	省市	-0.077122994
-3.5950336	广东	-0.14178635
-4.385871	厅长	-0.077122994
-3.78683	接受	-0.077122994
-3.9875977	采访	-0.1289973
-4.1387	步	-0.077122994
-3.5462022	扩大	-0.2159912
-4.385871	公务	-0.077122994
-4.1387	卡	-0.077122994
-4.385871	科目	-0.077122994
-3.3318653	类	-0.077122994
-3.8757143	项	-0.077122994
-3.78683	办公	-0.19095066
-4.1387	水电	-0.077122994
-4.385871	印刷	-0.077122994
-3.7130828	食品	-0.20904434
-3.78683	卫生	-0.10228611
-4.385871	拓宽	-0.077122994
-3.6500595	公众	-0.077122994
-3.3318653	参与	-0.11639617
-4.385871	起草	-0.077122994
-3.78683	渠道	-0.19095066
-3.8757143	征求	-0.35835332
-3.8757143	意见	-0.13694093
-4.2522893	征地	-0.18791908
-4.1387	拆迁	-0.077122994
-3.8757143	财经	-0.1181149
-3.5950336	大学	-0.19536105
-4.1387	学院	-0.14776348
-4.1387	教授	-0.077122994
-4.385871	康华	-0.077122994
-4.385871	尾声	-0.077122994
-4.1387	做法	-0.1181149
-4.2522893	一致	-0.077122994
-3.6500595	肯定	-0.17607264
-4.2522893	够	-0.077122994
-4.385871	细致	-0.077122994
-4.2522893	对数	-0.077122994
-4.385871	雾里	-0.077122994
-4.385871	看花	-0.077122994
-4.2522893	花费	-0.077122994
-3.5462022	是否	-0.0971355
-3.8757143	改进	-0.35835332
-3.8757143	呢	-0.56748664
-4.2522893	就此	-0.077122994
-4.1387	进步	-0.14776348
-3.6500595	依然	-0.1595772
-3.4259431	未	-0.16508031
-3.5023105	一年	-0.17328207
-4.385871	距今	-0.077122994
-3.4259431	存在	-0.12230819
-4.1387	过于	-0.077122994
-3.78683	谨慎	-0.43753457
-3.5950336	情况	-0.23879562
-3.78683	引起	-0.077122994
-3.9875977	对此	-0.077122994
-4.385871	重视	-0.077122994
-4.1387	也需	-0.3456379
-3.9875977	认识	-0.26144335
-3.5462022	需	-0.09243465
-3.6500595	结合	-0.12291792
-4.1387	性质	-0.077122994
-4.385871	衡量	-0.077122994
-4.385871	新京	-0.077122994
-4.2522893	绝对	-0.077122994
-3.78683	每个	-0.111008584
-4.2522893	职能	-0.077122994
-4.385871	几十	-0.077122994
-3.8757143	和一	-0.077122994
-4.385871	几千	-0.077122994
-3.1502001	做	-0.10600289
-4.385871	纯粹	-0.077122994
-4.385871	国税	-0.077122994
-3.5950336	实行	-0.077122994
-4.2522893	垂直	-0.077122994
-4.385871	几千万	-0.077122994
-3.8757143	平均	-0.077123016
-3.5462022	下来	-0.35835332
-3.5023105	更多	-0.2745423
-4.2522893	二十万	-0.077122994
-4.385871	接待	-0.077122994
-3.9875977	多方	-0.077122994
-4.1387	面的	-0.077122994
-3.9875977	支出	-0.077123016
-3.78683	非	-0.077122994
-4.385871	拨款	-0.077122994
-3.5023105	其实	-0.16508031
-3.9875977	笔	-0.077123016
-3.7130828	收入	-0.13549349
-4.2522893	这里	-0.077122994
-3.9875977	面	-0.077122994
-4.1387	涵盖	-0.14776348
-4.2522893	权力	-0.077122994
-4.2522893	转嫁	-0.077122994
-3.3922682	比较	-0.077122994
-3.8757143	特别	-0.1181149
-4.385871	管辖	-0.077122994
-4.385871	下级	-0.077122994
-3.5950336	真正	-0.14960358
-3.6500595	大大	-0.111008584
-4.1387	真实	-0.077122994
-4.385871	能真	-0.077122994
-4.1387	实	-0.077122994
-3.8757143	反映	-0.077123016
-4.385871	笼统	-0.077122994
-3.9875977	避免	-0.077122994
-3.5023105	统计	-0.17820261
-3.9875977	必然	-0.1289973
-4.385871	误差	-0.077122994
-3.2097774	比	-0.15026212
-4.385871	一两万	-0.077122994
-3.6500595	也有	-0.0971355
-3.3922682	受到	-0.09132289
-4.385871	表扬	-0.077122994
-3.6500595	跟	-0.077122994
-3.9875977	自身	-0.1289973
-4.385871	职责	-0.077122994
-4.385871	欧司朗	-0.077122994
-4.385871	光电	-0.077122994
-4.385871	半导	-0.077122994
-3.5950336	体	-0.24428077
-4.2522893	毫米	-0.18791908
-4.385871	爱美	-0.077122994
-3.9875977	两千	-0.1181149
-4.385871	约合	-0.077122994
-4.385871	三百二十三	-0.077122994
-3.3922682	均	-0.077122994
-4.385871	以英	-0.077122994
-4.385871	同声	-0.077122994
-4.1387	传	-0.077122994
-4.385871	译	-0.077122994
-4.385871	英语	-0.077122994
-3.7130828	获取	-0.10600289
-4.385871	议程	-0.077122994
-4.1387	强大	-0.077123016
-3.5023105	其他	-0.09036168
-4.385871	名单	-0.077122994
-3.9875977	小组	-0.1289973
-4.385871	周公	-0.077122994
-3.4259431	最近	-0.09243465
-4.385871	展区	-0.077122994
-3.7130828	面积	-0.13549349
-3.2097774	又	-0.14804696
-3.3045473	十	-0.17447583
-4.385871	容纳	-0.077122994
-4.385871	大约	-0.077122994
-4.2522893	两百	-0.077122994
-3.3922682	十五	-0.1181149
-3.5462022	促进	-0.23675375
-3.5462022	关系	-0.41279942
-3.9875977	充分	-0.077122994
-3.4624503	展示	-0.15817147
-4.385871	广度	-0.077122994
-3.5950336	深度	-0.2413433
-4.385871	一新	-0.077122994
-4.385871	巩固	-0.077122994
-4.385871	独享	-0.077122994
-4.1387	接触	-0.077122994
-4.1387	和全	-0.077122994
-3.8757143	球	-0.077122994
-3.78683	顶级	-0.10600289
-3.9875977	机会	-0.35835332
-4.2522893	庆祝	-0.077122994
-4.2522893	展馆	-0.077122994
-4.385871	个展	-0.077122994
-3.78683	展览	-0.111008584
-4.2522893	享有	-0.077122994
-4.385871	盛誉	-0.077122994
-3.3922682	二零一五	-0.44281635
-3.3318653	十一	-0.16460818
-4.2522893	十日	-0.077122994
-4.385871	内华达	-0.077122994
-4.2522893	拉斯维加斯	-0.077122994
-4.385871	二零一六	-0.077122994
-3.8757143	六日	-0.077123016
-4.2522893	免	-0.077122994
-3.9875977	责	-0.1289973
-4.385871	声明	-0.077122994
-4.2522893	公告	-0.077122994
-4.385871	之原	-0.077122994
-3.7130828	版本	-0.30247414
-4.385871	乃	-0.077122994
-4.2522893	授权	-0.077122994
-4.385871	译文	-0.077122994
-4.385871	仅供	-0.077122994
-3.8757143	方便	-0.077123016
-4.385871	原文	-0.077122994
-3.9875977	唯一	-0.077122994
-4.385871	效力	-0.077122994
-4.385871	挥起	-0.077122994
-3.3922682	长	-0.121196434
-4.2522893	手臂	-0.18791908
-3.0510805	秒	-0.19058304
-3.9875977	就可	-0.35835332
-4.2522893	肖像	-0.077122994
-4.385871	纸	-0.077122994
-4.1387	画	-0.077122994
-3.8757143	出来	-0.1181149
-4.2522893	乒乓	-0.077122994
-4.385871	高手	-0.077122994
-4.385871	设在	-0.077122994
-4.1387	人体	-0.077122994
-4.385871	验	-0.077122994
-4.1387	集	-0.077122994
-3.8757143	旅游	-0.077123016
-3.78683	购物	-0.10600289
-3.9875977	教育	-0.077122994
-4.385871	一体	-0.077122994
-4.385871	橱窗	-0.077122994
-4.2522893	饱	-0.077122994
-4.385871	眼福	-0.077122994
-4.1387	法国	-0.077122994
-4.385871	阿尔法	-0.077122994
-4.1387	数十	-0.077122994
-4.2522893	流行	-0.077122994
-4.385871	舞姿	-0.077122994
-4.2522893	狗狗	-0.077122994
-4.1387	年龄	-0.077122994
-3.5462022	零	-0.111008584
-4.385871	岁时	-0.077122994
-4.2522893	候	-0.077122994
-4.385871	特性	-0.077122994
-4.385871	享受	-0.077122994
-4.385871	抚养	-0.077122994
-4.385871	宠物	-0.077122994
-4.1387	乐趣	-0.14776348
-4.2522893	乐高	-0.077122994
-3.5023105	而言	-0.4541921
-4.385871	积木	-0.077122994
-3.9875977	模拟	-0.077122994
-3.3610175	一定	-0.22047955
-4.2522893	错过	-0.077122994
-3.5950336	体验	-0.36704192
-4.385871	馆内	-0.077122994
-3.8757143	区域	-0.077123016
-4.385871	大显	-0.077122994
-4.385871	身手	-0.077122994
-4.385871	球机	-0.077122994
-4.1387	发出	-0.077122994
-3.8757143	各种	-0.077122994
-4.385871	刁钻	-0.077122994
-4.2522893	换	-0.077122994
-4.385871	人年	-0.077122994
-3.9875977	十万	-0.077122994
-3.3922682	解决	-0.1257682
-3.8757143	方案	-0.1181149
-4.1387	用途	-0.077122994
-3.5023105	范围	-0.3076809
-4.2522893	上下	-0.077122994
-4.2522893	料	-0.077122994
-4.385871	码垛	-0.077122994
-4.2522893	打磨	-0.077122994
-4.385871	焊接	-0.077122994
-4.2522893	装配	-0.077122994
-3.9875977	适应	-0.077122994
-3.8757143	大部	-0.2969721
-4.385871	开出	-0.077122994
-4.385871	高效	-0.077122994
-4.2522893	人手	-0.077122994
-3.6500595	机	-0.13549349
-4.2522893	例	-0.077122994
-3.6500595	采用	-0.077122994
-3.9875977	人工	-0.077122994
-3.6500595	件	-0.1595772
-4.1387	化生	-0.3456379
-4.2522893	两千三百	-0.077122994
-3.1691654	名	-0.15655947
-3.7130828	工人	-0.099417105
-4.2522893	每人	-0.077122994
-4.385871	年薪	-0.077122994
-4.2522893	六万	-0.077122994
-4.1387	更新	-0.077122994
-4.385871	二万	-0.077122994
-4.2522893	每年	-0.077122994
-4.2522893	工资	-0.077122994
-3.9875977	减少	-0.077122994
-4.2522893	八万	-0.077122994
-4.385871	并且	-0.077122994
-4.385871	次性	-0.077122994
-4.385871	收回	-0.077122994
-3.7130828	成本	-0.14960358
-4.385871	后成	-0.077122994
-4.385871	产能	-0.077122994
-4.385871	上相	-0.077122994
-4.385871	足协	-0.077122994
-4.1387	主席	-0.077122994
-4.385871	振华	-0.077122994
-3.2788467	参加	-0.11680476
-4.385871	时明	-0.077122994
-3.9875977	确	-0.1289973
-4.1387	表态	-0.077122994
-3.9875977	迫切	-0.1289973
-4.2522893	意愿	-0.077122994
-4.1387	坦言	-0.077122994
-3.9875977	环节	-0.18791908
-4.385871	亿万	-0.077122994
-4.385871	球迷	-0.077122994
-4.385871	早日	-0.077122994
-4.2522893	愿望	-0.077122994
-3.4624503	非常	-0.10600289
-4.1387	句	-0.14776348
-4.385871	讲清	-0.077122994
-4.385871	谋划	-0.077122994
-4.2522893	而且	-0.08878303
-4.2522893	是非	-0.18791908
-4.2522893	常	-0.077123016
-4.385871	盼来	-0.077122994
-4.2522893	那时	-0.077122994
-4.385871	翱翔	-0.077122994
-4.1387	洛杉矶	-0.077122994
-4.385871	五城	-0.077122994
-3.3045473	奥运	-0.3936842
-4.2522893	布达佩斯	-0.077122994
-4.2522893	汉堡	-0.077122994
-4.2522893	巴黎	-0.077122994
-4.2522893	罗马	-0.077122994
-4.385871	一九零零	-0.077122994
-4.385871	九二四	-0.077122994
-4.385871	两度	-0.077122994
-3.9875977	夏季	-0.1289973
-4.385871	一九三二	-0.077122994
-4.385871	九八四	-0.077122994
-4.385871	一九六零	-0.077122994
-4.385871	次奥	-0.077122994
-4.2522893	德国	-0.1181149
-4.385871	匈牙利	-0.077122994
-4.385871	以伦	-0.077122994
-4.385871	之城	-0.077122994
-4.2522893	冬季	-0.077122994
-4.385871	奥委会	-0.077122994
-4.385871	巴赫	-0.077122994
-3.5462022	历史	-0.10600289
-4.1387	是第	-0.3456379
-3.6500595	什么	-0.09243465
-4.385871	促使	-0.077122994
-4.385871	放慢	-0.077122994
-3.8757143	追求	-0.077123016
-4.2522893	奥林匹克	-0.077122994
-4.385871	脚步	-0.077122994
-3.8757143	副	-0.077123016
-4.385871	会长	-0.077122994
-3.3045473	刘	-0.27987972
-4.385871	敬民	-0.077122994
-3.78683	昨天	-0.077122994
-4.1387	携手	-0.077122994
-4.385871	张家口	-0.077122994
-3.8757143	冬奥	-0.56748664
-4.385871	客观	-0.077122994
-4.385871	说到底	-0.077122994
-4.385871	民生	-0.077122994
-4.1387	好处	-0.077122994
-4.385871	落到	-0.077122994
-3.78683	老	-0.111008584
-4.385871	百姓	-0.077122994
-4.2522893	双	-0.077122994
-3.7130828	由于	-0.077122994
-4.385871	平衡	-0.077122994
-3.5023105	集中	-0.0937354
-4.385871	欧美	-0.077122994
-3.8757143	逐渐	-0.10228611
-4.385871	向东	-0.077122994
-3.6500595	方	-0.077122994
-4.2522893	倾斜	-0.077122994
-4.2522893	东亚	-0.077122994
-3.0816739	新	-0.33920085
-4.385871	活跃	-0.077122994
-3.9875977	世纪	-0.077122994
-3.8757143	末	-0.077123016
-3.5462022	至	-0.077123016
-3.2097774	二十	-0.20970306
-3.9875977	初	-0.1289973
-3.8757143	欧洲	-0.1181149
-4.385871	腾飞	-0.077122994
-4.385871	飞速	-0.077122994
-3.6500595	步入	-0.10228611
-4.385871	小康	-0.077122994
-4.2522893	夏奥	-0.077122994
-4.385871	会期	-0.077122994
-3.6500595	间	-0.077122994
-4.385871	相隔	-0.077122994
-4.385871	奥尚	-0.077122994
-4.1387	属	-0.077123016
-4.1387	早已	-0.077122994
-3.3610175	日本	-0.13223052
-4.2522893	东京	-0.077122994
-4.385871	一九六四	-0.077122994
-4.385871	一九七二	-0.077122994
-4.385871	札幌	-0.077122994
-4.385871	一九八零	-0.077122994
-4.385871	普莱	-0.077122994
-4.385871	西德	-0.077122994
-3.9875977	湖	-0.077122994
-4.385871	一九八四	-0.077122994
-3.6500595	具有	-0.077122994
-3.2545824	运动	-0.18002355
-3.78683	群众	-0.10600289
-3.9875977	经常	-0.077122994
-4.385871	滑冰	-0.077122994
-4.385871	每月	-0.077122994
-4.2522893	四十多	-0.077122994
-4.2522893	一两	-0.077122994
-4.385871	中山	-0.077122994
-3.5950336	公园	-0.077122994
-3.9875977	劳动	-0.111008584
-4.1387	宫	-0.077122994
-4.385871	筒子河	-0.077122994
-4.385871	冰球	-0.077122994
-3.2097774	比赛	-0.26722988
-4.1387	曾经	-0.077122994
-4.385871	火爆	-0.077122994
-3.78683	还在	-0.077122994
-4.2522893	劲	-0.077122994
-3.4624503	才	-0.077122994
-4.385871	体委	-0.077122994
-3.6500595	定	-0.13403545
-4.385871	北方	-0.077122994
-4.2522893	冰	-0.18791908
-3.7130828	七十	-0.099417105
-3.9875977	年代	-0.077122994
-4.385871	高潮	-0.077122994
-4.385871	崇礼	-0.077122994
-4.385871	滑雪	-0.077122994
-4.1387	客流	-0.14776348
-4.385871	逐年	-0.077122994
-4.385871	万龙	-0.077122994
-4.385871	雪	-0.077122994
-4.385871	雪季	-0.077122994
-4.385871	翻	-0.077122994
-4.2522893	冰雪	-0.18791908
-4.2522893	日益	-0.077122994
-4.385871	高涨	-0.077122994
-4.2522893	高水	-0.077122994
-4.1387	平	-0.077122994
-4.2522893	三千亿	-0.077122994
-4.1387	产值	-0.077122994
-4.385871	产物	-0.077122994
-4.2522893	火花	-0.077122994
-4.385871	四射	-0.077122994
-4.2522893	细节	-0.077122994
-4.385871	暗示	-0.077122994
-4.1387	影片	-0.14776348
-4.1387	场面	-0.14776348
-3.9875977	激烈	-0.21779084
-3.2788467	发布	-0.21372846
-4.385871	剧照	-0.077122994
-4.385871	基努	-0.077122994
-4.385871	里维斯	-0.077122994
-4.385871	手持	-0.077122994
-4.1387	手枪	-0.1289973
-4.2522893	行走	-0.18791908
-4.385871	废弃	-0.077122994
-4.2522893	车库	-0.077122994
-3.7130828	三十一	-0.1289973
-4.2522893	喜讯	-0.18791908
-4.385871	同于	-0.077122994
-3.9875977	多数	-0.077122994
-3.9875977	女星	-0.1289973
-4.2522893	月子	-0.077122994
-4.385871	休养	-0.077122994
-4.385871	返回	-0.077122994
-3.8757143	家中	-0.077123016
-4.385871	请来	-0.077122994
-4.385871	月嫂	-0.077122994
-4.2522893	帮忙	-0.077122994
-3.6500595	坐	-0.1595772
-4.2522893	遵循	-0.077122994
-4.2522893	古	-0.077122994
-3.4259431	法	-0.09243465
-4.385871	洗头	-0.077122994
-4.385871	洗澡	-0.077122994
-4.385871	辈子	-0.077122994
-4.385871	邋遢	-0.077122994
-4.385871	所以	-0.077122994
-4.1387	至今	-0.14776348
-4.2522893	昆	-0.18791908
-4.385871	凌	-0.077122994
-3.5462022	晒	-0.2632228
-3.9875977	菜单	-0.077122994
-4.2522893	宝宝	-0.077122994
-4.2522893	养大	-0.18791908
-4.385871	东森	-0.077122994
-3.9875977	艺人	-0.077123016
-4.385871	周杰	-0.077122994
-4.385871	伦	-0.077122994
-4.385871	在英	-0.077122994
-4.385871	完婚	-0.077122994
-4.2522893	四月	-0.077122994
-4.385871	怀有	-0.077122994
-4.385871	小周	-0.077122994
-3.7130828	许多	-0.077122994
-4.1387	粉丝	-0.077122994
-4.385871	惊	-0.077122994
-4.385871	又喜	-0.077122994
-4.1387	怀孕	-0.077122994
-3.8757143	七日	-0.077123016
-3.78683	罗	-0.13694093
-4.385871	文裕	-0.077122994
-4.1387	婚礼	-0.077122994
-4.385871	专心	-0.077122994
-4.2522893	养	-0.18791908
-4.1387	胎	-0.077123016
-4.385871	社交	-0.077122994
-4.2522893	开心	-0.077122994
-4.1387	对着	-0.077122994
-4.2522893	喊	-0.077122994
-3.6500595	日报	-0.16509955
-3.2545824	男子	-0.17659897
-3.8757143	三日	-0.077123016
-3.9875977	涉嫌	-0.077122994
-4.385871	企图	-0.077122994
-4.385871	闯入	-0.077122994
-4.385871	嘉诚	-0.077122994
-4.385871	豪宅	-0.077122994
-4.1387	提	-0.077122994
-4.2522893	堂	-0.077122994
-4.385871	庭	-0.077122994
-4.385871	上声	-0.077122994
-4.385871	孙子	-0.077122994
-4.385871	爷爷	-0.077122994
-4.385871	爬墙	-0.077122994
-4.2522893	盗窃	-0.077122994
-3.9875977	继母	-0.077122994
-3.9875977	砍	-0.111008584
-4.2522893	五十多	-0.077122994
-3.9875977	刀	-0.10600289
-4.385871	右手	-0.077122994
-4.385871	手指	-0.077122994
-4.2522893	砍断	-0.077122994
-4.385871	小马	-0.077122994
-3.8757143	全身	-0.077123016
-4.1387	罚	-0.14776348
-3.7130828	水	-0.14960358
-3.78683	致	-0.077122994
-4.385871	肾积	-0.077122994
-3.9875977	回应	-0.1289973
-4.2522893	十次	-0.077122994
-4.2522893	武汉	-0.18791908
-4.385871	硚	-0.077122994
-4.385871	口区	-0.077122994
-4.2522893	军事	-0.077122994
-4.2522893	教师	-0.077122994
-4.2522893	二十多	-0.077122994
-4.2522893	患癌	-0.077122994
-4.2522893	三十多	-0.077122994
-4.2522893	脱险	-0.18791908
-4.385871	安阳	-0.077122994
-4.2522893	六人	-0.077122994
-3.9875977	民	-0.077122994
-4.2522893	伤者	-0.077122994
-4.385871	林林	-0.077122994
-4.385871	生父	-0.077122994
-4.2522893	苗	-0.077122994
-4.385871	某一	-0.077122994
-3.1502001	某	-0.14799213
-4.385871	父	-0.077122994
-3.4259431	女	-0.08754084
-4.385871	死后	-0.077122994
-3.78683	丈夫	-0.077122994
-4.385871	能全	-0.077122994
-4.2522893	亲生	-0.077122994
-4.385871	锁骨	-0.077122994
-4.385871	斩断	-0.077122994
-3.78683	父亲	-0.1181149
-4.2522893	手术	-0.077122994
-3.9875977	室外	-0.077122994
-4.385871	痛哭	-0.077122994
-4.1387	下午	-0.14776348
-4.385871	配有	-0.077122994
-4.385871	大河	-0.077122994
-3.8757143	接到	-0.1181149
-3.7130828	电话	-0.077122994
-4.1387	此事	-0.1289973
-3.9875977	何	-0.077122994
-4.2522893	狠心	-0.077122994
-4.385871	侦探	-0.077122994
-4.385871	现状	-0.077122994
-4.1387	挣钱	-0.14776348
-3.5023105	靠	-0.077122994
-4.385871	作弊	-0.077122994
-3.9875977	学生	-0.077122994
-4.385871	内情	-0.077122994
-4.385871	被淹	-0.077122994
-4.385871	七次	-0.077122994
-3.9875977	怒	-0.1289973
-4.385871	告	-0.077122994
-4.385871	六家	-0.077122994
-4.385871	赔钱	-0.077122994
-4.2522893	漏水	-0.077122994
-4.1387	受损	-0.14776348
-3.6500595	找	-0.099417105
-3.9875977	索赔	-0.1289973
-4.2522893	未果	-0.18791908
-4.385871	一气	-0.077122994
-4.385871	自来水	-0.077122994
-4.385871	阀门	-0.077122994
-3.7130828	报警	-0.42191082
-4.385871	求助	-0.077122994
-3.5023105	民警	-0.077122994
-4.385871	出面	-0.077122994
-4.385871	吃水	-0.077122994
-3.5950336	全部	-0.077122994
-3.9875977	起诉	-0.1289973
-4.2522893	皇姑	-0.18791908
-3.5950336	法院	-0.17328207
-4.385871	起民	-0.077122994
-4.385871	纠纷	-0.077122994
-3.6500595	案件	-0.17607264
-4.2522893	判决	-0.077122994
-4.2522893	五旬	-0.077122994
-4.385871	光棍	-0.077122994
-4.1387	相亲	-0.077122994
-3.8757143	被骗	-0.077123016
-4.385871	红包	-0.077122994
-3.5950336	持	-0.17607264
-4.1387	刀砍	-0.077122994
-4.385871	媒人	-0.077122994
-3.9875977	获刑	-0.077122994
-4.1387	愿	-0.1181149
-3.78683	真	-0.17274643
-4.385871	赔	-0.077122994
-4.385871	夫人	-0.077122994
-4.385871	折	-0.077122994
-3.7130828	钱	-0.13694093
-4.385871	坐牢	-0.077122994
-4.385871	五村	-0.077122994
-4.2522893	私分	-0.077122994
-4.2522893	七二一	-0.077122994
-4.2522893	救灾	-0.18791908
-3.3922682	半	-0.47377643
-4.2522893	先后	-0.077122994
-4.385871	入账	-0.077122994
-4.1387	侵占	-0.077122994
-3.78683	集体	-0.111008584
-4.2522893	七万	-0.077122994
-3.3610175	馀	-0.15953687
-4.385871	虚构	-0.077122994
-4.1387	事实	-0.077122994
-4.2522893	隐瞒	-0.077122994
-4.385871	真相	-0.077122994
-4.2522893	特大	-0.077122994
-4.2522893	暴雨	-0.077122994
-4.2522893	两万	-0.077122994
-4.385871	平谷	-0.077122994
-4.2522893	一审	-0.077122994
-4.385871	贪污	-0.077122994
-3.9875977	罪	-0.1289973
-4.385871	职务	-0.077122994
-4.1387	判处	-0.077122994
-4.385871	新宝	-0.077122994
-4.385871	村干	-0.077122994
-4.1387	的有	-0.077122994
-3.7130828	期	-0.3639189
-4.385871	徒刑	-0.077122994
-4.385871	毛	-0.077122994
-4.385871	一盒	-0.077122994
-4.2522893	烟	-0.077122994
-3.78683	中小	-0.14776348
-4.2522893	抽	-0.077122994
-3.78683	玩	-0.111008584
-4.385871	中华	-0.077122994
-4.385871	骆驼	-0.077122994
-4.385871	香烟	-0.077122994
-4.385871	糖	-0.077122994
-4.385871	频现	-0.077122994
-4.385871	校园	-0.077122994
-4.2522893	周边	-0.077122994
-3.78683	商铺	-0.111008584
-4.385871	叼	-0.077122994
-4.385871	嘴	-0.077122994
-4.1387	学	-0.077122994
-4.385871	大人	-0.077122994
-4.385871	模样	-0.077122994
-4.385871	食指	-0.077122994
-4.1387	和中	-0.077122994
-3.8757143	指	-0.077123016
-4.385871	夹住	-0.077122994
-4.385871	然后	-0.077122994
-4.385871	煞	-0.077122994
-4.2522893	介	-0.077122994
-3.8757143	深	-0.077123016
-4.385871	吸	-0.077122994
-3.8757143	家长	-0.077123016
-3.78683	感到	-0.077122994
-4.1387	担忧	-0.077122994
-3.9875977	担心	-0.077122994
-4.385871	食用	-0.077122994
-4.385871	糖果	-0.077122994
-4.385871	而学	-0.077122994
-4.385871	抽烟	-0.077122994
-4.2522893	传销	-0.077122994
-4.385871	窝点	-0.077122994
-4.2522893	挟持	-0.18791908
-4.385871	头目	-0.077122994
-4.1387	获救	-0.3456379
-4.385871	铁棍	-0.077122994
-4.2522893	围观	-0.077122994
-4.385871	韶关	-0.077122994
-4.385871	接警	-0.077122994
-4.385871	解救	-0.077122994
-4.2522893	玩水	-0.077122994
-3.9875977	一人	-0.1181149
-3.8757143	小伙	-0.1181149
-4.2522893	伴	-0.077122994
-4.2522893	物品	-0.077122994
-4.385871	扔掉	-0.077122994
-4.385871	苦苦	-0.077122994
-4.1387	二十三	-0.077122994
-4.2522893	天才	-0.077122994
-4.385871	周至	-0.077122994
-4.385871	初步	-0.077122994
-4.1387	排除	-0.077122994
-4.2522893	杀	-0.077122994
-3.9875977	当事	-0.26144335
-4.1387	救援	-0.14776348
-3.8757143	自行车	-0.077123016
-4.385871	拖鞋	-0.077122994
-4.385871	沉入	-0.077122994
-4.385871	水底	-0.077122994
-4.385871	高价	-0.077122994
-4.385871	中药	-0.077122994
-4.385871	材	-0.077122994
-3.3318653	价格	-0.086537845
-4.385871	普降	-0.077122994
-4.385871	成一	-0.077122994
-4.1387	在下	-0.077122994
-4.1387	跌	-0.26144335
-4.385871	长江	-0.077122994
-4.1387	商报	-0.14776348
-3.8757143	一半	-0.1181149
-4.2522893	旭	-0.077122994
-4.2522893	发自	-0.077122994
-4.385871	湖北	-0.077122994
-4.385871	蕲春	-0.077122994
-3.8757143	问	-0.077123016
-3.9875977	冷冻	-0.077122994
-4.385871	复活	-0.077122994
-3.78683	采取	-0.077122994
-4.2522893	解冻	-0.077122994
-4.385871	胰腺	-0.077122994
-4.385871	癌	-0.077122994
-4.1387	重庆	-0.077122994
-4.2522893	作家	-0.077122994
-4.2522893	杜	-0.18791908
-4.2522893	将来	-0.077122994
-4.2522893	移植	-0.077122994
-4.385871	步骤	-0.077122994
-4.1387	死	-0.14776348
-4.385871	而复	-0.077122994
-3.5023105	生	-0.08952235
-4.385871	一梦	-0.077122994
-3.3922682	想	-0.077122994
-3.6500595	吗	-0.6136258
-4.1387	人脑	-0.077122994
-4.2522893	科学	-0.077122994
-4.2522893	实验	-0.077122994
-4.1387	骗局	-0.14776348
-3.6500595	现代	-0.36704192
-4.2522893	医学	-0.077122994
-4.385871	距	-0.077122994
-4.2522893	科幻	-0.077122994
-4.385871	多远	-0.077122994
-4.2522893	六千多	-0.077122994
-3.7130828	游客	-0.077122994
-4.385871	受困	-0.077122994
-4.1387	涠	-0.3456379
-4.385871	洲岛	-0.077122994
-4.385871	撤离	-0.077122994
-3.6500595	单	-0.10228611
-3.7130828	加速	-0.077122994
-3.7130828	收购	-0.077122994
-4.1387	案例	-0.077122994
-4.385871	急剧	-0.077122994
-4.385871	加倍	-0.077122994
-3.9875977	速度	-0.1181149
-4.385871	兼并	-0.077122994
-3.78683	重组	-0.077122994
-4.385871	旧有	-0.077122994
-4.385871	格局	-0.077122994
-4.385871	常态	-0.077122994
-4.385871	下房	-0.077122994
-3.9875977	做出	-0.077122994
-3.8757143	遭遇	-0.077122994
-3.9875977	和行	-0.1289973
-3.5950336	利润	-0.2632228
-3.2788467	率	-0.2493819
-3.9875977	下跌	-0.1289973
-3.7130828	经历	-0.26144335
-4.2522893	今后	-0.077122994
-3.9875977	转让	-0.1289973
-3.9875977	股权	-0.077122994
-4.2522893	激增	-0.077122994
-3.3610175	并购	-0.18516853
-4.1387	会越	-0.14776348
-4.385871	速	-0.077122994
-4.2522893	潮	-0.077122994
-3.8757143	来临	-0.56748664
-4.385871	标的	-0.077122994
-4.385871	二百四十五	-0.077122994
-3.8757143	宗	-0.21779084
-3.78683	值	-0.111008584
-4.385871	一千二百一十	-0.077122994
-4.385871	同比	-0.077122994
-4.2522893	幅度	-0.077122994
-3.78683	二零一三	-0.6466679
-4.1387	全年	-0.077122994
-4.385871	一百五十	-0.077122994
-4.385871	六百六十八	-0.077122994
-3.9875977	二零一二	-0.47057664
-4.385871	一百五十四	-0.077122994
-4.385871	四百五十八	-0.077122994
-4.385871	再来	-0.077122994
-3.5950336	组	-0.0937354
-4.2522893	在行	-0.18791908
-4.1387	金额	-0.077122994
-4.385871	仔细	-0.077122994
-4.1387	事件	-0.14776348
-4.2522893	凡是	-0.077122994
-4.2522893	披露	-0.077122994
-4.2522893	大概	-0.077122994
-4.385871	少见	-0.077122994
-4.385871	大潮	-0.077122994
-4.385871	下半	-0.077122994
-4.385871	共识	-0.077122994
-4.385871	向强	-0.077122994
-4.2522893	恒强	-0.18791908
-3.78683	方向	-0.19019079
-3.78683	难	-0.0971355
-4.385871	日子	-0.077122994
-3.5462022	面临	-0.18317907
-4.385871	求生	-0.077122994
-4.2522893	首创	-0.18791908
-4.385871	晓光	-0.077122994
-3.6500595	标杆	-0.12291792
-4.385871	好时	-0.077122994
-4.385871	迈入	-0.077122994
-3.9875977	过渡	-0.1289973
-4.2522893	从今	-0.18791908
-3.3610175	来看	-0.5888907
-4.385871	万方	-0.077122994
-4.385871	亿城	-0.077122994
-4.2522893	首开	-0.077122994
-4.385871	买方	-0.077122994
-3.9875977	知名	-0.077122994
-4.2522893	显现	-0.077122994
-3.9875977	融	-0.1289973
-3.8757143	创	-0.111008584
-4.385871	龙湖	-0.077122994
-4.385871	橄榄	-0.077122994
-4.385871	枝	-0.077122994
-3.5023105	将会	-0.077122994
-4.2522893	投向	-0.077122994
-4.385871	两极	-0.077122994
-4.385871	强者	-0.077122994
-3.7130828	多元化	-0.13694093
-4.385871	突围	-0.077122994
-3.7130828	白银	-0.7136147
-4.385871	源于	-0.077122994
-4.2522893	总裁	-0.18791908
-4.2522893	郁	-0.18791908
-4.1387	亮	-0.077123016
-3.78683	黄金	-0.13694093
-4.385871	少年	-0.077122994
-4.385871	青春	-0.077122994
-4.385871	壮年	-0.077122994
-3.7130828	相比	-0.31588942
-3.7130828	打击	-0.27427968
-3.9875977	增速	-0.077122994
-4.385871	盈利	-0.077122994
-4.385871	点来	-0.077122994
-4.2522893	战术	-0.077122994
-4.2522893	乐观	-0.18791908
-4.1387	或许	-0.077122994
-3.7130828	业内	-0.3639189
-4.385871	有好	-0.077122994
-4.385871	算算	-0.077122994
-4.385871	账	-0.077122994
-4.385871	审查	-0.077122994
-3.8757143	别人	-0.1181149
-3.3610175	机构	-0.17104554
-4.385871	表率	-0.077122994
-4.1387	示范	-0.14776348
-4.385871	部委	-0.077122994
-4.385871	其学	-0.077122994
-4.385871	习	-0.077122994
-4.385871	公车	-0.077122994
-3.4624503	占	-0.16103707
-3.9875977	绝	-0.1289973
-4.385871	三项	-0.077122994
-3.8757143	到底	-0.077122994
-4.1387	比重	-0.077122994
-4.1387	合适	-0.14776348
-4.385871	历年	-0.077122994
-4.385871	调研	-0.077122994
-4.385871	占三	-0.077122994
-3.9875977	公	-0.077122994
-4.2522893	出国	-0.077122994
-3.6500595	低	-0.17607264
-4.1387	单纯	-0.077122994
-4.385871	高低	-0.077122994
-3.8757143	还要	-0.077123016
-3.5023105	水平	-0.40682966
-4.385871	比西	-0.077122994
-4.385871	才刚	-0.077122994
-4.2522893	起步	-0.077122994
-4.385871	增幅	-0.077122994
-4.1387	目的	-0.16338307
-3.9875977	拿出	-0.1289973
-4.385871	开到	-0.077122994
-4.385871	用品	-0.077122994
-3.78683	财务	-0.077122994
-3.6500595	加强	-0.1303182
-4.1387	否认	-0.077122994
-4.385871	既然	-0.077122994
-4.385871	基数	-0.077122994
-3.7130828	还能	-0.10228611
-4.385871	更明	-0.077122994
-4.2522893	界定	-0.14776348
-4.1387	规范	-0.077122994
-4.385871	口径	-0.077122994
-3.78683	尽	-0.111008584
-4.385871	能起	-0.077122994
-4.385871	多大	-0.077122994
-3.78683	觉得	-0.077122994
-4.385871	两方	-0.077122994
-3.78683	理解	-0.10600289
-4.385871	舆论	-0.077122994
-3.9875977	力量	-0.1181149
-3.6500595	多年	-0.23073839
-4.385871	仅仅	-0.077122994
-4.385871	鉴于	-0.077122994
-3.8757143	诸多	-0.077123016
-3.78683	只能	-0.077122994
-3.7130828	各项	-0.10600289
-4.385871	修订	-0.077122994
-3.7130828	沟通	-0.23073839
-4.2522893	三方	-0.077122994
-4.2522893	确立	-0.077122994
-4.385871	伙伴	-0.077122994
-4.385871	福莱	-0.077122994
-4.1387	严	-0.077122994
-4.385871	可君	-0.077122994
-4.385871	是福	-0.077122994
-4.1387	莱	-0.14776348
-4.2522893	贡献	-0.077122994
-4.385871	占福	-0.077122994
-3.6500595	针对	-0.0937354
-4.2522893	两种	-0.077122994
-3.9875977	寻求	-0.077122994
-3.78683	融资	-0.077122994
-4.385871	性经	-0.077122994
-4.1387	营	-0.077122994
-3.9875977	怎样	-0.1289973
-4.2522893	看待	-0.14776348
-4.385871	本土	-0.077122994
-3.5950336	现	-0.14776348
-3.5462022	仍	-0.09527761
-4.1387	散户	-0.077122994
-3.6500595	为主	-0.1289973
-4.2522893	特点	-0.14776348
-4.2522893	主导	-0.077122994
-4.1387	扮演	-0.14776348
-4.2522893	角色	-0.077122994
-4.2522893	情绪	-0.077122994
-3.9875977	传闻	-0.1289973
-4.385871	谣言	-0.077122994
-3.8757143	造成	-0.077122994
-4.385871	恐慌	-0.077122994
-3.8757143	首要	-0.077123016
-4.385871	看重	-0.077122994
-3.9875977	层	-0.077122994
-4.385871	信誉	-0.077122994
-4.385871	大厦	-0.077122994
-4.2522893	逾	-0.077122994
-3.7130828	协会	-0.3639189
-4.2522893	首届	-0.077122994
-4.385871	和文	-0.077122994
-4.1387	群体	-0.14776348
-3.5462022	领先	-0.10830604
-4.2522893	大力	-0.077122994
-3.9875977	一项	-0.077123016
-4.385871	奠定	-0.077122994
-3.9875977	很高	-0.26144335
-3.6500595	难以	-0.1595772
-4.385871	置信	-0.077122994
-3.78683	组织	-0.077122994
-4.385871	新浪	-0.077122994
-3.8757143	各类	-0.077123016
-4.385871	和金	-0.077122994
-4.2522893	广播	-0.18791908
-4.385871	电台	-0.077122994
-4.385871	致力	-0.077122994
-4.2522893	三亿	-0.077122994
-4.2522893	听众	-0.077122994
-4.385871	份额	-0.077122994
-4.385871	九十四	-0.077122994
-4.2522893	五七	-0.1289973
-4.385871	可信	-0.077122994
-3.5023105	制定	-0.17274643
-3.9875977	传播	-0.077122994
-3.9875977	独家	-0.077122994
-4.2522893	新鲜	-0.077122994
-4.385871	资讯	-0.077122994
-4.2522893	在线	-0.077122994
-4.1387	直销	-0.14776348
-4.385871	泡泡	-0.077122994
-4.385871	新科	-0.077122994
-4.2522893	鲜活	-0.077122994
-4.385871	东方	-0.077122994
-4.385871	卫视	-0.077122994
-4.385871	收视	-0.077122994
-4.385871	广	-0.077122994
-4.2522893	认可	-0.077122994
-4.1387	声誉	-0.077122994
-4.385871	权威	-0.077122994
-4.385871	门户	-0.077122994
-4.385871	天极	-0.077122994
-3.78683	凭借	-0.077122994
-3.8757143	引领	-0.077122994
-3.78683	生活	-0.077122994
-4.385871	理念	-0.077122994
-3.5950336	计算机	-0.077123016
-4.2522893	时尚	-0.18791908
-4.385871	优酷	-0.077122994
-4.385871	土豆	-0.077122994
-4.385871	网视	-0.077122994
-4.385871	频	-0.077122994
-4.2522893	领导	-0.14776348
-4.385871	音响	-0.077122994
-4.385871	印度	-0.077122994
-4.385871	暨	-0.077122994
-4.385871	装置	-0.077122994
-4.2522893	制造	-0.077122994
-3.9875977	通信	-0.1289973
-3.6500595	二百	-0.42191082
-4.385871	永久	-0.077122994
-3.5023105	提升	-0.20804416
-4.385871	博览	-0.077122994
-4.385871	会后	-0.077122994
-4.385871	撤	-0.077122994
-4.2522893	拟	-0.077122994
-4.385871	超市	-0.077122994
-3.7130828	确定	-0.10600289
-4.2522893	进驻	-0.077122994
-3.5023105	加	-0.09243465
-4.385871	商城	-0.077122994
-4.385871	维修	-0.077122994
-3.7130828	二十四	-0.10600289
-4.1387	免费	-0.077122994
-4.385871	除	-0.077122994
-3.78683	吴	-0.111008584
-4.385871	晓波	-0.077122994
-4.385871	专场	-0.077122994
-4.385871	售票	-0.077122994
-4.385871	皆	-0.077122994
-4.385871	可免	-0.077122994
-4.385871	在场	-0.077122994
-3.6500595	登记	-0.12291792
-4.2522893	即可	-0.077122994
-4.385871	入场	-0.077122994
-3.78683	网站	-0.077122994
-3.9875977	端	-0.077122994
-4.385871	预约	-0.077122994
-4.385871	跳舞	-0.077122994
-4.2522893	聊天	-0.077122994
-4.385871	旺宝	-0.077122994
-4.2522893	请	-0.077122994
-3.4259431	设计	-0.13809377
-4.385871	对白	-0.077122994
-3.7130828	帮	-0.077122994
-4.385871	探营	-0.077122994
-4.1387	协	-0.14776348
-4.1387	管	-0.077122994
-3.6500595	告诉	-0.31818882
-3.9875977	晨报	-0.35835332
-3.7130828	相	-0.25789747
-4.385871	径庭	-0.077122994
-4.385871	昌平	-0.077122994
-4.1387	支队	-0.077122994
-4.2522893	法制	-0.077122994
-4.385871	交管	-0.077122994
-3.78683	处罚	-0.19095066
-3.5023105	发	-0.13549349
-4.2522893	下载	-0.077122994
-3.7130828	先生	-0.077122994
-3.9875977	防	-0.18791908
-3.7130828	贴	-0.31588942
-3.7130828	停车	-0.17274643
-3.8757143	神	-0.077123016
-4.2522893	结束	-0.077122994
-4.1387	分享	-0.077122994
-4.1387	交警	-0.077122994
-3.8757143	司机	-0.111008584
-4.2522893	组成	-0.077122994
-4.2522893	预测	-0.077122994
-4.385871	网球	-0.077122994
-4.385871	俱乐部	-0.077122994
-4.385871	大都	-0.077122994
-4.2522893	时期	-0.1289973
-3.9875977	建立	-0.077122994
-4.385871	为什么	-0.077122994
-3.2545824	出现	-0.2342108
-3.9875977	实力	-0.077122994
-4.385871	从贵	-0.077122994
-4.2522893	族	-0.077122994
-3.8757143	大众	-0.077123016
-4.2522893	二零二零	-0.18791908
-4.2522893	人均	-0.077122994
-4.385871	蓬勃	-0.077122994
-4.1387	人口	-0.077122994
-4.1387	二零零八	-0.3456379
-4.2522893	定期	-0.077122994
-4.2522893	京津	-0.18791908
-4.385871	冀	-0.077122994
-3.9875977	协同	-0.1289973
-3.9875977	绿色	-0.077122994
-3.78683	巨大	-0.10600289
-3.8757143	动力	-0.077123016
-4.385871	多万	-0.077122994
-3.7130828	众多	-0.077122994
-3.5462022	严重	-0.09527761
-4.1387	负担	-0.3456379
-3.78683	共同	-0.077122994
-4.2522893	河北	-0.077122994
-4.385871	筹办	-0.077122994
-4.385871	大气	-0.077122994
-4.385871	位一	-0.077122994
-4.385871	如同	-0.077122994
-4.385871	带动	-0.077122994
-3.2788467	要求	-0.13526909
-3.1889968	及	-0.0937354
-4.1387	观	-0.1289973
-4.385871	王子轩	-0.077122994
-4.385871	元人	-0.077122994
-4.385871	业增	-0.077122994
-4.385871	比超	-0.077122994
-3.8757143	六十	-0.111008584
-4.385871	场地	-0.077122994
-4.385871	六平	-0.077122994
-3.9875977	方米	-0.47057664
-3.7130828	锻炼	-0.077122994
-3.8757143	四十五	-0.1181149
-4.385871	四项	-0.077122994
-3.78683	任务	-0.2969721
-3.78683	实施	-0.077122994
-4.2522893	顶层	-0.18791908
-4.1387	聚焦	-0.077122994
-4.385871	十三五	-0.077122994
-4.2522893	路径	-0.077122994
-4.2522893	夜	-0.18791908
-3.2316022	跑	-0.15087813
-4.2522893	渐	-0.18791908
-3.5462022	朋友	-0.077123016
-3.2545824	跑步	-0.23155501
-4.385871	然而	-0.077123016
-4.385871	悲剧	-0.077122994
-4.1387	议	-0.14776348
-4.1387	话题	-0.1289973
-4.385871	句容	-0.077122994
-4.385871	治国	-0.077122994
-4.385871	逆袭	-0.077122994
-3.78683	体重	-0.077122994
-4.2522893	二百二十六	-0.18791908
-3.6500595	斤	-0.23073839
-3.6500595	只有	-0.13375168
-4.385871	一百四十二	-0.077122994
-3.8757143	减肥	-0.0971355
-4.2522893	秘诀	-0.077122994
-3.5950336	坚持	-0.099417105
-4.1387	人称	-0.077122994
-4.385871	神人	-0.077122994
-3.9875977	合肥	-0.077123016
-3.8757143	马拉	-0.43753457
-4.1387	松	-0.077122994
-3.4624503	成绩	-0.14177008
-4.1387	三小	-0.3456379
-4.2522893	二级	-0.077122994
-4.385871	快报	-0.077122994
-4.1387	慢跑	-0.077122994
-4.2522893	长跑	-0.077122994
-3.4259431	下降	-0.38948908
-4.1387	年度	-0.077122994
-4.385871	银幕	-0.077122994
-4.1387	战队	-0.077122994
-4.385871	引人	-0.077122994
-4.385871	注目	-0.077122994
-4.385871	影迷	-0.077122994
-4.1387	见面	-0.14776348
-4.385871	热血	-0.077122994
-4.1387	酷	-0.077122994
-4.385871	血脉	-0.077122994
-4.385871	喷	-0.077122994
-4.385871	控方	-0.077122994
-3.8757143	证据	-0.111008584
-3.9875977	足	-0.077122994
-4.385871	撤销	-0.077122994
-4.2522893	控	-0.077122994
-3.6500595	太	-0.077122994
-4.385871	斥责	-0.077122994
-4.385871	张伟	-0.077122994
-4.385871	艺谋	-0.077122994
-4.385871	屁	-0.077122994
-4.1387	唐	-0.1289973
-4.385871	志中	-0.077122994
-4.2522893	娇妻	-0.077122994
-3.8757143	今日	-0.10228611
-3.9875977	为其	-0.077122994
-4.385871	下第	-0.077122994
-3.5462022	微	-0.36159122
-4.2522893	博	-0.077122994
-4.385871	报喜	-0.077122994
-4.385871	小咪	-0.077122994
-4.385871	一子	-0.077122994
-4.385871	产房	-0.077122994
-4.2522893	新生	-0.077122994
-3.78683	拍照	-0.2969721
-4.2522893	全家	-0.077122994
-3.8757143	冯	-0.56748664
-4.385871	德伦	-0.077122994
-3.8757143	生日	-0.19019079
-4.2522893	随后	-0.077123016
-4.385871	照庆	-0.077122994
-4.385871	祝	-0.077122994
-4.2522893	岁生	-0.18791908
-4.2522893	手捧	-0.077122994
-4.385871	巧克力	-0.077122994
-4.2522893	帅气	-0.077122994
-4.385871	有型	-0.077122994
-4.2522893	留言	-0.077122994
-4.385871	上生	-0.077122994
-4.2522893	祝福	-0.18791908
-3.9875977	舒	-0.47057664
-4.385871	淇	-0.077122994
-4.385871	对面	-0.077122994
-4.2522893	爱吃	-0.077122994
-4.385871	马卡	-0.077122994
-3.7130828	龙	-0.10600289
-4.2522893	绯闻	-0.18791908
-4.385871	很久	-0.077122994
-3.78683	两人	-0.077122994
-4.1387	被曝	-0.077122994
-3.8757143	身穿	-0.077122994
-4.2522893	情侣	-0.077122994
-4.385871	同游	-0.077122994
-3.9875977	疑似	-0.077122994
-4.2522893	共度	-0.077122994
-3.9875977	男方	-0.077122994
-4.385871	报导	-0.077122994
-4.385871	北部	-0.077122994
-4.1387	湾	-0.077122994
-4.2522893	艘	-0.077122994
-4.385871	客轮	-0.077122994
-4.2522893	依次	-0.077122994
-4.385871	滞留	-0.077122994
-4.385871	接回	-0.077122994
-4.2522893	北海	-0.077122994
-4.385871	六十万	-0.077122994
-4.385871	签名	-0.077122994
-4.385871	抵制	-0.077122994
-3.7130828	医	-0.077122994
-4.385871	过半	-0.077122994
-4.1387	暴力	-0.077122994
-4.385871	保定	-0.077122994
-3.9875977	患者	-0.077123016
-4.1387	家属	-0.077122994
-4.1387	追	-0.077122994
-4.385871	值班	-0.077122994
-4.385871	实名	-0.077122994
-4.385871	声援	-0.077122994
-4.385871	断发	-0.077122994
-4.385871	医事	-0.077122994
-3.8757143	人们	-0.10600289
-4.385871	痛心	-0.077122994
-4.385871	愤怒	-0.077122994
-4.385871	容忍	-0.077122994
-4.385871	掉落	-0.077122994
-3.8757143	飞机	-0.077122994
-4.1387	部件	-0.077122994
-4.385871	呈	-0.077122994
-4.385871	三角	-0.077122994
-4.2522893	形	-0.077122994
-4.385871	周口	-0.077122994
-4.1387	打工	-0.077122994
-3.78683	中介	-0.077122994
-4.2522893	招	-0.077122994
-4.385871	听信	-0.077122994
-4.385871	描绘	-0.077122994
-4.2522893	画面	-0.077122994
-4.385871	青岛	-0.077122994
-4.385871	非但	-0.077122994
-4.385871	倒贴	-0.077122994
-3.9875977	四百	-0.26144335
-3.8757143	费用	-0.21779084
-4.2522893	六零	-0.077122994
-4.385871	失主	-0.077122994
-4.2522893	瘫	-0.077122994
-4.1387	七零	-0.14776348
-3.4624503	男	-0.1259868
-4.385871	窃贼	-0.077122994
-3.9875977	途中	-0.077122994
-4.2522893	抽空	-0.077122994
-4.385871	哈尔滨	-0.077122994
-4.2522893	机场	-0.077122994
-4.2522893	大巴	-0.077122994
-3.78683	上一	-0.111008584
-4.385871	钱包	-0.077122994
-4.2522893	主人	-0.077122994
-4.2522893	却是	-0.077122994
-3.2316022	冠军	-0.28957176
-3.78683	上演	-0.19095066
-4.2522893	千米	-0.077122994
-4.385871	追逐	-0.077122994
-4.2522893	战	-0.14776348
-4.1387	一边	-0.077122994
-4.385871	追还	-0.077122994
-3.9875977	忘	-0.077122994
-4.385871	秧田	-0.077122994
-4.385871	放水	-0.077122994
-4.385871	责怪	-0.077122994
-4.2522893	锤	-0.18791908
-4.385871	八十一	-0.077122994
-4.2522893	丢	-0.077122994
-4.1387	粪池	-0.14776348
-4.2522893	长沙	-0.18791908
-4.385871	望城	-0.077122994
-4.385871	桥	-0.077122994
-3.9875977	村	-0.077122994
-4.385871	老父	-0.077122994
-4.1387	进	-0.077122994
-4.1387	自家	-0.077122994
-4.1387	检察	-0.14776348
-4.2522893	提起	-0.077122994
-4.385871	公诉	-0.077122994
-4.385871	并处	-0.077122994
-4.2522893	剥夺	-0.077122994
-4.1387	政治	-0.077122994
-3.78683	权利	-0.111008584
-4.1387	三十五	-0.077122994
-4.385871	情妇	-0.077122994
-4.385871	争风	-0.077122994
-4.385871	吃醋	-0.077122994
-4.385871	刺死	-0.077122994
-3.78683	五十岁	-0.13694093
-4.385871	情敌	-0.077122994
-4.1387	胡	-0.077122994
-4.385871	亮中	-0.077122994
-4.1387	指认	-0.14776348
-4.385871	程飞	-0.077122994
-4.385871	捅	-0.077122994
-4.2522893	致死	-0.077122994
-4.385871	另有	-0.077122994
-4.385871	家室	-0.077122994
-4.2522893	婚外情	-0.077122994
-4.385871	畸恋	-0.077122994
-4.385871	酿成	-0.077122994
-4.385871	惨案	-0.077122994
-4.385871	捅死	-0.077122994
-4.2522893	六十一	-0.18791908
-4.385871	去世	-0.077122994
-4.385871	头颅	-0.077122994
-4.385871	保存	-0.077122994
-4.385871	首例	-0.077122994
-4.385871	冰冻	-0.077122994
-3.9875977	等待	-0.077122994
-4.385871	复生	-0.077122994
-4.385871	逝者	-0.077122994
-3.6500595	环卫	-0.47057664
-3.78683	工	-0.18390493
-4.2522893	被撞	-0.077122994
-4.1387	二人	-0.077122994
-4.2522893	自称	-0.077122994
-4.2522893	肇事	-0.077122994
-4.385871	福州	-0.077122994
-4.385871	前路	-0.077122994
-4.385871	宿舍	-0.077122994
-4.1387	小区	-0.077122994
-3.8757143	门	-0.1181149
-4.385871	生命	-0.077122994
-4.385871	终止	-0.077122994
-4.2522893	面包车	-0.077122994
-3.6500595	驾驶	-0.12899734
-4.2522893	驶离	-0.077122994
-3.2545824	老人	-0.12462816
-4.385871	跌入	-0.077122994
-4.385871	积水	-0.077122994
-4.385871	人路	-0.077122994
-4.385871	伸	-0.077122994
-4.385871	援手	-0.077122994
-4.2522893	达人	-0.077122994
-4.385871	漂游	-0.077122994
-4.385871	怒江	-0.077122994
-4.2522893	历经	-0.077122994
-4.385871	五天	-0.077122994
-4.385871	漂	-0.077122994
-4.385871	二百五十	-0.077122994
-3.5462022	公里	-0.25075328
-4.385871	有梦	-0.077122994
-4.2522893	六十二	-0.077122994
-4.2522893	访	-0.077122994
-4.385871	募捐	-0.077122994
-4.385871	诈	-0.077122994
-4.385871	捐	-0.077122994
-3.2545824	风险	-0.16305394
-4.385871	迅猛	-0.077122994
-4.1387	争议	-0.3456379
-4.385871	天宝	-0.077122994
-3.9875977	宝	-0.077122994
-4.385871	接种	-0.077122994
-4.2522893	预防	-0.077122994
-4.385871	疫苗	-0.077122994
-4.385871	不料	-0.077122994
-4.385871	小儿	-0.077122994
-4.385871	麻痹	-0.077122994
-4.2522893	症	-0.077122994
-4.385871	脊椎	-0.077122994
-3.6500595	明显	-0.10228611
-4.385871	弯曲	-0.077122994
-3.8757143	大爷	-0.077122994
-4.385871	回想	-0.077122994
-4.385871	麻	-0.077122994
-4.385871	坛	-0.077122994
-4.385871	傲人	-0.077122994
-4.385871	战绩	-0.077122994
-4.385871	激动	-0.077122994
-4.2522893	整	-0.077122994
-4.385871	急性	-0.077122994
-4.2522893	脑	-0.077122994
-4.2522893	出血	-0.077122994
-4.385871	义诊	-0.077122994
-4.385871	测量	-0.077122994
-4.385871	血压	-0.077122994
-4.385871	残疾	-0.077122994
-4.1387	清洁	-0.3456379
-4.385871	陕师大	-0.077122994
-4.1387	年年	-0.077122994
-4.385871	口头	-0.077122994
-4.385871	辞退	-0.077122994
-3.9875977	突然	-0.077123016
-4.385871	状告	-0.077122994
-4.385871	高校	-0.077122994
-4.385871	之声	-0.077122994
-3.78683	晚	-0.077122994
-4.1387	高峰	-0.14776348
-3.8757143	大妈	-0.077123016
-4.385871	辱骂	-0.077122994
-4.2522893	殴打	-0.077122994
-3.78683	对方	-0.077122994
-4.1387	老太	-0.077123016
-4.385871	器材	-0.077122994
-4.385871	仰卧	-0.077122994
-4.385871	旁边	-0.077122994
-4.2522893	清扫	-0.077122994
-4.385871	树叶	-0.077122994
-3.7130828	身体	-0.1181149
-4.385871	谩骂	-0.077122994
-4.385871	采摘	-0.077122994
-4.2522893	游	-0.077122994
-4.2522893	猝死	-0.077122994
-3.78683	郭	-0.077122994
-4.385871	炎	-0.077122994
-4.2522893	发病	-0.077122994
-3.78683	刑事	-0.077122994
-4.385871	资质	-0.077122994
-4.385871	上百	-0.077122994
-4.385871	出游	-0.077122994
-4.385871	且	-0.077122994
-4.385871	协议	-0.077122994
-3.8757143	保险	-0.077123016
-4.2522893	死者	-0.18791908
-4.2522893	质疑	-0.14776348
-3.78683	十年	-0.12291792
-3.9875977	万亿	-0.47057664
-4.1387	即使	-0.077123016
-4.385871	天花板	-0.077122994
-4.385871	一倍	-0.077122994
-3.5462022	空间	-0.3276484
-3.8757143	相信	-0.077123016
-4.2522893	贵金	-0.18791908
-4.2522893	当下	-0.077122994
-4.385871	有来	-0.077122994
-4.385871	青铜	-0.077122994
-4.385871	黑铁	-0.077122994
-4.2522893	远远	-0.077122994
-4.385871	铅	-0.077122994
-4.1387	足够	-0.14776348
-4.385871	滑	-0.077122994
-4.385871	这块	-0.077122994
-4.2522893	让开	-0.18791908
-4.385871	劲头	-0.077122994
-3.9875977	十足	-0.1289973
-4.385871	争抢	-0.077122994
-3.7130828	结构	-0.10600289
-4.2522893	下行	-0.077122994
-4.385871	势必	-0.077122994
-4.2522893	会面	-0.18791908
-4.1387	临	-0.1181149
-4.2522893	挖掘	-0.077122994
-3.8757143	关键	-0.23552735
-3.8757143	专注	-0.21779084
-3.9875977	转向	-0.077122994
-4.2522893	城镇	-0.077122994
-3.78683	配套	-0.077122994
-4.385871	目光	-0.077122994
-3.8757143	养老	-0.35835332
-4.385871	从中	-0.077122994
-4.385871	为生	-0.077122994
-3.7130828	活	-0.077122994
-4.2522893	内向	-0.077122994
-4.385871	细分	-0.077122994
-4.385871	纵向	-0.077122994
-4.385871	横向	-0.077122994
-4.1387	当前	-0.077122994
-3.8757143	暂时	-0.1181149
-4.385871	假设	-0.077122994
-4.2522893	呈现	-0.077122994
-3.9875977	老大	-0.16338307
-3.9875977	单个	-0.077122994
-4.385871	股友	-0.077122994
-4.385871	名词	-0.077122994
-4.385871	年新	-0.077122994
-4.385871	疆	-0.077122994
-4.385871	火热	-0.077122994
-3.9875977	新疆	-0.077123016
-4.385871	局长	-0.077122994
-4.385871	忠山	-0.077122994
-4.385871	当日	-0.077122994
-4.385871	下同	-0.077122994
-4.385871	之二	-0.077122994
-3.9875977	高于	-0.077122994
-4.385871	百分点	-0.077122994
-4.385871	一千八百	-0.077122994
-4.385871	八八一	-0.077122994
-4.385871	一十五	-0.077122994
-4.2522893	万平	-0.18791908
-4.385871	销	-0.077122994
-4.385871	八百四十	-0.077122994
-4.2522893	四七	-0.077122994
-3.78683	上年	-0.0937354
-3.4624503	上涨	-0.42892224
-3.8757143	涨幅	-0.077122994
-3.78683	回落	-0.19095066
-4.385871	总队	-0.077122994
-4.385871	队长	-0.077122994
-4.1387	潘	-0.14776348
-4.385871	玉珍	-0.077122994
-4.1387	消	-0.14776348
-4.2522893	格	-0.077122994
-4.2522893	指数	-0.077122994
-3.9875977	构成	-0.077122994
-3.5023105	较	-0.10830604
-3.78683	降低	-0.077122994
-4.385871	上行	-0.077122994
-4.1387	六十四	-0.1289973
-3.8757143	低于	-0.077123016
-3.8757143	七十九	-0.111008584
-4.385871	八大	-0.077122994
-3.5462022	首	-0.19411184
-4.385871	回答	-0.077122994
-4.385871	提问	-0.077122994
-3.9875977	在全	-0.1181149
-3.4624503	排名	-0.47788966
-4.385871	居于	-0.077122994
-4.2522893	前列	-0.077122994
-3.8757143	状况	-0.10600289
-4.2522893	各级	-0.077122994
-4.385871	供给	-0.077122994
-3.9875977	稳	-0.077122994
-4.385871	物价	-0.077122994
-3.9875977	农	-0.1289973
-4.385871	牧业	-0.077122994
-4.385871	种粮	-0.077122994
-3.4624503	农民	-0.13375168
-4.385871	补给	-0.077122994
-4.2522893	多样	-0.077122994
-4.1387	安排	-0.077122994
-4.2522893	三千万	-0.077122994
-4.2522893	蔬菜	-0.077122994
-4.385871	运费	-0.077122994
-4.385871	增收	-0.077122994
-4.2522893	受益	-0.077122994
-4.2522893	便民	-0.18791908
-4.2522893	总数	-0.077122994
-4.385871	一千六百	-0.077122994
-4.385871	肉类	-0.077122994
-4.385871	下拉	-0.077122994
-4.385871	乌鲁木齐	-0.077122994
-4.385871	六三	-0.077122994
-3.8757143	建议	-0.077122994
-3.9875977	使得	-0.077123016
-4.2522893	拓展	-0.077122994
-4.2522893	变得	-0.077122994
-3.9875977	困难	-0.1289973
-4.2522893	近来	-0.077122994
-4.385871	开会	-0.077122994
-3.8757143	经验	-0.077123016
-3.4624503	宏观	-0.5980021
-3.5950336	诈骗	-0.077122994
-4.1387	破坏	-0.14776348
-4.385871	和精	-0.077122994
-4.385871	重建	-0.077122994
-4.385871	有信	-0.077122994
-4.385871	股市	-0.077122994
-4.2522893	体现	-0.077122994
-4.385871	好好	-0.077122994
-4.2522893	看作	-0.077122994
-3.5462022	整体	-0.1488666
-4.2522893	类别	-0.077122994
-3.8757143	正面	-0.27554575
-4.1387	信心	-0.14776348
-4.2522893	助	-0.077122994
-3.9875977	淘汰	-0.1289973
-4.385871	体质	-0.077122994
-4.385871	良	-0.077122994
-3.5950336	证明	-0.077122994
-4.385871	良性	-0.077122994
-4.385871	子女	-0.077122994
-4.1387	员工	-0.077122994
-4.385871	凝聚	-0.077122994
-4.2522893	海关	-0.077122994
-4.385871	协作	-0.077122994
-4.385871	干部	-0.077122994
-3.9875977	交流	-0.077122994
-4.1387	标志	-0.077122994
-3.1145868	监管	-0.17405757
-4.385871	新规	-0.077122994
-4.2522893	的确	-0.077122994
-4.385871	稿	-0.077122994
-4.1387	宽松	-0.077122994
-4.1387	分行	-0.14776348
-4.385871	股票	-0.077122994
-4.2522893	走势	-0.077122994
-3.78683	重大	-0.077122994
-4.2522893	审慎	-0.077122994
-3.8757143	版	-0.077123016
-3.7130828	巴	-0.14960358
-3.9875977	关于	-0.077123016
-4.385871	细	-0.077122994
-4.385871	规	-0.077122994
-4.2522893	并未	-0.077122994
-4.2522893	过多	-0.077122994
-4.385871	表述	-0.077122994
-4.2522893	细则	-0.077122994
-4.385871	待定	-0.077122994
-4.385871	微观	-0.077122994
-3.9875977	指标	-0.1289973
-3.9875977	注意	-0.1181149
-3.8757143	逆	-0.56748664
-4.385871	缓冲	-0.077122994
-4.385871	储备	-0.077122994
-4.1387	银监	-0.3456379
-4.1387	计提	-0.077122994
-4.2522893	加权	-0.077122994
-4.2522893	仅有	-0.077122994
-3.9875977	满足	-0.077122994
-3.8757143	规则	-0.077123016
-4.385871	另行	-0.077122994
-3.6500595	规定	-0.2413433
-3.5950336	出台	-0.25648725
-4.385871	新标	-0.077122994
-3.7130828	准	-0.10228611
-3.7130828	基于	-0.10600289
-4.385871	充足	-0.077122994
-4.2522893	提到	-0.077122994
-4.385871	究竟	-0.077122994
-4.385871	谁来	-0.077122994
-4.385871	伴随	-0.077122994
-4.1387	面对	-0.077122994
-4.2522893	协调	-0.18791908
-4.2522893	一行	-0.077122994
-4.385871	一会	-0.077122994
-4.2522893	把握	-0.077122994
-4.385871	话语	-0.077122994
-4.385871	转到	-0.077122994
-4.385871	在强	-0.077122994
-4.1387	调	-0.077122994
-4.385871	开拓	-0.077122994
-4.385871	主旨	-0.077122994
-4.385871	业先	-0.077122994
-4.385871	驱	-0.077122994
-4.385871	将向	-0.077122994
-3.8757143	注册	-0.077122994
-4.385871	与会	-0.077122994
-4.385871	文丁	-0.077122994
-4.385871	丁	-0.077122994
-3.9875977	登陆	-0.1289973
-4.2522893	明天	-0.077122994
-3.1320283	汽车	-0.15415376
-4.2522893	元素	-0.077122994
-4.2522893	越	-0.077122994
-3.6500595	共	-0.1595772
-3.6500595	二十九	-0.10228611
-3.6500595	厂商	-0.12291792
-4.2522893	做主	-0.077122994
-4.1387	提醒	-0.077122994
-3.7130828	违法	-0.23073839
-3.9875977	限行	-0.1289973
-3.9875977	提示	-0.1289973
-4.385871	高危	-0.077122994
-4.2522893	路段	-0.077122994
-4.385871	商店	-0.077122994
-4.385871	查看	-0.077122994
-4.1387	容易	-0.077122994
-4.2522893	地点	-0.18791908
-4.385871	并提	-0.077122994
-3.78683	供	-0.099417105
-4.385871	高发	-0.077122994
-4.385871	罚单	-0.077122994
-3.9875977	位置	-0.1181149
-3.9875977	定位	-0.077122994
-4.385871	苑	-0.077122994
-4.385871	北一	-0.077122994
-4.2522893	打开	-0.077122994
-4.2522893	查询	-0.077122994
-3.6500595	一款	-0.10228611
-4.385871	标出	-0.077122994
-3.7130828	同样	-0.077122994
-4.385871	上次	-0.077122994
-4.2522893	前来	-0.077122994
-4.385871	一百三十七	-0.077122994
-4.2522893	车主	-0.077122994
-4.1387	上传	-0.077122994
-4.2522893	准确	-0.077122994
-3.9875977	评论	-0.077122994
-4.2522893	中表	-0.18791908
-4.1387	示	-0.26144335
-3.9875977	怕	-0.077122994
-4.385871	条文	-0.077122994
-4.2522893	定性	-0.077122994
-4.2522893	然	-0.077122994
-4.385871	妨碍	-0.077122994
-4.1387	罚款	-0.14776348
-4.385871	凯诺	-0.077122994
-3.5462022	律师	-0.1181149
-4.2522893	事务	-0.18791908
-4.385871	新年	-0.077122994
-3.7130828	现象	-0.17274643
-4.2522893	核实	-0.14776348
-4.385871	九万	-0.077122994
-4.385871	一千零六十一	-0.077122994
-4.385871	循序	-0.077122994
-4.385871	渐进	-0.077122994
-4.385871	以恒	-0.077122994
-4.385871	姚	-0.077122994
-4.1387	远	-0.077122994
-4.385871	林清	-0.077122994
-4.385871	智	-0.077122994
-3.8757143	很少	-0.1181149
-4.2522893	样子	-0.14776348
-3.9875977	肥胖	-0.077122994
-4.2522893	归结	-0.18791908
-4.385871	遗传	-0.077122994
-4.385871	饭量	-0.077122994
-4.385871	肥肉	-0.077122994
-3.9875977	胖	-0.077122994
-4.2522893	瘦	-0.077122994
-3.9875977	讲	-0.077122994
-4.385871	坏处	-0.077122994
-3.8757143	出去	-0.1181149
-3.78683	动	-0.111008584
-4.385871	一动	-0.077122994
-4.2522893	葛	-0.077122994
-4.385871	仙湖	-0.077122994
-4.385871	华阳	-0.077122994
-3.8757143	一天	-0.077122994
-4.1387	两天	-0.077122994
-4.385871	走走	-0.077122994
-4.2522893	轻松	-0.077122994
-4.385871	嘛	-0.077122994
-4.385871	月才	-0.077122994
-4.385871	上去	-0.077122994
-4.2522893	半年	-0.077122994
-3.4624503	轻	-0.43753457
-4.2522893	一百三十	-0.077122994
-4.385871	一百三十八	-0.077122994
-4.385871	一百四十六	-0.077122994
-4.385871	浮动	-0.077122994
-4.1387	饮食	-0.077122994
-4.385871	和平	-0.077122994
-4.2522893	异	-0.077122994
-4.385871	在超	-0.077122994
-3.78683	从事	-0.077122994
-4.385871	体力	-0.077122994
-4.1387	膝盖	-0.14776348
-4.385871	损伤	-0.077122994
-4.385871	左膝	-0.077122994
-4.1387	盖	-0.077122994
-4.385871	隐隐	-0.077122994
-4.385871	作痛	-0.077122994
-4.2522893	休息	-0.077122994
-4.2522893	肌肉	-0.077122994
-4.385871	疼痛	-0.077122994
-4.385871	正常	-0.077122994
-3.9875977	痛	-0.1289973
-4.385871	实在	-0.077122994
-4.385871	也行	-0.077122994
-4.385871	大腹	-0.077122994
-4.385871	便便	-0.077122994
-4.385871	也好	-0.077122994
-4.385871	我来	-0.077122994
-3.9875977	很好	-0.1289973
-4.385871	瘾	-0.077122994
-4.385871	少人	-0.077122994
-4.2522893	跟着	-0.077122994
-3.8757143	爱	-0.077123016
-4.2522893	四十二	-0.077122994
-4.385871	一九五	-0.077122994
-4.2522893	南京	-0.077122994
-4.1387	想要	-0.077122994
-3.7130828	根据	-0.077122994
-4.385871	来增	-0.077122994
-4.385871	才会	-0.077122994
-4.2522893	消耗	-0.077122994
-4.385871	能量	-0.077122994
-4.2522893	和运	-0.077122994
-4.1387	借鉴	-0.14776348
-3.8757143	他人	-0.077122994
-4.2522893	复制	-0.077122994
-4.385871	脚踝	-0.077122994
-3.8757143	伤害	-0.25789747
-4.385871	好事	-0.077122994
-4.385871	个体	-0.077122994
-4.2522893	指导	-0.077122994
-3.8757143	专业	-0.111008584
-4.385871	康复	-0.077122994
-3.9875977	检查	-0.1289973
-4.385871	定一	-0.077122994
-4.385871	感觉	-0.077122994
-4.385871	脂肪	-0.077122994
-4.385871	碳水	-0.077122994
-4.2522893	化合	-0.077122994
-4.385871	摄入	-0.077122994
-4.2522893	太多	-0.18791908
-4.2522893	食物	-0.077122994
-4.385871	腹	-0.077122994
-3.78683	感	-0.111008584
-4.385871	饿	-0.077122994
-4.385871	理想	-0.077122994
-4.2522893	施瓦辛格	-0.077122994
-4.2522893	强势	-0.077122994
-4.2522893	回归	-0.077122994
-4.385871	从影	-0.077122994
-3.78683	片	-0.111008584
-4.1387	再度	-0.077122994
-4.385871	领略	-0.077122994
-4.385871	硬汉	-0.077122994
-4.385871	雄风	-0.077122994
-3.8757143	这款	-0.17328207
-4.2522893	爆裂	-0.077122994
-3.8757143	预告	-0.077122994
-4.1387	带领	-0.14776348
-4.385871	型男	-0.077122994
-3.8757143	十几	-0.21779084
-4.385871	向来	-0.077122994
-4.385871	以朋	-0.077122994
-3.8757143	友	-0.077122994
-4.2522893	相称	-0.077122994
-4.385871	蜜	-0.077122994
-4.385871	扑	-0.077122994
-4.385871	朔	-0.077122994
-4.385871	迷离	-0.077122994
-4.385871	见天	-0.077122994
-4.385871	朗	-0.077122994
-4.2522893	气	-0.077122994
-4.385871	清	-0.077122994
-4.385871	浅水	-0.077122994
-4.2522893	海	-0.077122994
-4.385871	心情	-0.077122994
-3.5023105	十分	-0.077122994
-3.5023105	同	-0.08878303
-4.2522893	一时间	-0.077122994
-4.2522893	好朋	-0.18791908
-4.1387	秀	-0.077122994
-4.385871	郊游	-0.077122994
-4.385871	两位	-0.077122994
-4.2522893	好友	-0.077122994
-4.385871	亲近	-0.077122994
-4.385871	果然	-0.077122994
-4.385871	默契	-0.077122994
-4.2522893	日凌	-0.18791908
-4.385871	晨	-0.077122994
-4.385871	博中	-0.077122994
-3.9875977	出自	-0.077123016
-4.385871	己	-0.077122994
-4.385871	彦祖	-0.077122994
-3.8757143	谢	-0.1181149
-4.385871	霆锋	-0.077122994
-4.2522893	旧	-0.077122994
-3.6500595	照	-0.36704192
-4.385871	艾特	-0.077122994
-4.1387	写道	-0.077122994
-4.385871	哇	-0.077122994
-4.2522893	小鲜	-0.18791908
-4.2522893	肉	-0.077122994
-4.2522893	啊	-0.18791908
-3.9875977	三人	-0.077122994
-4.1387	带有	-0.077122994
-4.385871	丝丝	-0.077122994
-4.385871	青涩	-0.077122994
-4.2522893	颜	-0.077122994
-4.1387	属于	-0.077122994
-4.385871	鲜花	-0.077122994
-4.2522893	合影	-0.18791908
-4.385871	笑容	-0.077122994
-4.385871	一丝	-0.077122994
-4.385871	腼腆	-0.077122994
-4.385871	特警	-0.077122994
-4.2522893	新人	-0.077122994
-3.9875977	已有	-0.077122994
-4.385871	骗人	-0.077122994
-4.385871	伎俩	-0.077122994
-4.2522893	层层	-0.077122994
-3.6500595	曝光	-0.14178635
-4.2522893	可是	-0.077122994
-4.385871	肥东	-0.077122994
-3.4624503	县	-0.11185292
-4.385871	复兴	-0.077122994
-4.2522893	乡	-0.077122994
-4.385871	独生	-0.077122994
-4.385871	早逝	-0.077122994
-4.385871	求子	-0.077122994
-4.385871	心切	-0.077122994
-4.2522893	人生	-0.077122994
-4.385871	传宗	-0.077122994
-4.385871	接代	-0.077122994
-4.1387	瞒	-0.14776348
-3.9875977	老伴	-0.077122994
-4.385871	血汗	-0.077122994
-4.385871	骗走	-0.077122994
-3.9875977	独立	-0.1181149
-3.7130828	年轻	-0.25789747
-4.385871	梦想	-0.077122994
-4.385871	大中	-0.077122994
-3.7130828	房价	-0.10228611
-4.2522893	居高	-0.18791908
-4.385871	跌进	-0.077122994
-4.385871	终	-0.077122994
-4.385871	石川	-0.077122994
-4.2522893	左	-0.077122994
-4.2522893	隆	-0.077122994
-4.385871	相左	-0.077122994
-4.2522893	一到	-0.077122994
-4.2522893	看望	-0.077122994
-4.385871	兰玉	-0.077122994
-4.385871	珍	-0.077122994
-4.1387	斌	-0.077122994
-3.9875977	摄	-0.47057664
-3.9875977	老汉	-0.077122994
-4.2522893	强奸	-0.14776348
-4.2522893	被捕	-0.077122994
-4.2522893	三十八	-0.077122994
-4.385871	从青	-0.077122994
-4.2522893	到老	-0.077122994
-4.385871	监狱	-0.077122994
-4.385871	中度	-0.077122994
-3.8757143	刚	-0.077122994
-4.385871	出狱	-0.077122994
-4.1387	久	-0.14776348
-4.385871	毛病	-0.077122994
-4.1387	犯	-0.077122994
-4.385871	沈阳	-0.077122994
-3.8757143	此案	-0.1181149
-4.1387	进展	-0.3456379
-4.385871	批捕	-0.077122994
-3.7130828	抗战	-0.13694093
-4.2522893	老兵	-0.077122994
-4.2522893	会师	-0.077122994
-3.5950336	成都	-0.10830604
-4.385871	堪比	-0.077122994
-4.385871	川军	-0.077122994
-4.2522893	当年	-0.077122994
-3.9875977	排	-0.077122994
-4.385871	陆续	-0.077122994
-4.385871	赶来	-0.077122994
-4.385871	名家	-0.077122994
-4.1387	跳楼	-0.14776348
-4.2522893	脱离	-0.18791908
-3.3610175	危险	-0.4259501
-4.385871	京华	-0.077122994
-4.385871	武红	-0.077122994
-4.385871	常鑫	-0.077122994
-4.385871	前天	-0.077122994
-4.2522893	大兴	-0.18791908
-4.385871	庞各庄	-0.077122994
-4.385871	中将	-0.077122994
-4.2522893	隔壁	-0.077122994
-4.2522893	单元	-0.077122994
-4.2522893	高层	-0.077122994
-4.385871	楼道	-0.077122994
-4.385871	内破	-0.077122994
-4.2522893	窗	-0.077122994
-4.385871	正对	-0.077122994
-4.385871	老男	-0.077122994
-4.385871	人利	-0.077122994
-4.385871	玩偶	-0.077122994
-4.1387	小女	-0.3456379
-3.9875977	孩	-0.077122994
-4.1387	拉	-0.077122994
-4.2522893	角落	-0.077122994
-3.78683	欲	-0.19095066
-4.2522893	南宁	-0.077122994
-4.385871	发指	-0.077122994
-4.385871	遭到	-0.077122994
-3.9875977	六十多	-0.47057664
-3.78683	猥亵	-0.077122994
-4.2522893	六十五	-0.077122994
-4.2522893	交	-0.077122994
-4.2522893	体检	-0.077122994
-4.385871	单被	-0.077122994
-3.9875977	注销	-0.1289973
-4.1387	驾照	-0.077122994
-4.385871	车管	-0.077122994
-4.2522893	审	-0.077122994
-4.1387	被告	-0.077122994
-4.1387	知	-0.077122994
-4.2522893	汪	-0.18791908
-4.385871	其妙	-0.077122994
-4.385871	按时	-0.077122994
-4.2522893	提交	-0.18791908
-3.78683	报告	-0.10228611
-4.2522893	压	-0.077122994
-4.385871	这事	-0.077122994
-4.2522893	就要	-0.077122994
-4.385871	热线	-0.077122994
-4.385871	九六零	-0.077122994
-4.2522893	打来	-0.077122994
-4.385871	投诉	-0.077122994
-4.385871	论文	-0.077122994
-4.385871	答辩	-0.077122994
-3.7130828	老师	-0.077122994
-4.1387	错	-0.077122994
-4.385871	蒋	-0.077122994
-4.385871	天星	-0.077122994
-4.385871	阅读	-0.077122994
-4.385871	概论	-0.077122994
-4.2522893	六十六	-0.077122994
-4.2522893	职	-0.077122994
-4.385871	租房	-0.077122994
-4.385871	吐槽	-0.077122994
-3.9875977	刚刚	-0.077122994
-4.385871	校门	-0.077122994
-4.2522893	毕业	-0.077122994
-4.2522893	马上	-0.077122994
-4.385871	紧张	-0.077122994
-4.385871	战役	-0.077122994
-4.2522893	又一	-0.077122994
-3.8757143	难题	-0.56748664
-4.1387	青年	-0.077123016
-4.385871	报社	-0.077122994
-4.385871	民意	-0.077122994
-4.2522893	问卷	-0.18791908
-4.385871	一千八百七十三	-0.077122994
-4.1387	炒股	-0.077122994
-4.385871	赚	-0.077122994
-4.385871	二十亿	-0.077122994
-4.385871	借此	-0.077122994
-4.385871	粉饰	-0.077122994
-4.2522893	尴尬	-0.077122994
-4.1387	摔倒	-0.077122994
-4.385871	暴晒	-0.077122994
-4.385871	沥青	-0.077122994
-3.9875977	烫伤	-0.1181149
-4.2522893	住在	-0.077122994
-4.2522893	重症	-0.18791908
-4.2522893	监护	-0.077122994
-3.78683	室	-0.23073839
-4.385871	因患	-0.077122994
-4.385871	痴呆	-0.077122994
-3.5023105	精神	-0.09527761
-4.1387	承受	-0.14776348
-4.2522893	痛苦	-0.077122994
-4.385871	护工	-0.077122994
-4.2522893	失职	-0.18791908
-3.9875977	退休	-0.13694093
-3.7130828	冒充	-0.10600289
-4.2522893	中纪	-0.18791908
-3.9875977	委	-0.077122994
-4.2522893	骗	-0.077122994
-4.2522893	七十五万	-0.077122994
-4.1387	受审	-0.077122994
-4.385871	晚报	-0.077122994
-4.2522893	宁	-0.077122994
-4.385871	花甲	-0.077122994
-4.385871	年纪	-0.077122994
-3.8757143	山东	-0.077122994
-4.385871	蒙	-0.077122994
-4.385871	齐鲁	-0.077122994
-4.1387	石化	-0.14776348
-4.385871	编造	-0.077122994
-4.2522893	返	-0.077122994
-4.385871	骋	-0.077122994
-4.2522893	办案	-0.077122994
-4.385871	部级	-0.077122994
-4.385871	巡视	-0.077122994
-4.2522893	亲戚	-0.077122994
-4.385871	调动	-0.077122994
-4.385871	为由	-0.077122994
-4.2522893	骗取	-0.077122994
-3.78683	事主	-0.077122994
-3.7130828	路	-0.10600289
-4.385871	安门	-0.077122994
-4.385871	城楼	-0.077122994
-4.385871	观礼	-0.077122994
-3.9875977	女性	-0.077122994
-3.9875977	官员	-0.23552735
-4.2522893	五二	-0.077122994
-3.9875977	同期	-0.1181149
-3.5023105	十八	-0.17820261
-3.8757143	增	-0.077122994
-4.2522893	四千	-0.077122994
-4.385871	零五十	-0.077122994
-4.2522893	五亿	-0.077122994
-4.1387	持平	-0.14776348
-4.385871	一百九十六	-0.077122994
-3.8757143	五十七	-0.21779084
-4.385871	二千五百	-0.077122994
-4.2522893	八十九	-0.077122994
-4.2522893	五十五	-0.077122994
-4.385871	比高	-0.077122994
-4.2522893	风光	-0.18791908
-4.385871	各行	-0.077122994
-4.2522893	涉足	-0.077122994
-4.1387	低迷	-0.077122994
-4.1387	谋求	-0.077122994
-4.385871	发家	-0.077122994
-4.1387	万好	-0.3456379
-4.385871	万家	-0.077122994
-4.385871	东日	-0.077123016
-3.9875977	老牌	-0.1289973
-4.2522893	退出	-0.18791908
-4.385871	告别	-0.077122994
-3.9875977	转战	-0.077122994
-3.78683	热门	-0.111008584
-3.78683	温州	-0.111008584
-4.385871	益	-0.077122994
-4.2522893	优	-0.077122994
-4.385871	百分之百	-0.077122994
-4.2522893	置换	-0.077122994
-4.385871	差额	-0.077122994
-3.9875977	应当	-0.077122994
-4.2522893	补足	-0.077122994
-4.2522893	一方	-0.077122994
-3.8757143	现金	-0.1181149
-4.385871	进出	-0.077122994
-4.385871	贸易	-0.077122994
-4.385871	剥离	-0.077122994
-3.78683	主	-0.077122994
-4.1387	营业	-0.077122994
-4.1387	务	-0.077122994
-4.1387	在保	-0.077122994
-4.385871	留东	-0.077122994
-4.385871	灯具	-0.077122994
-4.2522893	农产	-0.18791908
-3.6500595	品	-0.17479672
-4.2522893	批发	-0.077122994
-4.385871	置入	-0.077122994
-3.4259431	之后	-0.37145233
-4.385871	相较	-0.077122994
-3.8757143	农业	-0.1181149
-4.385871	预案	-0.077122994
-4.2522893	彻底	-0.077122994
-4.385871	为文	-0.077122994
-3.9875977	际	-0.077123016
-3.6500595	控制	-0.1595772
-4.385871	变更	-0.077122994
-4.1387	国资	-0.3456379
-4.1387	证监	-0.3456379
-4.385871	核准	-0.077122994
-3.9875977	在于	-0.077123016
-3.8757143	旗	-0.56748664
-4.2522893	分摊	-0.077122994
-4.385871	并重	-0.077122994
-4.2522893	热潮	-0.077122994
-4.385871	契机	-0.077122994
-4.385871	战场	-0.077122994
-4.1387	巨头	-0.077122994
-4.385871	广厦	-0.077122994
-4.2522893	影视	-0.077122994
-4.385871	弥补	-0.077122994
-4.2522893	单一	-0.077122994
-4.2522893	主业	-0.077122994
-4.2522893	波动	-0.077122994
-4.385871	在目	-0.077122994
-4.2522893	出手	-0.077122994
-4.1387	显	-0.14776348
-3.6500595	各	-0.11422432
-3.8757143	司	-0.077123016
-3.5950336	稳定	-0.17607264
-4.2522893	当然	-0.077122994
-3.7130828	鲁	-0.1595772
-4.385871	政委	-0.077122994
-3.5950336	分析	-0.17820261
-4.385871	从美	-0.077122994
-4.385871	架构	-0.077122994
-4.2522893	当局	-0.077122994
-4.385871	较多	-0.077122994
-4.385871	总行	-0.077122994
-4.385871	志成	-0.077122994
-3.9875977	看来	-0.077123016
-4.385871	深入	-0.077122994
-4.385871	三正	-0.077122994
-4.2522893	敲定	-0.077122994
-3.8757143	期间	-0.21779084
-4.385871	落定	-0.077122994
-4.2522893	推	-0.18791908
-4.385871	尚福	-0.077122994
-4.385871	讲话	-0.077122994
-4.385871	从政	-0.077122994
-4.2522893	补充	-0.077122994
-4.385871	现行	-0.077122994
-4.385871	申银	-0.077122994
-4.385871	万国	-0.077122994
-4.2522893	测算	-0.077122994
-4.2522893	缺口	-0.077122994
-4.385871	超额	-0.077122994
-4.385871	计入	-0.077122994
-4.2522893	达标	-0.077122994
-4.1387	缓解	-0.077122994
