\data\
ngram 1=28720
ngram 2=42271
ngram 3=5715

\1-grams:
-3.838781	喂	-0.097335
-3.692874	你好	-0.253951
-2.928196	能	-0.168512
-3.729038	听到	-0.171386
-2.366013	呃	-0.146259
-2.772939	可以	-0.200926
-2.240702	呀	-0.512496
-2.990395	像	-0.179650
-4.071818	泰山	-0.060945
-1.949908	了	-0.488151
-4.470741	华山
-3.350753	五	-0.293072
-5.335781	台山
-3.650407	九	-0.265982
-2.818127	很	-0.248040
-4.210366	多啦	-0.268195
-2.741335	到	-0.266365
-3.236434	当然	-0.203488
-3.509592	去看	-0.316227
-4.441991	日出	-0.058839
-2.602571	啦	-0.488465
-1.708959	的	-0.419280
-2.250435	是	-0.114423
-3.011554	非常	-0.261228
-2.691638	好	-0.273281
-3.181183	比如	-0.384914
-2.890664	说	-0.135212
-2.493481	在	-0.299869
-4.135591	一大	-0.127656
-5.218547	清早
-2.705704	去	-0.219979
-3.603577	话	-0.030241
-3.587727	经	-0.395564
-4.815136	常会
-4.149551	下雨	-0.232619
-5.335781	朦朦
-4.753966	小雨
-4.753966	山顶	-0.038842
-3.157430	之后	-0.237416
-2.271145	你	-0.315765
-4.389639	再看	-0.050892
-3.064179	出来	-0.366790
-3.181183	时候	-0.034542
-4.122065	太阳	-0.123604
-4.501530	红色	-0.204321
-2.848960	唔	-0.103193
-3.751142	美	-0.206345
-2.194587	就	-0.360470
-3.245187	是在	-0.120512
-4.163975	雨	-0.097496
-5.077749	中看
-2.176856	嘛	-0.543577
-2.928196	感觉	-0.247597
-2.836363	特别	-0.320475
-2.608653	嗯	-0.181147
-3.460470	好啊	-0.225475
-3.572434	听说	-0.126243
-3.303782	长	-0.336561
-4.534669	白山	-0.103227
-4.652645	天池
-3.201487	挺好	-0.544798
-2.597367	这个	-0.183683
-2.246516	我	-0.370175
-2.718660	一点	-0.324534
-2.319547	不	-0.397615
-3.057242	知道	-0.208188
-2.793069	是不	-0.524933
-3.931186	是真	-0.382974
-3.118753	其实	-0.171615
-2.895380	它	-0.243820
-4.415027	是由	-0.045803
-4.886357	火山	-0.066855
-4.163975	爆	-0.051483
-5.218547	喷发
-3.293780	而	-0.101986
-4.210366	形成	-0.222408
-3.082024	已经	-0.146660
-4.321326	多年	-0.040856
-4.135591	由	-0.023852
-3.659492	水	-0.118399
-3.641508	怪	-0.151857
-4.441991	产	-0.104883
-2.934203	来	-0.191573
-3.805415	产生	-0.250273
-2.424152	也	-0.412288
-2.336231	有	-0.299096
-2.935935	可能	-0.233824
-2.232725	吧	-0.580713
-2.950042	因为	-0.169888
-2.250435	那个	-0.129399
-3.034886	时间	-0.211187
-4.415027	年代
-5.077749	久远
-3.678252	那不	-0.188053
-4.609659	对啦	-0.099619
-3.026256	这么	-0.269364
-3.049285	可	-0.276717
-3.957724	能在	-0.039133
-3.890271	时代	-0.110136
-3.454703	还不	-0.229527
-2.591833	一个	-0.160910
-3.641508	山	-0.136457
-2.339294	呢	-0.480004
-4.470741	它只	-0.129713
-3.413731	就像	-0.150076
-4.300751	一片	-0.034736
-5.436625	汪洋	-0.125558
-4.149551	大海	-0.074555
-3.546904	认为	-0.094352
-5.436625	地壳	-0.125558
-3.398366	运动	-0.264198
-5.335781	由此
-2.468529	然后	-0.216989
-3.204697	也就	-0.284229
-2.622340	这	-0.250465
-2.429254	吗	-0.707222
-3.931186	变成	-0.104716
-5.335781	一滩
-4.886357	池
-5.335781	怪兽
-3.487415	就在	-0.153763
-3.416345	那里	-0.140950
-4.342925	生存	-0.063619
-2.620658	对	-0.175067
-3.762630	西部	-0.112757
-4.244298	穷	-0.201406
-1.988678	啊	-0.445875
-3.882531	赚钱	-0.188923
-3.132174	不好	-0.318456
-3.762630	赚	-0.206616
-2.764674	哪	-0.353011
-3.481281	其	-0.362701
-4.971594	实我	-0.014677
-2.923956	大	-0.270013
-3.874926	开发	-0.225213
-3.314020	问题	-0.253048
-2.801262	上	-0.238208
-3.378690	国家	-0.109977
-4.300751	平衡	-0.207901
-2.933340	如果	-0.252356
-5.335781	能源	-0.081546
-2.815489	要	-0.147030
-3.922689	丰富	-0.271436
-4.048719	商业	-0.239125
-5.335781	潜能
-4.071818	当初	-0.011949
-3.469267	先	-0.090870
-3.284003	开	-0.267560
-4.570548	就先
-4.149551	而不	-0.263704
-4.441991	沿海	-0.069720
-3.948697	就得	-0.055122
-4.886357	依靠
-4.060115	它们	-0.132635
-4.194345	特色	-0.269617
-2.303278	还	-0.509118
-3.187330	把	-0.177870
-2.805738	应该	-0.286178
-3.799039	占	-0.148885
-3.637126	些	-0.156128
-4.700357	主流
-4.534669	这倒	-0.191137
-2.758288	没有	-0.159212
-2.618564	我们	-0.291604
-2.604184	现在	-0.261648
-4.178895	科技	-0.081528
-3.654925	水平	-0.167919
-3.366831	能够	-0.089374
-3.799039	达到	-0.166998
-2.786255	那种	-0.147820
-2.644382	但	-0.622034
-3.957724	西藏	-0.139618
-2.898552	那么	-0.241503
-4.470741	神秘	-0.082517
-2.932478	呗	-0.498644
-2.646159	比较	-0.254518
-3.472240	最好	-0.357884
-5.077749	苦行	-0.217755
-5.335781	僧
-2.363684	那	-0.199174
-4.300751	纯	-0.076350
-2.848960	里面	-0.243483
-2.716561	他们	-0.240480
-3.018843	做	-0.300061
-2.730389	自己	-0.227660
-5.218547	超凡
-4.886357	境界
-3.867453	从小	-0.286939
-4.135591	跟着	-0.008150
-4.570548	师傅
-4.971594	大山
-3.931186	里头	-0.146802
-4.321326	高原	-0.078272
-3.160329	很多	-0.223068
-3.580013	直接	-0.077076
-3.561309	进去	-0.278155
-3.027325	也不	-0.383159
-4.262312	盖	-0.158202
-3.874926	房子	-0.096768
-4.321326	掏	-0.050902
-3.587727	随便	-0.105715
-4.048719	就你	-0.071058
-4.815136	山洞	-0.197376
-2.879095	或者	-0.296001
-3.284003	有个	-0.127582
-5.436625	小窝	-0.125558
-4.886357	篷
-3.353014	就行	-0.804921
-3.440612	住	-0.211827
-3.734460	简单	-0.220098
-3.564986	很少	-0.243543
-3.995835	种	-0.016052
-2.380740	什么	-0.203237
-4.163975	蔬菜	-0.064261
-3.860106	水果	-0.090850
-3.238171	主要	-0.327965
-4.149551	当地	-0.257817
-2.980670	人	-0.156377
-5.335781	布施
-2.951838	最	-0.352412
-3.718395	主	-0.186386
-4.501530	要靠	-0.133855
-4.262312	往往	-0.039272
-3.914355	这就	-0.338739
-3.284003	一种	-0.046784
-4.815136	宗教	-0.056649
-3.687945	精神	-0.171959
-4.096215	力量	-0.085584
-4.501530	纯粹	-0.229157
-3.713170	自	-0.205430
-3.774430	快乐	-0.224421
-5.218547	常人
-4.815136	所能	-0.049146
-4.149551	想象	-0.181407
-3.472240	每天	-0.160929
-4.700357	只吃	-0.043399
-2.538313	一	-0.330848
-4.534669	顿饭
-5.335781	却很
-3.718395	活	-0.152414
-3.457577	很好	-0.401895
-3.599560	行	-0.187244
-3.692874	南方	-0.192020
-2.867085	跟	-0.261153
-3.805415	北方	-0.119230
-3.611724	最大	-0.471159
-4.210366	特点	-0.155746
-4.149551	饮食	-0.166630
-3.668771	文化	-0.170106
-4.389639	区别	-0.081002
-2.897757	喜欢	-0.249801
-2.930760	吃	-0.301327
-4.194345	火锅	-0.117070
-4.815136	喝汤
-3.001350	所以	-0.243144
-3.204697	咱们	-0.223929
-2.848960	中国	-0.286645
-3.723684	正好	-0.136971
-4.026787	是以	-0.008451
-4.753966	南北	-0.029583
-5.436625	为界
-3.238171	不行	-0.274195
-3.339623	所	-0.366682
-5.335781	以人
-4.441991	生在	-0.023450
-4.342925	世	-0.069714
-4.815136	都应	-0.121814
-4.652645	该去
-4.096215	一趟	-0.076549
-4.037614	文	-0.127292
-2.687702	好像	-0.322799
-2.725019	比	-0.453177
-3.756848	要好	-0.490655
-3.108307	听	-0.343485
-4.441991	见我	-0.064247
-3.519454	说话	-0.233227
-4.210366	俩	-0.010574
-3.204697	聊	-0.393624
-2.881384	一下	-0.254817
-4.083846	地理	-0.140096
-3.554047	情况	-0.187740
-3.673486	咱俩	-0.088643
-3.718395	都挺	-0.224427
-4.971594	热衷	-0.056633
-3.692874	首先	-0.137986
-4.389639	想问	-0.226480
-3.718395	问你	-0.184715
-4.470741	名山	-0.488357
-4.886357	大川
-3.181183	中	-0.266237
-3.303782	哪个	-0.228223
-3.031629	噢	-0.154299
-3.668771	那我	-0.045992
-3.169144	这些	-0.185081
-4.534669	山吧	-0.209480
-3.432371	我都	-0.120865
-3.457577	去过	-0.227016
-3.381101	是我	-0.105819
-3.668771	想去	-0.148734
-3.385964	今年	-0.189019
-3.799039	暑假	-0.103905
-3.607631	你能	-0.127372
-3.739949	帮	-0.131066
-3.065346	我就	-0.224530
-5.436625	粗略
-3.668771	介绍	-0.263842
-4.700357	泰
-4.753966	山都
-4.281106	名胜	-0.326310
-4.652645	古迹	-0.066436
-2.972101	又	-0.156125
-4.886357	奇特	-0.197936
-4.441991	景色
-3.178142	别	-0.406377
-3.057242	一样	-0.330740
-3.460470	地方	-0.064539
-3.280154	一定	-0.170883
-4.016222	感受	-0.127238
-3.811886	让人	-0.093594
-3.751142	关于	-0.108439
-4.342925	很想	-0.013988
-4.886357	过长	-0.225859
-4.652645	介	-0.038846
-3.254119	给你	-0.176396
-5.218547	主峰
-3.995835	一千	-0.298119
-3.654925	一百	-0.314350
-4.886357	多米	-0.082917
-4.048719	东北	-0.180117
-3.509592	属于	-0.109166
-4.016222	最高	-0.315637
-3.025189	了吧	-0.492004
-3.611724	我去	-0.175357
-3.882531	白	-0.124261
-5.436625	长山
-5.335781	那座	-0.125558
-2.672304	怎么	-0.385488
-3.985989	说呢	-0.061346
-2.785027	看	-0.322999
-2.998335	得	-0.182623
-3.966943	很长	-0.499792
-3.615856	很大	-0.342750
-3.628493	一段	-0.311986
-3.914355	天气	-0.060518
-2.723952	和	-0.178603
-3.341827	个人	-0.078656
-3.966943	运气	-0.108078
-4.262312	山上	-0.022637
-4.016222	明	-0.074903
-5.436625	明前	-0.125558
-5.077749	万里	-0.104575
-3.576207	无	-0.300735
-4.501530	云	-0.020021
-5.218547	转眼
-3.564986	就会	-0.053174
-3.175122	下	-0.174685
-3.583853	起	-0.108573
-4.700357	雾	-0.035186
-3.860106	就把	-0.137173
-5.436625	遮住
-3.768490	就看	-0.125066
-3.393363	不到	-0.143319
-3.718395	上次	-0.063071
-3.914355	就很	-0.094606
-4.753966	荣幸	-0.027369
-4.281106	幸运	-0.306118
-5.436625	前半	-0.125558
-4.135591	小时	-0.092601
-3.350753	看到	-0.169649
-2.975889	真	-0.455116
-5.335781	面目
-5.335781	起风
-3.446194	等	-0.111431
-3.780453	到我	-0.099441
-4.005909	呆	-0.202502
-4.389639	将近	-0.014525
-3.499948	二十	-0.280110
-4.048719	分钟	-0.124791
-3.243422	开始	-0.120754
-3.252318	两个	-0.133552
-2.456570	都	-0.303309
-3.435101	看过	-0.235056
-5.436625	不虚	-0.125558
-5.436625	此行
-4.026787	据说	-0.021731
-4.389639	报导
-3.845774	可惜	-0.217882
-3.190436	不能	-0.085738
-3.318184	因	-0.716977
-5.218547	死水
-4.281106	底下	-0.050144
-3.029472	只	-0.490082
-5.436625	泉眼
-3.432371	与	-0.048164
-4.886357	大江	-0.243777
-4.886357	连着
-3.089372	而且	-0.173226
-5.436625	水温
-3.957724	低	-0.213361
-4.971594	长年
-5.218547	四度
-3.898151	觉	-0.141581
-5.218547	存活
-4.135591	冷	-0.182322
-5.335781	水鱼
-3.350753	东西	-0.100438
-3.845774	再说	-0.122385
-3.948697	食物	-0.103284
-5.335781	链
-3.460470	对呀	-0.083058
-5.436625	水怪
-3.786560	是从	-0.086913
-4.570548	途径
-4.415027	能到	-0.033552
-4.609659	到达
-3.637126	出现	-0.311830
-3.739949	里边	-0.135114
-5.077749	进化
-3.890271	留	-0.203682
-3.432371	下来	-0.281553
-3.768490	就算	-0.087398
-3.587727	往	-0.112236
-3.768490	存在	-0.181558
-3.322388	我想	-0.149180
-3.692874	还得	-0.052915
-3.478246	需要	-0.106412
-4.971594	考证
-2.793069	一些	-0.169384
-3.995835	科	-0.217897
-4.609659	学家
-5.436625	认证
-3.591635	才能	-0.051813
-4.178895	这块	-0.117703
-4.227001	讨论	-0.084515
-5.436625	超大	-0.125558
-3.723684	能力	-0.157273
-4.178895	范围	-0.086813
-3.341827	我看	-0.235495
-3.195138	你看	-0.184724
-3.190436	搞	-0.237538
-3.838781	值得	-0.196802
-5.436625	外商	-0.125558
-3.805415	投资	-0.130516
-3.922689	乱	-0.205691
-4.365654	七八	-0.072372
-4.534669	糟	-0.017234
-5.335781	月球
-5.218547	蕴
-5.335781	蕴藏	-0.242626
-3.509592	着	-0.073038
-4.609659	无限	-0.025490
-5.335781	生机
-5.077749	商机
-3.985989	人们	-0.107899
-4.210366	富	-0.161017
-3.211189	起来	-0.216178
-4.652645	购买	-0.072382
-3.745509	力	-0.119747
-3.818456	相当	-0.248378
-4.971594	惊人	-0.163329
-3.890271	原因	-0.169606
-5.218547	贸	-0.145907
-4.534669	贸易	-0.022404
-3.976361	等等	-0.241088
-3.995835	一切	-0.069411
-3.745509	都很	-0.125391
-5.436625	优于
-4.342925	内地	-0.152095
-3.838781	东	-0.159931
-5.218547	北人
-5.436625	苦于
-5.077749	海口
-4.365654	唯一	-0.218675
-5.436625	港口	-0.125558
-4.096215	大连	-0.075630
-3.333080	以	-0.152242
-3.576207	是最	-0.134879
-4.753966	繁华
-3.219442	发展	-0.250977
-3.914355	既然	-0.082916
-5.436625	不靠	-0.125558
-3.811886	海	-0.104693
-4.071818	优势	-0.196740
-3.734460	靠	-0.050123
-4.122065	想在	-0.019566
-4.700357	发出
-4.149551	来啊	-0.388906
-4.071818	新疆	-0.087186
-4.753966	天然	-0.222719
-4.048719	气	-0.039191
-4.652645	石油
-4.178895	资源	-0.084421
-3.723684	尤其	-0.292186
-5.077749	日照
-4.083846	阳光	-0.078884
-3.400889	世界	-0.252372
-4.321326	排在	-0.162222
-5.077749	数一	-0.448937
-3.948697	数	-0.118795
-3.155988	二	-0.434019
-4.096215	位置	-0.056182
-4.415027	青藏	-0.361658
-3.650407	实在	-0.214148
-4.149551	太高	-0.280906
-3.185785	你说	-0.182225
-5.436625	高寒
-5.335781	极度	-0.058257
-5.218547	缺氧
-3.257744	不太	-0.306170
-4.652645	收集
-3.086909	方面	-0.267524
-3.023063	会	-0.144924
-3.931186	困难	-0.272278
-3.774430	喔	-0.131260
-3.687945	你对	-0.120361
-3.811886	西	-0.194635
-3.509592	感	-0.310937
-3.898151	兴趣	-0.093393
-3.729038	我对	-0.110823
-3.818456	印象	-0.206148
-4.210366	也只	-0.416954
-4.262312	仅仅	-0.162098
-5.436625	巍峨
-4.753966	高山	-0.048979
-4.342925	布	-0.227110
-5.436625	达拉	-0.125558
-4.534669	宫	-0.063052
-3.628493	而已	-0.490941
-4.971594	修炼
-3.263239	给我	-0.216441
-3.882531	职业	-0.071017
-3.939853	头	-0.062000
-3.364497	一次	-0.075965
-4.753966	奢侈
-3.095592	了吗	-0.569145
-5.218547	施舍
-2.984534	给	-0.183101
-4.227001	最终	-0.159302
-3.139044	想	-0.119514
-4.244298	达	-0.097030
-3.995835	目	-0.349393
-4.026787	作	-0.108407
-4.753966	为这	-0.025032
-4.178895	必要	-0.148025
-3.457577	性	-0.241535
-3.203089	那你	-0.119292
-3.985989	创造	-0.206901
-4.815136	财富
-3.751142	很难	-0.081317
-3.176629	从	-0.136904
-4.652645	持续
-3.838781	热	-0.204687
-5.335781	衷
-5.218547	信念
-3.287888	让	-0.194962
-5.335781	内陆
-4.534669	想像	-0.136141
-3.181183	完	-0.345480
-3.845774	谈谈	-0.143414
-4.178895	家乡	-0.141693
-3.049285	太	-0.154524
-3.805415	熟悉	-0.218653
-5.335781	苏杭
-3.948697	但我	-0.115536
-3.595579	上海	-0.133659
-4.652645	混合	-0.205254
-5.077749	精致
-3.976361	大一	-0.242152
-3.995835	南	-0.073508
-4.016222	甜	-0.301355
-3.818456	北	-0.209286
-4.227001	咸	-0.192963
-4.815136	食谱	-0.056525
-4.005909	上都	-0.105881
-4.321326	道理	-0.139444
-4.300751	也可	-0.066750
-4.096215	能说	-0.013114
-4.652645	地域	-0.112861
-3.512854	不同	-0.409250
-5.335781	纬度
-3.659492	处	-0.351411
-5.218547	所处	-0.323999
-4.227001	气候
-2.490049	他	-0.237219
-3.762630	性格	-0.083534
-4.652645	很受
-3.550461	环境	-0.204072
-3.532962	影响	-0.171390
-4.470741	平原	-0.098130
-3.022004	一般	-0.273772
-4.321326	人性	-0.196045
-4.501530	子都	-0.058140
-4.060115	直	-0.100005
-4.971594	爽快
-5.335781	直爽
-3.261400	就说	-0.110303
-4.227001	做事	-0.051929
-4.194345	江南	-0.077415
-5.077749	小桥	-0.217754
-4.815136	流水
-3.196717	人家	-0.132820
-5.436625	小溪	-0.125558
-5.335781	小船
-5.436625	缜密
-4.210366	体验	-0.148207
-3.557662	每个	-0.275458
-3.446194	新	-0.237587
-3.443394	最近	-0.133065
-3.734460	几年	-0.125546
-4.886357	粤菜	-0.066853
-3.144619	为	-0.360838
-3.985989	代表	-0.104216
-5.436625	湘菜
-5.335781	菜系
-4.971594	红遍	-0.081555
-4.342925	似乎	-0.054989
-4.815136	提起	-0.056594
-4.886357	HELLO	-0.189295
-3.697860	打算	-0.117037
-4.122065	说啥	-0.231509
-4.026787	主题	-0.159986
-3.591635	刚才	-0.113082
-3.948697	政府	-0.101933
-3.512854	应	-0.660416
-3.751142	更多	-0.589224
-3.792755	帮助	-0.257378
-4.026787	地区	-0.176593
-3.144619	觉得	-0.106461
-3.768490	近	-0.150600
-3.922689	十年	-0.110436
-4.281106	之内	-0.106141
-3.388417	经济	-0.234476
-3.966943	改革	-0.157551
-3.906178	的确	-0.233120
-3.890271	经历	-0.193955
-3.906178	一场	-0.095859
-4.570548	艰苦	-0.073886
-4.415027	奋斗	-0.123679
-3.364497	大家	-0.188581
-5.218547	有目共睹	-0.323999
-5.218547	均衡
-4.609659	结构
-4.609659	产业
-5.077749	怎能
-4.083846	样	-0.041174
-4.415027	看待	-0.027380
-3.985989	西方	-0.188792
-4.194345	东部	-0.107429
-4.096215	某些	-0.151864
-3.403427	有些	-0.211032
-5.335781	过热
-3.739949	曾经	-0.059492
-4.071818	投入	-0.194951
-4.609659	大量	-0.309454
-4.886357	人力	-0.056650
-5.335781	物力
-4.321326	资金	-0.144982
-3.583853	结果	-0.101975
-3.687945	把它	-0.051499
-5.335781	搞活	-0.242626
-5.436625	为先
-3.831900	发达	-0.217441
-4.570548	差异
-3.607631	使	-0.175344
-3.708006	得很	-0.111558
-4.060115	多人	-0.010271
-4.026787	人才	-0.107153
-3.914355	跑到	-0.069193
-3.305811	都不	-0.238473
-3.637126	愿意	-0.166162
-3.697860	第二	-0.207908
-3.985989	基础	-0.157038
-4.135591	导致	-0.088106
-3.922689	人也	-0.084191
-4.163975	不愿	-0.048721
-3.099368	那边	-0.207039
-4.365654	居	-0.243654
-5.335781	民和
-5.218547	携带
-3.615856	各	-0.487205
-3.914355	沟通	-0.170914
-4.163975	价值	-0.159209
-4.501530	观
-2.967412	那些	-0.158862
-4.108948	意识	-0.156014
-4.886357	到位
-4.135591	距离	-0.021797
-3.176629	第	-0.484496
-3.995835	一步	-0.121569
-3.305811	虽然	-0.238860
-5.077749	鼓动
-3.303782	跑	-0.238735
-3.316097	过去	-0.321119
-3.673486	人都	-0.169616
-3.957724	以为	-0.053182
-3.939853	金	-0.105944
-4.815136	金子
-4.415027	捡	-0.080505
-4.971594	一窝	-0.081556
-5.436625	蜂
-3.818456	看见	-0.063538
-5.218547	西都
-4.178895	失望	-0.366191
-3.227855	回来	-0.311266
-3.751142	关键	-0.287613
-4.194345	人文	-0.250857
-3.376292	更	-0.152343
-3.818456	重要	-0.253068
-4.700357	去把	-0.043171
-5.218547	而在
-3.211189	拿	-0.327532
-4.470741	例子	-0.089232
-3.697860	说吧	-0.266838
-4.016222	广东	-0.110763
-4.071818	深圳	-0.085264
-4.178895	广州	-0.177144
-5.077749	车票
-5.335781	市价
-3.914355	五十	-0.181850
-3.922689	十五	-0.147065
-3.985989	块	-0.164628
-3.739949	左右	-0.316790
-5.218547	高速	-0.145908
-5.335781	车程
-3.745509	半	-0.224670
-4.971594	钟头
-4.652645	长途	-0.153157
-3.792755	车	-0.026092
-3.615856	坐	-0.187690
-3.922689	四个	-0.116503
-4.415027	价钱
-3.212827	十	-0.359342
-4.501530	几块	-0.131202
-4.083846	根据	-0.183078
-4.163975	郭	-0.479237
-3.175122	老	-0.239999
-5.335781	师说
-3.664106	他在	-0.081215
-4.886357	某个	-0.043375
-4.570548	大致
-3.654925	记得	-0.178578
-3.718395	说他	-0.145764
-3.739949	城市	-0.148514
-3.799039	另外	-0.265750
-5.436625	小城
-5.335781	山路	-0.058257
-3.324506	四	-0.227584
-4.083846	五个	-0.086161
-4.886357	三块
-3.805415	块钱	-0.169356
-4.753966	上车
-4.570548	司机
-3.805415	就跟	-0.134809
-3.687945	说说	-0.152612
-4.227001	愿	-0.122707
-3.426963	每	-0.398388
-2.881384	多	-0.218558
-4.886357	公路
-4.178895	样子	-0.042319
-3.922689	就到	-0.099598
-3.416345	然	-0.489909
-5.436625	后郭	-0.125558
-3.355286	老师	-0.148085
-4.342925	说好	-0.098984
-5.436625	全车
-3.487415	都在	-0.115915
-4.971594	望着
-5.335781	露出
-4.652645	不满
-4.815136	表情
-4.886357	吵吵	-0.145908
-5.436625	嚷嚷
-4.281106	反对	-0.058415
-3.874926	省	-0.130819
-3.768490	三个	-0.065024
-4.470741	干脆
-4.753966	我帮	-0.049145
-3.067690	你们	-0.232750
-4.609659	把钱	-0.098134
-4.163975	都给	-0.023879
-3.206311	两	-0.298393
-4.122065	要把	-0.070944
-3.756848	弄	-0.151987
-3.632788	下去	-0.247254
-4.178895	他给	-0.037709
-5.218547	扔下
-4.753966	车去	-0.085838
-3.398366	当时	-0.138586
-3.591635	对于	-0.143825
-4.194345	普遍	-0.085373
-4.178895	大众	-0.155786
-4.501530	一小	-0.220663
-5.436625	撮
-2.957271	过	-0.311441
-4.534669	去也	-0.095670
-5.335781	难搞
-3.539877	并不	-0.365366
-3.429659	是个	-0.136997
-4.609659	主意	-0.047534
-4.753966	缴	-0.518777
-4.700357	税
-3.184246	有点	-0.128502
-3.611724	之	-0.126411
-5.436625	前因	-0.125558
-4.609659	试过
-4.365654	接近
-4.389639	三千	-0.098087
-4.342925	多个	-0.090238
-4.570548	亿
-5.335781	扔到
-3.852880	肉	-0.101635
-4.415027	包子	-0.174725
-5.335781	打狗
-4.244298	意见	-0.095255
-3.364497	钱	-0.209789
-2.960013	肯定	-0.238639
-3.395857	花	-0.294648
-3.405980	大概	-0.191640
-3.198301	不会	-0.140964
-3.398366	太多	-0.487958
-3.599560	之前	-0.096878
-3.780453	说过	-0.150469
-4.244298	会把
-3.931186	想着	-0.073714
-3.780453	怎样	-0.247572
-5.335781	变着	-0.058257
-3.529546	生	-0.162917
-3.339623	今天	-0.208861
-4.570548	放着
-4.060115	个月
-3.519454	好好	-0.190615
-5.436625	削减	-0.125558
-4.501530	热情	-0.090705
-3.416345	来说	-0.186833
-4.609659	理智	-0.151926
-5.335781	苛
-3.995835	本身	-0.118093
-4.470741	固	-0.078020
-4.886357	定性	-0.144834
-4.342925	公平	-0.111757
-3.576207	你那	-0.054598
-4.971594	局部	-0.162437
-3.825126	提高	-0.112817
-3.620028	都会	-0.131980
-3.818456	理解	-0.186408
-4.501530	行为
-4.415027	会对	-0.035636
-3.463383	肯	-0.838533
-4.570548	定会	-0.009148
-4.342925	人对	-0.040404
-2.991380	这样	-0.258313
-3.768490	感到	-0.129716
-3.628493	通过	-0.113219
-3.481281	其它	-0.325724
-3.890271	项目	-0.082781
-5.436625	融资	-0.125558
-3.882531	方式	-0.151984
-4.016222	不一	-0.345446
-4.441991	定要	-0.003115
-5.436625	交税
-4.122065	首	-0.184939
-4.971594	先要
-5.436625	大搞	-0.125558
-4.262312	设施	-0.065660
-4.415027	先把	-0.056297
-3.132174	才	-0.203325
-4.753966	条路
-3.403427	走	-0.213174
-3.898151	走到	-0.148613
-4.501530	大型	-0.296080
-4.342925	绿色	-0.151448
-4.135591	工程	-0.172374
-4.227001	园	-0.003693
-5.335781	林业
-3.768490	适合	-0.192346
-4.026787	业务	-0.094319
-3.852880	经过	-0.105653
-5.218547	大笔
-4.971594	弱点
-3.708006	转	-0.171749
-5.436625	移到
-3.637126	真正	-0.195441
-3.845774	火	-0.205810
-3.284003	不是很	-0.232429
-3.328771	了解	-0.243314
-3.091850	再	-0.122601
-3.011554	哈	-0.355463
-5.436625	萨克	-0.125558
-4.971594	斯坦
-5.077749	交界
-5.335781	开辟
-3.818456	市场	-0.239181
-4.570548	要先
-4.300751	哪去	-0.151678
-4.441991	成就	-0.104130
-5.335781	利与弊
-3.124072	之类	-0.921290
-3.957724	带来	-0.184018
-4.501530	系列	-0.144246
-3.472240	社会	-0.149781
-3.867453	包括	-0.003621
-3.805415	坏	-0.435789
-4.652645	下吧	-0.044074
-4.026787	你先	-0.094804
-3.611724	说我	-0.090135
-3.026256	的吧	-0.552248
-3.756848	是为	-0.461889
-3.898151	投	-0.099223
-4.971594	财力
-3.326633	放	-0.252223
-4.415027	多钱	-0.021835
-4.609659	引	-0.035180
-4.534669	人到	-0.022435
-3.799039	造成	-0.289761
-3.637126	当中	-0.160284
-4.005909	建立	-0.108613
-4.971594	位子
-3.591635	是说	-0.034832
-4.815136	西边	-0.043327
-4.342925	靠近	-0.042051
-4.815136	甘肃
-4.609659	陕西	-0.079954
-4.262312	河南	-0.131062
-3.811886	那一	-0.174040
-3.860106	部分	-0.111087
-3.169144	差	-0.674545
-3.529546	有一	-0.344527
-5.436625	稀缺
-4.886357	但没
-3.624239	有钱	-0.227136
-4.570548	视	-0.027261
-5.077749	苹
-4.441991	虽说
-4.210366	对待	-0.044321
-4.441991	事物	-0.070926
-4.163975	看法	-0.069392
-5.436625	缴纳	-0.125558
-4.026787	我问	-0.181346
-3.792755	是对	-0.076266
-3.811886	意思	-0.126519
-3.739949	假如	-0.148298
-3.620028	整个	-0.117679
-4.534669	带动	-0.050536
-5.335781	特区
-4.005909	建设	-0.158534
-3.966943	好的话	-0.156874
-4.886357	十足	-0.108717
-4.060115	把握	-0.149962
-4.971594	又把
-3.838781	拉	-0.093869
-3.966943	很不	-0.167261
-4.210366	那好	-0.014033
-3.995835	方法	-0.084313
-5.077749	流到
-4.026787	流	-0.136788
-3.557662	回	-0.133072
-3.966943	建	-0.152644
-5.335781	才算
-3.966943	合适	-0.263129
-3.624239	是啊	-0.105634
-4.652645	道路	-0.030803
-3.673486	方便	-0.331594
-4.753966	交易
-3.838781	太好	-0.210917
-3.768490	化	-0.216988
-4.570548	商场	-0.055353
-4.321326	绝	-0.342868
-3.713170	对不	-0.591260
-4.262312	人口	-0.044567
-4.886357	数目
-3.429659	少	-0.271403
-2.586756	是吧	-0.606695
-3.265086	就不	-0.199706
-4.016222	提供	-0.148374
-4.501530	能量	-0.102362
-4.342925	基地	-0.045418
-3.723684	相	-0.250400
-3.702904	于	-0.018990
-4.534669	解放	-0.081424
-4.753966	初期
-3.280154	用	-0.201642
-3.475233	手机	-0.129958
-4.652645	摄像	-0.188478
-4.244298	功能	-0.110136
-4.609659	寻思
-3.564986	换	-0.249051
-3.435101	电话	-0.116119
-4.194345	好哇	-0.289581
-4.163975	为我	-0.011939
-3.112195	学	-0.263655
-3.860106	新闻	-0.128890
-3.543377	专业	-0.171841
-4.365654	被我	-0.027399
-4.005909	抓	-0.040629
-4.194345	拿着	-0.032081
-3.966943	你再	-0.035430
-4.342925	时尚	-0.234181
-2.850382	挺	-0.311970
-4.441991	例如	-0.035145
-3.697860	和我	-0.178390
-3.203089	女	-0.499299
-2.991380	朋友	-0.243061
-4.244298	我俩
-3.607631	不在	-0.245564
-5.335781	省事
-4.135591	短信
-5.077749	大忙
-3.702904	要不	-0.086197
-3.702904	电	-0.329462
-4.501530	话费	-0.018062
-3.831900	贵	-0.246557
-3.234705	你呢	-0.611197
-3.768490	是哪	-0.253851
-3.683072	具体	-0.201798
-2.741335	没	-0.299990
-3.320281	总	-0.346557
-3.966943	接着	-0.119961
-4.300751	所谓	-0.108288
-4.342925	没劲	-0.157424
-3.522792	上学	-0.348392
-3.101903	我也	-0.317368
-4.971594	正面
-3.004386	反正	-0.213679
-3.457577	联系	-0.300827
-4.815136	拘束	-0.217040
-4.083846	崇拜	-0.245552
-4.026787	消费	-0.080353
-4.083846	你得	-0.031738
-4.135591	怎	-0.185746
-4.365654	动感	-0.211064
-4.971594	地带
-3.512854	发	-0.184183
-3.469267	那就	-0.131464
-4.048719	刺激	-0.144517
-4.609659	欲
-3.914355	知	-0.334993
-4.534669	回事	-0.029757
-3.825126	便宜	-0.251827
-4.048719	哪儿	-0.210397
-3.550461	去呀	-0.401281
-3.572434	是吗	-0.226891
-4.135591	那人
-3.867453	见面	-0.222357
-3.550461	声音	-0.132062
-3.390882	谈	-0.314292
-4.244298	上吧	-0.271520
-3.976361	声	-0.078647
-3.756848	不大	-0.203481
-4.652645	不只	-0.127615
-3.611724	我这	-0.103819
-4.342925	他人	-0.011070
-3.882531	也都	-0.190162
-3.475233	哎呀	-0.073592
-3.678252	习惯	-0.089455
-3.756848	对他	-0.189037
-4.026787	深	-0.139806
-3.403427	你要	-0.113215
-4.149551	早就	-0.025586
-3.948697	号	-0.100420
-4.122065	可不	-0.313119
-3.874926	麻烦	-0.234219
-3.546904	咋	-0.206147
-4.016222	这人	-0.056829
-4.178895	加油	-0.163554
-4.048719	站	-0.074832
-3.734460	清楚	-0.147597
-2.824792	打	-0.345847
-3.683072	像你	-0.162113
-4.194345	说的话	-0.078058
-4.135591	危险	-0.168135
-4.262312	换个	-0.186260
-3.756848	看你	-0.108368
-3.668771	长春	-0.167224
-2.695611	对吧	-0.584092
-3.976361	巧	-0.381994
-4.016222	陪	-0.101070
-3.305811	看看	-0.189855
-3.739949	去吧	-0.495241
-3.301764	哇	-0.204735
-3.550461	基本	-0.280226
-4.501530	用到
-3.411132	电脑	-0.180646
-3.222788	买	-0.289228
-3.985989	利用	-0.113898
-4.244298	率	-0.041688
-3.326633	游戏	-0.226605
-3.309896	我还	-0.234109
-5.335781	我愿
-3.280154	踢	-0.374243
-3.301764	足球	-0.210612
-4.321326	依赖	-0.012121
-3.460470	一天	-0.104804
-4.227001	呆着	-0.082734
-4.281106	真不	-0.162814
-3.285941	干	-0.313212
-4.389639	一帮	-0.120509
-4.210366	成天	-0.037132
-3.282074	一起	-0.193769
-4.321326	可好	-0.464372
-3.481281	你也	-0.194097
-3.838781	不对	-0.088960
-4.534669	你该	-0.029373
-3.650407	上课	-0.200255
-3.163248	学习	-0.256187
-4.262312	但不	-0.211601
-3.432371	根本	-0.397272
-5.077749	直观
-3.328771	当	-0.149545
-4.281106	我先	-0.051250
-4.441991	我拿	-0.099626
-4.470741	剪	-0.049011
-3.792755	片	-0.157749
-3.355286	我说	-0.117553
-4.700357	近期	-0.035171
-3.285941	一直	-0.272129
-3.713170	事情	-0.067786
-4.108948	片子	-0.006625
-4.262312	D	-0.087212
-4.244298	V	-0.091934
-4.501530	手里	-0.027395
-5.436625	赖着
-4.753966	几号	-0.066352
-4.389639	想玩	-0.202155
-2.961851	玩	-0.385559
-3.995835	不玩	-0.219224
-3.595579	受	-0.263858
-5.218547	长进
-3.295763	天天	-0.163417
-3.734460	寝室	-0.091381
-4.194345	教室	-0.064573
-3.068866	啥	-0.306637
-3.615856	有时	-0.076448
-5.077749	闹心
-3.985989	人多	-0.170460
-5.335781	咋地
-4.342925	那倒	-0.332675
-2.741335	唉	-0.211917
-4.534669	新出	-0.528929
-4.470741	一款	-0.047190
-4.365654	模仿	-0.029569
-4.071818	实	-0.146193
-5.077749	实况
-3.845774	你玩	-0.209418
-4.108948	它那	-0.063598
-4.262312	完美	-0.232071
-3.774430	哎	-0.075891
-3.890271	手	-0.067397
-5.077749	机上
-4.281106	三天	-0.067126
-4.244298	玩意	-0.060861
-4.210366	买个	-0.017626
-3.931186	电子	-0.384924
-4.815136	商务	-0.039811
-3.440612	关系	-0.221225
-5.436625	见地
-4.886357	也用
-3.526156	对你	-0.184941
-3.499948	没事	-0.271030
-3.355286	带	-0.199968
-4.570548	照相
-4.071818	好处	-0.127129
-3.554047	选择	-0.153904
-4.652645	数码	-0.192280
-5.077749	相机
-3.195138	生活	-0.262562
-4.048719	举	-0.109366
-3.385964	也挺	-0.216540
-3.355286	同学	-0.216537
-3.526156	之间	-0.213616
-5.335781	如上
-3.061854	大学	-0.336468
-3.632788	离	-0.187511
-3.939853	都比	-0.248613
-4.971594	较远
-3.664106	还能	-0.026136
-3.976361	互相	-0.108408
-4.971594	增进	-0.182003
-3.664106	感情	-0.132904
-3.931186	法	-0.125577
-4.016222	法律	-0.086929
-4.135591	是否	-0.013259
-4.441991	制定	-0.120442
-4.570548	相应	-0.926059
-4.700357	约束	-0.056154
-4.753966	用手
-5.335781	机中
-4.815136	规范	-0.108717
-4.071818	这点	-0.108817
-4.060115	我从	-0.043507
-3.591635	报	-0.237051
-5.077749	纸上
-5.218547	承包	-0.145856
-4.122065	商	-0.063660
-4.753966	不便
-5.335781	预报
-5.077749	学中
-3.995835	使用	-0.172440
-4.501530	较多	-0.060457
-3.095592	这种	-0.184478
-4.244298	现象	-0.047133
-4.300751	会给	-0.058478
-4.470741	负面	-0.464340
-5.218547	崇
-4.083846	你很	-0.066845
-3.424284	学生	-0.142301
-4.815136	中不	-0.083181
-4.281106	负担	-0.118734
-4.300751	也对	-0.052374
-4.048719	移动	-0.237585
-4.262312	收入	-0.019479
-4.060115	短	-0.185211
-5.335781	信中
-4.163975	超	-0.087583
-4.609659	远远
-4.005909	超过	-0.094170
-4.037614	公共	-0.412110
-3.939853	安全	-0.158947
-3.914355	突然	-0.120358
-4.281106	间
-5.436625	铃音
-3.976361	陈	-0.257623
-5.436625	凯歌	-0.125558
-4.096215	那部	-0.492543
-3.481281	电影	-0.154923
-4.652645	感想
-3.957724	如何	-0.217606
-3.446194	里	-0.085983
-3.346267	演	-0.478646
-3.234705	那样	-0.204896
-3.995835	会在	-0.046040
-3.739949	现实	-0.275911
-3.774430	发生	-0.318925
-3.867453	人在	-0.116484
-4.135591	注重	-0.033605
-4.501530	道德	-0.033590
-3.852880	对啊	-0.096866
-5.335781	静电
-4.163975	空	-0.048162
-5.436625	气中
-4.227001	含	-0.177858
-5.436625	汽油
-5.436625	液化
-4.886357	成分
-4.244298	引起	-0.058130
-4.886357	爆炸
-3.774430	人就	-0.202872
-4.815136	不顾
-4.534669	私	-0.110506
-5.436625	自用	-0.125558
-4.135591	制	-0.102100
-4.342925	相关	-0.203732
-3.831900	行啊	-0.167418
-5.436625	哪款	-0.125558
-4.886357	中意	-0.109280
-4.415027	商量	-0.056861
-3.369177	你在	-0.217771
-3.723684	哪些	-0.114150
-4.149551	产品	-0.084369
-3.443394	电视	-0.219239
-5.077749	掌上	-0.104585
-4.570548	这类	-0.137925
-3.378690	跟你	-0.210968
-4.570548	密切	-0.042282
-4.609659	那大	-0.052598
-4.342925	但你
-3.774430	是好	-0.168360
-4.470741	大吗	-0.556398
-5.436625	我劝
-3.355286	你还	-0.230261
-3.641508	时	-0.055989
-5.436625	找茬
-3.291807	考	-0.262718
-5.218547	眼力
-3.328771	不要	-0.101026
-4.753966	能否
-3.906178	打过	-0.075906
-4.470741	通宵	-0.125662
-3.914355	有啊	-0.102456
-3.405980	身体	-0.229785
-4.470741	使你	-0.071251
-4.096215	变得	-0.040582
-4.342925	复杂	-0.161474
-3.985989	我玩	-0.178218
-3.654925	接触	-0.216485
-5.077749	驾照	-0.104140
-3.503139	英语	-0.172474
-3.697860	并	-0.319303
-4.609659	称为
-4.300751	手段	-0.049801
-3.774430	玩过	-0.153316
-4.096215	时光	-0.206152
-3.818456	机	-0.032238
-3.995835	速度	-0.067875
-5.335781	红光	-0.058257
-4.163975	牌	-0.009879
-3.948697	处理	-0.145573
-3.723684	不管	-0.201778
-3.914355	P	-0.341024
-4.135591	S	-0.054345
-3.799039	更好	-0.515019
-5.218547	图形
-4.262312	都跟	-0.029559
-3.768490	不上	-0.075826
-4.227001	号码	-0.011687
-5.436625	假货
-4.178895	偏	-0.080908
-5.218547	市面
-5.436625	货比	-0.125558
-4.321326	正规	-0.285357
-4.060115	店	-0.107962
-4.609659	宁	-0.012161
-4.753966	可说	-0.065797
-4.971594	花一	-0.018564
-4.281106	点钱	-0.023511
-5.218547	水货
-5.436625	假冒	-0.125558
-5.436625	伪劣
-4.815136	可取
-3.756848	支持	-0.194518
-4.135591	单	-0.081255
-4.149551	版	-0.133556
-4.096215	软件	-0.157869
-4.534669	坚	-0.209075
-5.335781	决不
-4.534669	通话	-0.002311
-3.692874	只能	-0.063835
-4.753966	辅助
-3.645935	作为	-0.225539
-5.436625	像素
-3.211189	三	-0.278380
-4.122065	十万	-0.093707
-4.178895	没法	-0.084995
-3.478246	是你	-0.092622
-5.436625	编导
-4.365654	角度	-0.119564
-3.867453	看啊	-0.298849
-3.799039	不够	-0.133423
-3.659492	条件	-0.080073
-4.005909	人呢	-0.293536
-4.886357	口音
-4.060115	农村	-0.132438
-4.281106	老乡	-0.067416
-3.874926	唠	-0.205950
-3.234705	点	-0.155304
-4.815136	三号	-0.022437
-4.342925	七月	-0.183292
-4.971594	四号
-3.668771	提	-0.173056
-4.342925	场面	-0.013484
-3.792755	意	-0.329199
-5.077749	大利	-0.012670
-3.906178	法国	-0.102756
-3.799039	英	-0.373186
-4.886357	格兰
-4.342925	捷克
-3.906178	葡萄	-0.406176
-4.365654	牙	-0.021114
-4.262312	西班	-1.227089
-4.163975	取	-0.114557
-5.077749	钥匙
-4.026787	来呀	-0.459219
-4.149551	几点	-0.159008
-5.077749	结帐
-4.300751	早点	-0.078246
-3.400889	家	-0.132010
-5.335781	主队	-0.058257
-5.436625	客队
-4.365654	那要	-0.086111
-5.218547	乌龙	-0.145891
-3.475233	球	-0.081404
-3.454703	估计	-0.081223
-3.713170	李	-0.345684
-4.244298	百万	-0.033085
-3.762630	不去	-0.109755
-3.985989	不着	-0.149162
-4.470741	鬼	-0.157383
-4.210366	他家	-0.009632
-3.860106	到哪	-0.275564
-3.838781	明星	-0.112254
-3.620028	我只	-0.342562
-3.443394	认识	-0.329294
-4.342925	星	-0.168969
-4.163975	维	-0.306170
-5.436625	埃里
-4.753966	谁呢	-0.206198
-4.652645	小子
-4.244298	啥样	-0.319892
-3.995835	混	-0.252556
-3.906178	踢球	-0.173444
-4.534669	九个	-0.139981
-4.470741	脑袋	-0.022438
-4.609659	犯规	-0.032141
-3.890271	有名	-0.314269
-4.037614	后卫	-0.109678
-3.163248	叫	-0.120567
-4.108948	内	-0.080799
-5.436625	斯塔
-4.470741	马尔	-0.442771
-5.335781	迪尼
-3.768490	谁呀	-0.327822
-2.644825	哦	-0.204009
-4.886357	八号
-4.227001	我以	-0.258103
-4.194345	为他	-0.010953
-4.365654	一号
-5.218547	猪头
-3.451848	八	-0.241444
-5.436625	特德
-4.194345	上我	-0.026437
-4.753966	杨晨
-4.135591	他呢	-0.225091
-3.063015	以前	-0.252472
-4.178895	曼联	-0.040625
-4.886357	射手	-0.038865
-4.244298	皇马
-4.210366	舍	-0.306794
-5.436625	甫	-0.125558
-5.218547	琴科
-3.723684	哟	-0.178970
-5.077749	街边
-4.281106	多不	-0.166302
-4.083846	充	-0.171864
-4.815136	有力	-0.197936
-4.122065	体力	-0.102022
-4.609659	哈哈	-0.199373
-3.898151	咋样	-0.381079
-3.587727	家里	-0.072788
-3.316097	几	-0.263452
-3.976361	牛	-0.148643
-5.335781	三头	-0.242626
-4.441991	石头	-0.158405
-4.071818	起码
-5.335781	牛头
-4.321326	德	-0.054719
-3.957724	名	-0.062982
-5.335781	亩
-3.576207	地	-0.176243
-4.135591	贝克	-1.134209
-5.436625	汉姆	-0.002675
-3.995835	儿子	-0.050551
-5.436625	卢克	-0.125558
-5.436625	小兔	-0.125558
-5.436625	崽子	-0.125558
-3.914355	尽	-0.121648
-3.948697	浪费	-0.235155
-5.335781	周薪
-3.185785	多少	-0.346850
-3.745509	够	-0.143643
-3.751142	包	-0.125969
-3.882531	日	-0.283169
-4.609659	宿	-0.108315
-4.037614	不住	-0.088470
-5.436625	沙湾
-5.335781	挺着
-3.780453	网上	-0.119303
-4.321326	看球	-0.100085
-4.135591	行吗	-0.322493
-3.659492	累	-0.367144
-4.194345	困	-0.279218
-5.218547	迷迷	-0.323999
-5.436625	糊糊
-4.815136	记着
-4.609659	几分	-0.021151
-3.591635	问	-0.211850
-4.227001	这事
-3.966943	想吃	-0.234307
-4.815136	三楼
-4.815136	露天	-0.459897
-4.570548	楼上
-5.335781	露台
-4.321326	烧烤
-3.723684	现	-0.185476
-3.236434	找	-0.336571
-4.415027	没在	-0.062993
-5.077749	四楼
-4.210366	姐姐	-0.058276
-4.501530	来个
-5.335781	高空	-0.242626
-3.939853	追	-0.095319
-4.415027	物	-0.027400
-4.178895	等着	-0.085849
-4.415027	西瓜	-0.123673
-4.570548	报仇
-3.301764	谁	-0.133332
-4.815136	保安
-4.365654	摔	-0.070215
-4.048719	没听	-0.329549
-3.637126	继续	-0.176001
-3.734460	也行	-0.279452
-5.335781	滚蛋
-4.415027	范	-0.304674
-4.570548	尼
-5.077749	斯特	-0.104585
-5.218547	鲁伊
-4.501530	那老	-0.067078
-3.568694	长得	-0.261224
-5.436625	老高
-3.890271	一米	-0.455958
-3.624239	七	-0.165333
-5.335781	好猛
-4.415027	狠	-0.132721
-4.096215	道	-0.066319
-3.718395	忘	-0.470773
-4.534669	九号	-0.024284
-5.218547	新来	-0.323999
-4.753966	七号
-4.609659	滚
-5.436625	黄毛
-3.852880	认	-0.235863
-4.652645	巴特	-0.344960
-3.906178	费	-0.111755
-4.753966	迪	-0.042038
-5.335781	南德
-4.300751	次	-0.055490
-4.753966	妈呀
-4.365654	累死	-0.426408
-4.365654	拷	-0.139251
-3.882531	吉林	-0.141697
-5.335781	九台	-0.058257
-5.218547	太宗
-4.501530	县	-0.046085
-4.971594	能行
-5.335781	小贝
-4.470741	欧锦赛
-4.026787	你把	-0.019240
-3.874926	赛	-0.080820
-4.037614	表	-0.175750
-3.948697	背	-0.022887
-3.587727	记	-0.275281
-3.435101	准备	-0.156137
-4.971594	先得
-4.005909	定	-0.150891
-3.481281	死	-0.414568
-4.321326	不定
-3.890271	尽量	-0.100707
-3.620028	努力	-0.207507
-3.557662	晚	-0.316904
-4.227001	上你	-0.009622
-5.218547	付费
-3.659492	明天	-0.121900
-4.652645	才不	-0.044429
-3.948697	结	-0.176435
-3.825126	我打	-0.268411
-3.413731	晚上	-0.115660
-4.281106	夜	-0.074140
-4.886357	夜宵
-3.957724	按	-0.089669
-4.016222	标准	-0.188268
-3.301764	进	-0.300449
-3.882531	也算	-0.223422
-4.700357	路费
-4.652645	咋整	-0.306341
-4.971594	宗	-0.150741
-3.985989	训练	-0.093187
-4.281106	去就	-0.115202
-5.436625	轻轨
-4.210366	四五	-0.073395
-4.060115	妈	-0.196566
-4.753966	埃	-0.095369
-3.751142	旁边	-0.130347
-3.890271	贼	-0.083249
-5.436625	膀
-5.077749	跑道
-4.886357	晃	-0.185445
-4.163975	服	-0.116963
-3.557662	他妈	-0.194527
-4.501530	性感	-0.079224
-4.108948	猛	-0.280341
-3.734460	见	-0.130998
-4.037614	碰	-0.112448
-3.451848	倒	-0.306540
-4.971594	遇着	-0.081469
-4.441991	中场	-0.015748
-3.745509	那也	-0.201139
-4.609659	料
-5.218547	基尼
-4.700357	后备	-0.146516
-3.845774	B	-0.175826
-4.886357	转会
-4.470741	要他	-0.011686
-4.281106	不给	-0.048674
-4.886357	卖到
-5.218547	派到	-0.145778
-5.218547	紫金
-5.335781	嗯哪
-4.470741	哈尔	-0.791786
-5.335781	滨
-4.501530	跑得	-0.023851
-3.572434	快	-0.143126
-4.700357	哪像
-4.415027	好几	-0.080170
-3.898151	该	-0.075024
-5.335781	屁事	-0.242626
-4.210366	蛋	-0.230622
-4.609659	公牛	-0.198969
-5.077749	再用
-4.037614	招	-0.080911
-4.108948	熟	-0.181511
-3.985989	他俩	-0.077936
-4.501530	哥们	-0.125562
-5.436625	普尔
-5.335781	维德
-3.583853	是他	-0.107152
-4.163975	家在	-0.099440
-5.335781	后院
-4.083846	寝	-0.150741
-3.350753	一块	-0.167295
-3.966943	公	-0.271363
-4.135591	鸡蛋	-0.116712
-4.971594	利亚
-3.291807	高	-0.285560
-3.546904	唉呀	-0.060594
-4.135591	放心	-0.156272
-3.064179	小	-0.226605
-5.218547	沙发
-5.218547	饿着
-5.077749	渴
-5.335781	得劲
-4.501530	拎	-0.025445
-4.534669	扎	-0.061107
-4.342925	啤酒	-0.030377
-3.587727	上去	-0.172904
-3.780453	解决	-0.227665
-3.874926	一边	-0.041603
-3.460470	喝	-0.224734
-4.652645	边看	-0.042245
-3.780453	看着	-0.123531
-4.389639	比分	-0.049055
-3.739949	早上	-0.134583
-4.534669	再问	-0.067068
-4.886357	么么
-5.077749	七九
-3.580013	零	-0.242487
-4.570548	五五	-0.070267
-3.780453	么	-0.260970
-4.753966	八八	-0.074545
-5.218547	三七
-4.342925	你问	-0.010442
-3.898151	买点	-0.117677
-4.753966	楼下
-4.609659	改成	-0.035155
-4.971594	饭馆	-0.081445
-4.178895	楼	-0.079999
-4.037614	上啊	-0.282149
-4.501530	锅	-0.077900
-4.441991	碗
-3.683072	整	-0.149030
-4.163975	给它
-5.335781	着火	-0.242626
-5.436625	放进	-0.125558
-4.534669	啃	-0.090001
-5.077749	整点
-4.071818	一顿	-0.111128
-4.609659	砸	-0.054737
-4.886357	脑瓜
-3.768490	办	-0.138790
-5.335781	仇
-3.818456	没人	-0.105833
-3.995835	也得	-0.043415
-3.499948	我没	-0.193616
-3.708006	一会	-0.155837
-4.048719	目标	-0.128388
-3.697860	改	-0.199501
-4.037614	前锋	-0.082685
-4.534669	有谁
-4.060115	来着	-0.154443
-5.218547	范尼
-4.753966	最长	-0.264182
-5.077749	投球
-4.210366	你爱	-0.048430
-4.122065	一遍	-0.122275
-4.753966	门将
-4.048719	巴	-0.318818
-4.971594	特斯
-4.342925	那行	-0.099037
-5.436625	纳德	-0.125558
-4.321326	这我	-0.054116
-5.335781	基恩
-5.335781	鸡眼	-0.058257
-5.077749	煅	-0.104562
-3.966943	那还	-0.160043
-4.389639	完事	-0.136038
-4.122065	听我	-0.146208
-3.818456	聊聊	-0.114986
-3.931186	风景	-0.079165
-4.570548	优美	-0.100669
-4.570548	绿化
-4.570548	面积
-4.037614	散步	-0.186543
-3.687945	开心	-0.325957
-3.931186	到处	-0.255525
-4.971594	施工
-4.753966	完整	-0.517889
-3.496781	似	-1.170110
-4.321326	处在	-0.063823
-3.957724	阶段	-0.219743
-4.244298	非要
-3.874926	享受	-0.148227
-4.609659	住校	-0.063783
-3.708006	组织	-0.196847
-3.243422	学校	-0.169826
-4.227001	以来	-0.080482
-4.163975	自习	-0.076381
-4.244298	室	-0.068328
-3.587727	第一	-0.204168
-4.700357	效率
-4.083846	不高	-0.138022
-3.576207	进行	-0.052965
-3.469267	希望	-0.125527
-4.534669	气息	-0.039503
-4.163975	既	-0.089292
-5.436625	纯朴
-3.786560	给人	-0.408586
-4.342925	更大	-0.295840
-3.882531	自由	-0.123613
-4.210366	度	-0.050686
-4.244298	空间	-0.102509
-4.886357	人事	-0.066848
-4.048719	开放	-0.144910
-4.609659	十点	-0.046045
-3.576207	必须	-0.138200
-3.957724	管理	-0.109194
-5.218547	定时
-5.436625	定点
-3.673486	早	-0.129200
-4.163975	限制	-0.165835
-5.436625	强化
-4.300751	作业	-0.013988
-4.441991	自主	-0.087370
-4.262312	想学	-0.072146
-3.607631	不用	-0.105647
-5.077749	强制	-0.081537
-4.194345	监督	-0.095186
-4.005909	会去	-0.095889
-4.149551	是给
-3.421622	毕竟	-0.136514
-3.734460	培养	-0.185301
-3.564986	原来	-0.166174
-5.436625	英式	-0.125558
-3.561309	教育	-0.106632
-5.436625	啃着	-0.125558
-5.436625	书包
-5.218547	逼着
-3.708006	你去	-0.103350
-3.475233	练	-0.187370
-3.838781	正常	-0.149906
-5.218547	歪曲
-4.227001	心态	-0.075773
-3.867453	这也	-0.216487
-3.762630	健康	-0.171190
-3.659492	表现	-0.204431
-4.178895	过我	-0.009288
-3.339623	确实	-0.238639
-3.985989	无论	-0.153269
-3.637126	都要	-0.049941
-3.860106	适应	-0.150156
-3.852880	明白	-0.234350
-4.281106	挺难	-0.516991
-3.082024	不过	-0.163197
-3.678252	就要	-0.018724
-4.753966	去走	-0.115938
-3.599560	不像	-0.200580
-3.207931	别人	-0.115356
-3.898151	带着	-0.124267
-4.178895	充实	-0.272078
-4.886357	无忧	-0.225886
-5.436625	无虑
-5.077749	嘻嘻
-5.335781	后心
-4.415027	里也	-0.035906
-4.415027	空虚	-0.034887
-4.389639	人际	-0.845902
-4.108948	总体	-0.295301
-4.609659	定在
-4.470741	名牌	-0.136127
-4.262312	差距	-0.149760
-3.443394	喽	-0.488029
-3.825126	思想	-0.079091
-4.178895	层次	-0.113817
-3.948697	同时	-0.111265
-5.218547	不以
-4.501530	好坏
-4.886357	判断
-4.083846	很强	-0.325166
-4.016222	听见	-0.222818
-4.037614	想你	-0.067148
-4.652645	新建	-0.093504
-3.466315	告诉	-0.438049
-4.135591	想过	-0.077169
-3.768490	刚刚	-0.090598
-4.096215	希	-0.189579
-5.335781	望你
-5.077749	早日	-0.081463
-4.135591	能把	-0.038947
-4.971594	条例
-4.415027	条
-4.071818	制度	-0.072542
-4.300751	摆	-0.064519
-3.702904	要求	-0.103307
-4.149551	严	-0.106291
-4.210366	说得	-0.043638
-3.860106	理想	-0.261198
-4.365654	就学	-0.050379
-4.365654	集体
-3.683072	哪里	-0.222531
-2.887549	以后	-0.274351
-5.335781	打理
-4.108948	你上	-0.094529
-3.751142	也好	-0.113319
-4.815136	后到	-0.001897
-3.799039	社	-0.270033
-4.570548	会上	-0.015121
-3.408548	参加	-0.283509
-3.061854	工作	-0.317731
-3.641508	遇到	-0.235940
-4.300751	人和	-0.093559
-3.995835	满意	-0.263603
-4.135591	人要	-0.064314
-5.218547	知足
-4.048719	学会	-0.112244
-4.108948	满足	-0.175313
-4.570548	客观	-0.178228
-3.512854	心情	-0.229281
-4.441991	生就	-0.152865
-3.966943	四年	-0.043763
-4.570548	中就	-0.063541
-4.700357	盲目	-0.137601
-3.568694	高中	-0.207781
-3.976361	考上	-0.228095
-4.108948	新鲜	-0.216325
-3.381101	后来	-0.173297
-4.210366	校园	-0.150728
-4.441991	说起	-0.059511
-4.178895	来到	-0.083097
-3.792755	什	-0.563633
-5.335781	么事
-3.985989	路	-0.033069
-4.886357	下手
-4.178895	确	-0.133768
-3.369177	我在	-0.179459
-4.262312	弱	-0.124395
-4.178895	办法	-0.022896
-4.016222	我刚	-0.157631
-5.077749	才说	-0.057063
-3.995835	乐	-0.099446
-5.436625	砚
-4.244298	非得	-0.090912
-3.645935	注意	-0.219623
-4.470741	表面	-0.022418
-4.135591	之中	-0.089918
-3.799039	也能	-0.025832
-3.664106	找到	-0.181114
-4.534669	从前	-0.152987
-4.886357	欢乐	-0.243778
-4.815136	童年	-0.049138
-3.852880	你到	-0.085599
-3.985989	面对	-0.107140
-4.365654	人会
-3.762630	也会	-0.040329
-3.957724	放弃	-0.157472
-4.300751	一说	-0.041211
-4.753966	较高	-0.042746
-4.281106	清华	-0.153961
-4.244298	北大	-0.065031
-5.218547	尖子
-4.971594	进到
-4.365654	能给	-0.015086
-3.751142	到你	-0.124678
-4.135591	气氛	-0.143568
-4.262312	对人	-0.166890
-3.424284	基	-0.691481
-4.700357	本上
-3.966943	反而	-0.115607
-3.282074	我不	-0.302702
-3.650407	到那	-0.182807
-4.108948	就业	-0.086370
-4.149551	不成	-0.242918
-4.652645	做人
-4.365654	为人	-0.086552
-4.652645	处事	-0.088258
-3.595579	容易	-0.076268
-3.487415	前	-0.344198
-5.436625	八所
-3.595579	除	-0.938031
-3.362176	刚	-0.275170
-3.305811	几个	-0.174461
-4.037614	之外	-0.294015
-4.652645	制止	-0.032104
-3.723684	稍微	-0.082753
-3.195138	不错	-0.441968
-3.860106	好啦	-0.338180
-3.774430	不多	-0.084862
-3.529546	你想	-0.110244
-3.768490	国外	-0.134626
-3.580013	慢慢	-0.231749
-3.311953	被	-0.144520
-4.652645	拿钱	-0.113452
-4.815136	就可
-4.005909	以上	-0.164991
-3.599560	请	-0.217739
-3.248738	经常	-0.218122
-3.181183	出去	-0.280235
-3.268804	旅游	-0.280806
-4.700357	弊端	-0.113452
-5.077749	望去
-4.016222	出国	-0.217486
-4.244298	花费	-0.091315
-4.005909	区	-0.118065
-3.739949	自然	-0.238024
-4.415027	和谁	-0.154204
-3.599560	这次	-0.109635
-4.262312	做些	-0.652088
-3.611724	外国	-0.154735
-4.700357	单独	-0.083631
-4.501530	较好	-0.054058
-5.335781	组团
-4.971594	组队
-4.016222	好呢	-0.347206
-4.071818	过程	-0.159551
-3.867453	碰到	-0.067690
-4.886357	突发	-0.130989
-4.300751	事件	-0.007439
-4.570548	团队	-0.144843
-4.083846	旅	-0.314991
-5.077749	游过
-4.470741	走过	-0.135880
-4.534669	详细	-0.102231
-4.652645	描述	-0.056030
-3.995835	其中	-0.298573
-4.227001	澳	-0.755316
-3.697860	欧洲	-0.236344
-4.886357	你更
-4.609659	冬季	-0.031890
-4.815136	夏季
-4.365654	秋天	-0.041749
-5.335781	凉爽
-4.609659	季节
-3.976361	国内	-0.177212
-4.753966	较少	-0.031018
-5.218547	南和
-3.475233	北京	-0.137613
-4.652645	常去
-4.570548	故宫	-0.152888
-4.122065	天安	-1.147171
-4.163975	门	-0.001192
-4.415027	好说	-0.215164
-4.163975	云南	-0.079963
-5.335781	边界
-4.886357	边境
-5.335781	民俗
-3.687945	重	-0.226506
-4.342925	土	-0.015128
-5.218547	居民
-3.659492	活动	-0.151757
-4.501530	宾馆
-3.154550	出	-0.291861
-3.519454	去玩	-0.289434
-3.874926	住在	-0.178092
-4.815136	宾
-5.436625	馆里
-3.774430	周围	-0.278392
-4.534669	亲密	-0.366208
-5.436625	典雅
-4.163975	户外	-0.405663
-4.415027	身心	-0.072505
-4.122065	空气	-0.122804
-4.815136	主导	-0.091629
-4.227001	因素
-4.652645	景	-0.051899
-5.077749	景致
-3.591635	日本	-0.138109
-5.218547	多月
-4.262312	参	-0.401547
-4.570548	参观
-4.005909	风	-0.133636
-4.971594	景区
-5.436625	生鱼
-3.845774	那次	-0.059124
-4.815136	东京
-5.436625	紧凑
-4.971594	夜景
-3.805415	本	-0.136384
-5.218547	间接
-3.411132	算	-0.303246
-4.210366	景点	-0.036259
-3.838781	从来	-0.316551
-3.931186	没去	-0.127453
-3.792755	机会	-0.073164
-4.178895	是也	-0.085335
-4.135591	有机	-0.326811
-3.499948	的好	-0.195602
-5.335781	去处
-3.890271	公园	-0.115746
-4.700357	老虎	-0.136888
-5.436625	东湖	-0.125558
-3.337431	也没	-0.250521
-3.637126	忙	-0.182026
-4.815136	以我	-0.008509
-4.048719	金钱	-0.103199
-5.218547	协商
-5.436625	采购
-4.609659	些小
-4.700357	件
-3.867453	有的人	-0.088390
-5.436625	大件
-4.262312	生产	-0.165318
-5.218547	电器	-0.145899
-4.441991	工具	-0.123457
-4.815136	运输	-0.108671
-3.526156	拍	-0.375714
-3.751142	照	-0.212044
-3.825126	实际	-0.245147
-4.534669	收藏	-0.029572
-4.815136	拍摄	-0.093681
-4.534669	难忘	-0.330847
-4.971594	充裕
-3.799039	放松	-0.373282
-3.762630	南京	-0.099222
-4.210366	附近	-0.092824
-4.971594	一转
-3.659492	游	-0.164736
-4.262312	西湖	-0.106252
-4.886357	结伴	-0.056593
-4.227001	久	-0.224701
-4.244298	我找	-0.038601
-5.436625	下张	-0.125558
-5.436625	洪明
-3.786560	偶尔	-0.063868
-4.281106	五一	-0.170706
-3.723684	十一	-0.186866
-4.389639	有益	-0.230654
-4.415027	坏处	-0.114089
-4.570548	费钱
-3.529546	加	-0.147284
-5.436625	拿大
-4.886357	景观
-3.751142	逛	-0.286522
-4.227001	纪念	-0.283795
-4.700357	品
-4.048719	吃点	-0.155701
-4.470741	特产
-3.490514	好吃	-0.361382
-3.931186	就比	-0.228276
-5.077749	较近	-0.025603
-4.026787	桂林	-0.105727
-4.135591	工业	-0.126399
-5.335781	迁到
-4.149551	外地	-0.094755
-4.700357	专心
-4.210366	业	-0.079809
-5.077749	瑞典
-5.218547	海都
-4.178895	问问	-0.101364
-4.122065	你吧	-0.264858
-3.664106	你都	-0.117688
-4.071818	很小	-0.208225
-4.122065	太差	-0.410618
-4.016222	爱吃	-0.119430
-3.564986	漂亮	-0.262553
-4.886357	彩	-0.145906
-5.436625	虹桥
-3.526156	年轻	-0.386575
-4.262312	订	-0.178576
-4.005909	情	-0.023891
-4.609659	多数	-0.010016
-4.026787	祖国	-0.187190
-4.048719	再去	-0.011712
-3.882531	去年	-0.074982
-3.906178	系	-0.180246
-4.501530	净月潭	-0.167518
-3.718395	亚洲	-0.252762
-5.436625	林场
-4.149551	树	-0.083024
-3.564986	挺多	-0.356948
-3.948697	湖	-0.138610
-4.815136	有对
-5.218547	首饰
-4.365654	少数	-0.379946
-3.995835	民族	-0.091545
-3.768490	衣服	-0.117744
-4.342925	允许	-0.145102
-3.985989	计划	-0.177412
-4.262312	快到	-0.124458
-5.436625	算出	-0.125558
-4.886357	一走
-3.966943	杭州	-0.080876
-4.321326	很远	-0.169565
-3.792755	就去	-0.084896
-5.335781	长白
-3.557662	都没	-0.096250
-3.976361	我叫	-0.007698
-4.300751	江	-0.003244
-4.753966	续	-0.049149
-4.016222	你叫	-0.264312
-4.609659	北华	-0.128052
-3.939853	林	-0.266346
-3.976361	学院	-0.127009
-4.415027	刚来	-0.166547
-3.607631	一年	-0.144635
-4.096215	十分	-0.090395
-3.650407	女生	-0.098125
-5.335781	华大
-4.815136	学分	-0.043401
-4.501530	校区	-0.138893
-4.096215	师范	-0.311850
-5.218547	江北
-5.436625	西校
-4.971594	个体
-3.481281	体育	-0.236915
-4.342925	八个	-0.032251
-5.436625	平实	-0.125558
-4.534669	打扫	-0.139757
-3.995835	卫生	-0.162771
-4.886357	春游
-4.071818	踢得	-0.077936
-4.389639	爱玩	-0.093998
-4.609659	校队
-3.860106	关心	-0.168948
-4.210366	杯	-0.026419
-4.415027	前天	-0.024234
-3.718395	几天	-0.056913
-3.632788	昨天	-0.198730
-3.683072	没看	-0.161594
-4.700357	昨晚
-4.016222	太累	-0.438558
-3.906178	十二	-0.155792
-4.534669	点半	-0.021967
-3.554047	赢	-0.325419
-3.587727	厉害	-0.341227
-3.683072	放假	-0.162975
-4.971594	本都	-0.051837
-5.218547	中旬
-3.723684	考试	-0.176559
-5.218547	三科
-3.457577	平时	-0.160916
-4.096215	学期
-4.060115	得多	-0.179875
-4.194345	学得	-0.043898
-3.632788	班	-0.114101
-3.683072	男生	-0.125044
-3.845774	四十	-0.142793
-4.163975	行吧	-0.138625
-3.838781	干啥	-0.345514
-4.321326	干哈	-0.206167
-4.321326	多高	-0.177150
-4.971594	七五	-0.091614
-4.321326	哪啊	-0.414836
-4.441991	北山	-0.029522
-4.026787	这都	-0.180126
-4.501530	松花	-0.645496
-4.886357	四月
-4.300751	十八	-0.038934
-5.218547	庙会
-4.244298	门票	-0.081860
-4.149551	都吃	-0.074797
-3.214471	你不	-0.250044
-4.441991	吃肉	-0.068865
-3.786560	食堂	-0.104945
-3.673486	菜	-0.137827
-3.882531	有啥	-0.122029
-5.077749	兜里
-4.005909	没钱	-0.149296
-3.976361	能吃	-0.107256
-3.838781	花钱	-0.202920
-4.163975	对象	-0.094026
-3.799039	多大	-0.284350
-3.490514	还没	-0.093543
-3.957724	人不	-0.114906
-4.389639	孤单	-0.209811
-3.580013	六	-0.162809
-3.429659	爱	-0.219163
-4.365654	点多	-0.074220
-4.609659	八点	-0.046098
-4.281106	机械	-0.087598
-4.244298	修	-0.071591
-4.321326	机器	-0.130737
-4.037614	多吧	-0.169468
-3.898151	单位	-0.072443
-5.436625	修理	-0.125558
-4.652645	必需	-0.218872
-4.971594	喂喂
-3.756848	名字	-0.121908
-4.700357	里人
-4.016222	我呀	-0.134480
-5.436625	吴波	-0.125558
-5.335781	勋
-3.576207	好吗	-0.561016
-3.995835	美女	-0.110118
-3.632788	我听	-0.244696
-4.501530	不分	-0.035666
-3.550461	分	-0.157482
-3.729038	也在	-0.093480
-3.564986	还行	-0.180407
-4.389639	六个	-0.036811
-4.501530	人间	-0.017229
-4.365654	房间	-0.135068
-3.751142	平常	-0.112717
-4.060115	业余	-0.463049
-4.971594	啵
-3.599560	你呀	-0.319762
-3.572434	反	-0.202533
-4.441991	我爱	-0.042216
-4.342925	昨	-0.177298
-3.786560	平	-0.202314
-3.890271	那场	-0.260094
-4.026787	有事	-0.082257
-4.441991	看上	-0.016466
-3.874926	都看	-0.195280
-4.262312	球赛
-3.799039	下午	-0.012211
-3.831900	教师	-0.151343
-3.576207	输	-0.333316
-4.570548	箭	-0.045058
-4.135591	龙	-0.139866
-3.543377	队	-0.090505
-4.415027	主力	-0.013474
-4.194345	大约	-0.134920
-5.218547	月初
-4.501530	下课	-0.070384
-4.321326	溜达	-0.190920
-3.995835	逛街	-0.149439
-4.389639	热爱	-0.077105
-3.860106	打打	-0.300495
-3.385964	篮球	-0.188513
-3.774430	我啊	-0.112375
-4.321326	身高	-0.078426
-3.780453	比我	-0.297028
-5.077749	周五
-3.931186	今	-0.172109
-4.281106	天不	-0.113921
-4.415027	庙	-0.090225
-4.470741	会吗	-0.327332
-3.632788	卖	-0.160889
-3.611724	好玩	-0.323050
-4.700357	看也
-4.652645	芹菜
-4.470741	改善	-0.025360
-3.898151	念	-0.105246
-4.441991	刚到	-0.017199
-4.971594	把持	-0.081528
-5.218547	理财
-3.852880	照顾	-0.183351
-4.652645	一味	-0.447106
-3.976361	我呢	-0.261499
-3.369177	吃饭	-0.260281
-4.227001	起床	-0.155802
-3.472240	跟我	-0.173122
-4.609659	五点	-0.071612
-4.501530	多钟	-0.024992
-3.683072	跑步	-0.160494
-3.845774	打球	-0.151327
-5.218547	洗漱
-4.815136	洗脸
-4.570548	早饭
-3.519454	上班	-0.261141
-5.218547	机电
-3.637126	技术	-0.101991
-4.389639	工人	-0.017212
-3.729038	广告	-0.149775
-4.753966	绘画
-4.389639	语文	-0.012995
-3.818456	不少	-0.134107
-4.815136	构成
-4.534669	色彩	-0.068412
-4.005909	艺术	-0.159841
-4.609659	摄影	-0.056157
-5.077749	开课
-4.652645	创新
-4.652645	思维
-5.218547	较能
-5.335781	创意
-4.815136	找工
-5.077749	青山	-0.217755
-5.436625	绿水
-4.441991	实惠	-0.118380
-3.867453	家人	-0.099311
-4.262312	逛逛	-0.086072
-4.470741	足够	-0.217479
-4.005909	假期	-0.045202
-3.650407	多长	-0.832529
-5.436625	更长
-4.753966	不忙
-4.570548	要问	-0.051751
-4.149551	玩呢	-0.455733
-4.365654	所在	-0.130857
-4.227001	看吧	-0.182852
-4.108948	都想	-0.035579
-3.860106	太大	-0.333881
-4.262312	太热	-0.438706
-3.561309	考虑	-0.239238
-4.971594	胜地
-4.178895	太不	-0.091775
-5.436625	心甘	-0.125558
-4.815136	情愿
-5.436625	过龙	-0.125558
-4.815136	好走	-0.102463
-4.262312	坐车
-4.753966	就坐
-4.060115	半个	-0.312570
-5.077749	专车
-4.570548	再回	-0.032117
-3.852880	想想	-0.083987
-4.609659	颐和	-0.657085
-5.335781	南岛
-3.337431	你就	-0.139004
-3.931186	那块	-0.070106
-4.501530	印	-0.118320
-4.971594	象中	-0.037661
-3.906178	喜	-0.255273
-4.534669	上完	-0.093256
-3.882531	郁闷	-0.329752
-4.262312	溜	-0.043316
-5.436625	哒
-3.811886	没啥	-0.173865
-4.037614	全都	-0.200721
-5.077749	高楼	-0.314664
-4.815136	大厦	-0.102463
-3.632788	心	-0.142643
-4.441991	爱人
-4.060115	想法	-0.044044
-5.335781	南极
-3.650407	或	-0.162535
-5.077749	北极
-4.501530	语
-5.335781	言行
-3.756848	星期	-0.214560
-4.083846	玩一玩	-0.155745
-3.799039	好不	-0.364747
-5.335781	实为	-0.242626
-4.609659	长长	-0.311244
-4.149551	见识	-0.108830
-5.218547	电站
-4.534669	爱的人
-4.163975	安静	-0.209623
-3.526156	聊天	-0.259761
-4.609659	二人	-0.287151
-3.768490	找个	-0.192179
-4.815136	秋季
-5.218547	春季
-4.470741	最想	-0.060233
-3.898151	目前	-0.089323
-3.385964	咱	-0.142671
-3.673486	他说	-0.112006
-4.886357	币	-0.016641
-5.436625	月老
-3.818456	待	-0.234922
-4.652645	会儿
-4.149551	领	-0.010452
-3.780453	去啊	-0.472911
-4.815136	祈祷
-4.971594	野餐	-0.066729
-4.005909	爬山	-0.079316
-3.739949	爬	-0.261495
-5.077749	山一
-4.570548	爬到	-0.071535
-5.436625	天门
-4.441991	顶上
-5.077749	歇
-4.244298	就走	-0.350444
-4.753966	地势
-4.163975	挺高	-0.369143
-3.451848	全	-0.165723
-3.976361	建筑	-0.086948
-5.218547	陡
-5.335781	小树	-0.125558
-5.335781	秃
-4.108948	专	-0.074738
-5.335781	接送
-4.609659	天山
-3.890271	好嘛	-0.184204
-4.570548	零零	-0.069200
-4.501530	八年	-0.005531
-3.426963	奥	-0.900518
-4.971594	运会	-0.007469
-3.867453	毛	-0.353548
-4.570548	主席	-0.063291
-4.005909	青岛	-0.090487
-4.570548	上上	-0.022432
-4.441991	岛
-5.077749	热点
-4.016222	多好	-0.145756
-4.886357	李敏
-3.463383	还好	-0.282666
-5.218547	请讲	-0.323999
-3.466315	腐败	-0.274766
-5.436625	极坏	-0.125558
-4.096215	随着	-0.123197
-4.886357	效应	-0.166663
-4.178895	正确	-0.284704
-3.768490	事	-0.066692
-4.321326	共产	-0.637585
-4.342925	党	-0.065761
-4.415027	民主	-0.030852
-4.071818	资本	-0.328399
-4.108948	主义	-0.110629
-3.762630	不可	-0.239362
-4.178895	避免	-0.162465
-4.163975	它不	-0.174735
-5.436625	不治	-0.125558
-4.886357	症
-4.501530	腐	-0.082885
-5.436625	户枢不蠹
-3.985989	不断	-0.219595
-4.971594	斗争
-4.149551	加强	-0.093224
-3.906178	人民	-0.228847
-4.815136	群众	-0.110869
-5.077749	反馈
-4.441991	机制	-0.060319
-4.026787	眼睛	-0.059728
-5.436625	雪亮
-4.071818	要多	-0.085236
-3.780453	听听	-0.225559
-5.335781	呼声
-4.365654	立	-0.036870
-5.335781	法上
-4.609659	立法	-0.032138
-4.135591	上一	-0.046226
-4.534669	加大	-0.112874
-4.227001	打击	-0.023452
-4.570548	力度	-0.094680
-5.218547	有法	-0.145900
-5.436625	可依	-0.125558
-3.780453	必	-0.293918
-4.501530	依	-0.071398
-3.914355	对对	-0.038993
-5.218547	薪金
-4.342925	待遇	-0.129936
-5.218547	遏制
-3.762630	国	-0.130014
-5.436625	家公	-0.125558
-4.886357	务员	-0.000685
-4.342925	就和	-0.030643
-3.818456	国际	-0.214811
-4.108948	相比	-0.037675
-4.210366	另一	-0.436051
-3.659492	也要	-0.017321
-4.210366	自我	-0.215240
-4.122065	保护	-0.082299
-4.227001	观念	-0.015085
-3.580013	强	-0.253102
-4.609659	巨大	-0.151926
-4.534669	障碍	-0.114845
-4.321326	起到	-0.064960
-4.971594	短期
-3.957724	作用	-0.169713
-5.335781	但从
-4.441991	长期	-0.097518
-4.570548	长远	-0.129494
-3.620028	来讲	-0.209300
-5.335781	损伤	-0.058257
-5.077749	根深	-0.448937
-4.652645	蒂	-0.024726
-4.321326	争取	-0.092807
-5.335781	买官	-0.242626
-4.441991	官	-0.039462
-4.700357	利于
-4.262312	一代	-0.088643
-4.300751	深刻	-0.331625
-4.753966	可怕	-0.093206
-3.745509	成为	-0.208444
-4.570548	将会
-3.860106	交流	-0.171572
-3.818456	经验	-0.103290
-4.815136	即将	-0.121662
-4.262312	走上	-0.243273
-4.886357	岗位
-4.026787	们	-0.056050
-4.441991	良好	-0.278930
-4.470741	不该	-0.045047
-4.652645	它在
-4.652645	惩罚
-4.534669	措施	-0.029396
-4.971594	严厉
-4.609659	上要
-4.534669	痛	-0.137676
-4.815136	决心
-4.700357	坚决
-3.948697	他要	-0.039623
-4.534669	衡量	-0.187281
-4.609659	成本	-0.029543
-4.048719	利益	-0.100832
-3.595579	他也	-0.156117
-4.609659	件事
-3.860106	去做	-0.116043
-5.077749	增大
-5.077749	足以
-5.335781	警世
-4.570548	做起
-4.300751	来也	-0.079573
-5.335781	发案	-0.242626
-3.678252	也比	-0.435287
-5.335781	潜在
-5.335781	民意	-0.058257
-4.342925	调查	-0.042669
-3.572434	说你	-0.082744
-3.774430	把你	-0.147557
-3.692874	放在	-0.180499
-3.543377	你会	-0.202532
-3.867453	贪污	-0.234859
-3.595579	就没	-0.197336
-3.922689	百	-0.324862
-5.335781	分之	-0.015090
-4.609659	敏感
-5.436625	防范	-0.125558
-5.436625	未然
-4.389639	减少	-0.076925
-4.415027	损失	-0.061820
-3.506353	成	-0.168594
-4.700357	集团
-3.939853	式	-0.138536
-4.083846	大点	-0.490970
-4.441991	说点	-0.202588
-4.365654	我吗	-0.542327
-4.389639	形象	-0.030748
-4.815136	大打	-0.110880
-5.436625	折扣
-4.971594	滋生	-0.081556
-5.335781	阴暗
-3.659492	面	-0.108059
-4.609659	权
-5.335781	司法	-0.145891
-5.335781	不平
-4.163975	稳定	-0.166696
-4.652645	不利	-0.190591
-5.218547	法规
-5.335781	相继	-0.058257
-5.218547	出台
-4.210366	还都	-0.150579
-4.389639	还很	-0.078377
-4.300751	有用	-0.315506
-4.149551	从那	-0.169492
-4.501530	个别	-0.296350
-4.415027	有效	-0.206449
-4.534669	防止	-0.463537
-4.815136	借鉴	-0.035126
-5.218547	高官
-4.815136	处罚
-4.652645	较大	-0.063551
-4.534669	高薪	-0.960821
-3.867453	养	-0.088549
-5.436625	廉
-4.048719	严重	-0.218148
-4.163975	强大	-0.227005
-4.149551	烂	-0.111885
-4.470741	透
-4.971594	个中	-0.082913
-4.971594	国都
-4.342925	药	-0.037935
-4.570548	救	-0.145493
-5.436625	为公	-0.125558
-4.534669	严格	-0.166326
-4.753966	强调
-4.135591	政策	-0.047736
-4.342925	健全	-0.262963
-3.620028	越	-0.051788
-4.037614	中央	-0.201279
-3.966943	程度	-0.107904
-5.077749	越小
-4.815136	基层	-0.255928
-4.815136	越大	-0.255368
-5.436625	村官
-4.122065	家长	-0.022116
-4.281106	往上	-0.125794
-4.700357	强烈	-0.112953
-4.971594	隐藏
-5.077749	较深
-4.244298	剩下	-0.162899
-5.436625	权钱	-0.125558
-5.335781	案件
-5.335781	看作
-4.609659	猖獗	-0.025492
-4.609659	学者
-4.227001	提出	-0.146298
-3.931186	吹	-0.113344
-4.886357	赌博
-4.415027	能让	-0.028024
-5.436625	短线
-4.570548	眼光
-5.218547	短浅
-4.300751	方向	-0.026754
-3.799039	来看	-0.201080
-4.389639	孩	-0.183371
-4.886357	反倒
-4.262312	新加	-1.227089
-5.436625	坡	-0.007470
-4.194345	都去	-0.086699
-4.971594	再谈
-4.389639	用过	-0.017148
-5.436625	陆续
-4.886357	漏洞
-4.281106	嗯嗯	-0.094347
-5.077749	侥幸
-3.845774	心理	-0.177075
-4.016222	一把	-0.140085
-5.436625	利剑	-0.125558
-5.436625	悬在	-0.125558
-4.753966	头上
-5.077749	办成
-4.163975	利	-0.068903
-4.700357	够大	-0.230471
-4.083846	根	-0.144583
-4.570548	抑制	-0.200135
-4.971594	恶劣	-0.129478
-4.971594	越深
-3.922689	领导	-0.121118
-4.570548	干部
-4.700357	退休	-0.081396
-5.335781	才把
-5.436625	揪出
-4.570548	再把
-4.083846	指	-0.140174
-4.108948	符合	-0.099422
-5.436625	预警
-3.591635	发现	-0.158313
-5.218547	预防
-3.702904	让他	-0.048488
-5.218547	苗头
-4.815136	烈
-3.383526	最后	-0.162300
-5.436625	恶果
-5.077749	案子
-5.335781	就追
-4.060115	是把	-0.088586
-4.281106	犯	-0.175285
-5.218547	罪人
-5.436625	判刑
-4.815136	税收
-4.971594	流失
-3.702904	把他	-0.127563
-4.815136	市长
-5.335781	下台	-0.242626
-5.436625	市委	-0.125558
-4.886357	书记
-4.815136	秘书
-4.534669	贪	-0.025506
-5.436625	李真
-3.729038	他那	-0.091377
-3.683072	我要	-0.105154
-4.886357	牵扯	-0.066837
-4.886357	很广
-4.005909	查	-0.224410
-4.135591	广	-0.093486
-4.700357	突出
-5.335781	相连
-4.048719	请问	-0.207576
-4.886357	师院
-4.441991	很近	-0.116837
-4.534669	伙食	-0.095511
-3.546904	家庭	-0.113958
-4.441991	供	-0.018072
-3.948697	很高	-0.262109
-4.321326	尽力	-0.272632
-4.415027	学费	-0.064272
-4.570548	正经	-0.059034
-3.898151	多啊	-0.241852
-4.227001	我学	-0.125629
-4.262312	中文	-0.219230
-5.218547	播音	-0.145906
-4.281106	主持	-0.182368
-3.799039	将来	-0.050243
-3.882531	同事	-0.138522
-4.971594	要低	-0.081405
-5.077749	时要
-5.218547	上镜
-4.135591	练习	-0.140814
-4.262312	化妆	-0.226809
-3.457577	孩子	-0.083772
-4.753966	爱美
-3.762630	马上	-0.133638
-4.441991	普及	-0.096839
-3.768490	小学	-0.194345
-4.700357	义务	-0.051873
-4.700357	九年	-0.035555
-4.753966	取消	-0.082680
-4.005909	要到	-0.005578
-4.534669	二年	-0.010093
-4.753966	扩招
-3.762630	越来	-0.709934
-4.415027	越多	-0.111782
-5.077749	率也	-0.081516
-4.037614	学历	-0.092543
-3.580013	研究	-0.315406
-4.342925	博士	-0.072529
-4.534669	硕士	-0.099902
-4.971594	这笔	-0.081522
-4.281106	实践	-0.056449
-5.335781	上岗
-3.845774	他都	-0.133818
-4.886357	首选
-4.501530	会被
-5.077749	优先
-4.700357	录取	-0.081925
-4.700357	广西	-0.129428
-4.700357	福建	-0.023863
-4.700357	一带
-3.561309	人啊	-0.242511
-3.487415	毕业	-0.318465
-3.948697	紧张	-0.152676
-4.135591	价格	-0.045645
-5.077749	用水	-0.104296
-4.096215	那他	-0.018591
-5.335781	放水
-4.501530	你俩
-3.664106	进入	-0.186799
-3.811886	话题	-0.133071
-4.441991	先说	-0.017001
-4.441991	俩个
-3.713170	同	-0.163205
-4.753966	后边
-4.700357	饭菜
-4.321326	那面
-4.262312	校	-0.047976
-4.244298	制作	-0.156898
-3.702904	周	-0.419871
-4.026787	内容	-0.069166
-5.436625	歌咏	-0.125558
-3.463383	比赛	-0.205758
-4.108948	舞蹈	-0.143476
-4.365654	举办	-0.073371
-3.957724	一类	-0.411742
-3.355286	锻炼	-0.333355
-5.436625	模子
-4.096215	都得	-0.035732
-5.218547	较贵
-4.609659	五千	-0.078114
-5.218547	多爱
-4.652645	钱多	-0.054939
-4.060115	由于
-5.335781	学画
-5.077749	素描
-5.335781	水粉
-3.852880	光	-0.102923
-4.415027	纸
-4.244298	就用	-0.010752
-4.096215	专门	-0.070575
-4.609659	装潢
-3.867453	画	-0.155658
-5.436625	等号
-3.811886	相信	-0.095448
-4.244298	不怕	-0.047839
-4.501530	尽管
-3.966943	都说	-0.053577
-3.939853	将	-0.027695
-4.652645	来找
-4.652645	吃香	-0.102516
-4.194345	同样	-0.145656
-3.440612	这边	-0.097147
-4.149551	要找	-0.179745
-4.071818	本科	-0.112494
-4.470741	专科	-0.024248
-4.163975	保证	-0.080633
-4.122065	为你	-0.031280
-4.048719	美丽	-0.364331
-5.436625	坐落	-0.125558
-5.218547	落在
-3.922689	市	-0.173256
-4.227001	中心	-0.072284
-5.335781	四通	-0.242626
-5.077749	八达	-0.217754
-4.886357	也应	-0.056648
-4.470741	该说	-0.017679
-4.815136	三届	-0.073400
-4.753966	十人
-4.227001	这届	-0.148637
-4.227001	二百	-0.186472
-4.071818	中学	-0.116063
-5.436625	环艺
-4.570548	中也	-0.124562
-3.702904	就能	-0.041780
-5.335781	拉开
-4.342925	档次	-0.064592
-3.780453	有好	-0.297823
-3.874926	普通	-0.282478
-4.700357	点菜
-4.122065	他做	-0.231615
-4.244298	素食	-0.158187
-3.762630	接受	-0.170975
-5.436625	水源
-3.985989	早晨	-0.032140
-4.281106	六点	-0.102294
-3.957724	点吧	-0.261359
-5.077749	停水
-4.389639	点钟	-0.014558
-3.774430	中午	-0.032190
-4.753966	直到	-0.033951
-4.389639	二点	-0.075904
-4.501530	四点	-0.140904
-3.729038	课	-0.114879
-5.218547	晚课
-3.154550	上面	-0.208600
-3.599560	天	-0.094320
-4.971594	肉食
-4.815136	比别	-0.197936
-4.300751	据	-0.076106
-4.501530	我所	-0.059645
-4.609659	税务	-0.073406
-4.149551	就够	-0.432510
-5.436625	花上	-0.125558
-3.713170	不算	-0.203020
-5.218547	多彩
-3.572434	让你	-0.064079
-4.026787	谢谢	-0.303970
-4.415027	客气	-0.194778
-4.300751	紧	-0.078151
-3.739949	压力	-0.177089
-3.948697	轻松	-0.175137
-3.403427	交	-0.348462
-3.867453	许多	-0.078825
-4.083846	你为	-0.601389
-4.609659	就问
-3.931186	营养	-0.146421
-4.815136	就该
-4.501530	垮	-0.045072
-4.060115	为啥	-0.052548
-3.265086	唱	-0.383821
-4.178895	首歌	-0.043444
-3.931186	不懂	-0.155383
-4.534669	主任
-4.342925	导	-0.265776
-4.135591	员	-0.022747
-3.645935	到底	-0.202071
-3.939853	烦	-0.219726
-4.060115	害怕	-0.074724
-3.637126	对我	-0.157741
-5.077749	校友
-3.557662	的哦	-0.697108
-4.135591	暂时	-0.106310
-4.244298	是哦	-0.127272
-3.576207	外面	-0.093180
-3.957724	各个	-0.203284
-4.048719	有我	-0.073205
-4.227001	太小	-0.292825
-5.436625	笼中鸟
-4.342925	谁都	-0.026063
-4.005909	讲讲	-0.179384
-4.815136	心事
-4.415027	针对
-4.389639	某一	-0.261548
-3.729038	说啊	-0.278727
-4.501530	想再
-4.886357	优越	-0.197936
-4.652645	能像
-4.210366	瞎	-0.218244
-4.016222	说呀	-0.345633
-3.756848	饭	-0.092911
-3.957724	夏天	-0.096136
-4.971594	天热
-4.262312	顿	-0.114800
-4.026787	是呀	-0.086780
-4.281106	要跟	-0.040197
-4.300751	得上	-0.041619
-4.210366	夏	-0.044697
-4.178895	多吃	-0.151446
-4.501530	有课
-4.441991	医	-0.132943
-5.436625	这天
-4.886357	你懂	-0.132448
-4.342925	平面	-0.158833
-4.262312	课程	-0.032823
-3.890271	设计	-0.066054
-4.753966	PHOTOSHOP
-4.470741	他想	-0.019990
-4.210366	快点	-0.158428
-4.281106	俺们	-0.010748
-4.342925	天都	-0.001146
-4.244298	对着	-0.058271
-5.077749	这张
-5.436625	老脸
-4.886357	这所	-0.393807
-4.300751	好学	-0.118697
-3.603577	了呢	-0.578653
-4.135591	去哪	-0.220878
-4.227001	玩吧	-0.300079
-4.415027	上个	-0.177899
-4.389639	凉快	-0.244660
-3.825126	相对	-0.283316
-4.178895	好就	-0.175456
-4.886357	闷着
-3.922689	等到	-0.055809
-4.342925	寒假	-0.082862
-5.335781	马帅
-3.995835	三年	-0.022469
-5.218547	制药
-5.436625	学样
-3.692874	管	-0.171130
-5.218547	别太
-4.753966	一班	-0.049152
-4.753966	交个	-0.518739
-3.825126	有空	-0.117173
-4.048719	找你	-0.101427
-4.227001	太贵	-0.269577
-3.939853	服务	-0.219156
-4.470741	态度
-4.227001	你别	-0.057440
-4.971594	忘了我
-3.224470	个	-0.061626
-4.037614	男孩	-0.126460
-3.713170	好听	-0.279013
-3.628493	想到	-0.057129
-3.805415	你家	-0.112027
-3.751142	我家	-0.092613
-4.971594	丰满
-4.886357	点儿
-3.421622	结婚	-0.323219
-2.911478	她	-0.163874
-4.149551	一届	-0.128898
-4.753966	零四	-0.027400
-3.811886	我到	-0.196069
-4.262312	奇怪	-0.190419
-4.083846	鸡	-0.033386
-4.971594	大腿
-4.149551	过年	-0.261057
-4.365654	就都	-0.031651
-4.365654	来这	-0.056808
-3.780453	不如	-0.065091
-5.218547	多花
-3.792755	升	-0.180072
-4.321326	也想	-0.045911
-4.753966	够呛	-0.159838
-4.300751	课外	-0.386584
-4.441991	也学	-0.166276
-3.583853	计算	-0.818914
-5.436625	方天
-5.218547	边学
-4.815136	上机	-0.056546
-4.886357	U	-0.043401
-3.931186	吵	-0.219677
-5.077749	一架
-4.652645	就回
-4.570548	家住
-5.335781	盖楼
-5.218547	大建
-5.436625	机教
-4.389639	学着	-0.073413
-4.108948	三百	-0.328535
-3.274442	男	-0.528163
-5.436625	李冬
-3.939853	见过	-0.060669
-3.898151	你啊	-0.431668
-3.966943	质量	-0.162151
-4.300751	好点	-0.217676
-4.815136	零三
-3.091850	讲	-0.190239
-4.300751	这还	-0.147824
-3.845774	我妈	-0.048410
-3.512854	睡觉	-0.211312
-3.607631	书	-0.129158
-4.609659	凑合	-0.075549
-4.886357	猪蹄
-4.815136	它能	-0.095316
-4.281106	分配	-0.073220
-3.762630	N	-0.485731
-4.389639	粉	-0.171960
-3.745509	还挺	-0.123270
-4.415027	马马	-0.846144
-5.335781	虎虎	-0.017149
-4.321326	认真	-0.064709
-4.227001	儿	-0.070858
-3.624239	教	-0.156667
-4.815136	贷款
-4.194345	保	-0.076585
-4.886357	丰	-0.056634
-4.753966	串
-4.971594	书城
-3.906178	有关	-0.143670
-3.976361	不看	-0.146363
-4.753966	二个	-0.003075
-5.077749	既来之	-0.448937
-5.335781	则安之
-3.751142	安	-0.182609
-4.652645	则
-5.436625	之嘛
-4.886357	忙忙	-0.243778
-4.971594	碌碌	-0.199407
-4.227001	期	-0.159913
-4.194345	期间
-5.218547	用好
-4.300751	充分	-0.260531
-4.570548	多学	-0.368222
-3.780453	知识	-0.095620
-3.421622	特	-0.165772
-5.436625	别忙
-3.914355	决定	-0.107204
-4.971594	空余	-0.393805
-5.218547	选课
-3.976361	普	-0.608505
-4.210366	不清	-0.161091
-5.335781	友善
-5.335781	理好
-4.281106	忍	-0.151735
-5.335781	二话
-4.194345	第三	-0.063276
-4.083846	他能	-0.093018
-4.700357	塑造
-3.383526	他就	-0.185483
-4.163975	一生	-0.120928
-4.971594	为上
-4.321326	差别	-0.062436
-3.995835	说到	-0.023987
-4.365654	观点
-3.860106	素质	-0.107392
-3.692874	每次	-0.094518
-4.815136	年后
-4.415027	学业
-3.931186	交往	-0.141971
-5.335781	郊
-4.886357	郊游	-0.131335
-3.811886	看来	-0.127520
-3.624239	看书	-0.169093
-3.931186	比方	-0.387384
-3.825126	一看	-0.072040
-4.886357	些个
-3.532962	历史	-0.120830
-5.436625	读物
-3.939853	人物	-0.123024
-4.227001	记录	-0.070864
-4.700357	清醒	-0.127272
-3.966943	类型	-0.348988
-3.882531	难道	-0.162833
-3.668771	爱情	-0.160142
-3.860106	小说	-0.097036
-3.284003	的吗	-0.589362
-4.244298	举个	-1.030667
-4.570548	暗恋
-3.799039	是要	-0.060666
-4.227001	有多	-0.061192
-5.335781	一乐
-5.436625	象牙	-0.125558
-4.178895	塔	-0.175198
-3.957724	还算	-0.343265
-5.436625	退路
-4.300751	句话	-0.000861
-5.335781	将要
-4.534669	面临	-0.144565
-4.415027	养成	-0.131687
-4.886357	课本
-4.194345	珍惜	-0.140747
-4.652645	忙吗	-0.463877
-4.971594	清闲
-4.108948	欺负	-0.164899
-5.077749	她总	-0.104194
-4.108948	我吧	-0.335119
-4.060115	对她	-0.107970
-3.426963	她们	-0.145525
-3.914355	我很	-0.121440
-4.441991	恨	-0.023863
-3.718395	相处	-0.223120
-4.501530	随时	-0.115070
-4.071818	看我	-0.029835
-4.815136	喊我
-3.499948	小孩	-0.142032
-3.805415	我好	-0.133174
-4.700357	为止
-4.570548	深入
-4.389639	据我	-0.447771
-4.163975	自身	-0.272736
-4.609659	上进	-0.195916
-4.178895	即使	-0.036972
-4.300751	一所	-0.243126
-5.335781	懒散
-5.335781	毁掉
-4.321326	人看	-0.155825
-4.501530	意志	-0.039806
-4.365654	坚强	-0.143498
-5.335781	把住
-3.948697	失去	-0.265074
-5.077749	迷失	-0.217754
-4.570548	管得	-0.099835
-4.321326	小小	-0.416973
-4.815136	中都
-4.342925	学好	-0.134427
-4.570548	作出	-0.031962
-4.321326	贡献	-0.111361
-4.178895	就对	-0.036944
-4.227001	会比	-0.167663
-4.441991	文凭	-0.103785
-4.753966	看重
-4.815136	一眼	-0.029565
-5.335781	简历
-4.534669	拿来	-0.022438
-4.886357	怕他
-4.886357	中生
-4.609659	具备
-4.244298	想我
-4.300751	会用	-0.080578
-4.227001	懂得	-0.098650
-5.436625	而然	-0.026417
-4.083846	获得	-0.208946
-3.914355	他会	-0.014836
-3.966943	更加	-0.071994
-4.300751	谈一谈	-0.042346
-3.580013	和你	-0.250721
-4.534669	优点
-4.415027	各自	-0.195604
-4.415027	缺点	-0.047755
-4.026787	O	-0.299260
-4.300751	K	-0.062375
-3.536406	黄山	-0.150570
-4.501530	没错	-0.120137
-3.734460	完全	-0.174582
-4.262312	哪边	-0.037639
-3.874926	您	-0.204947
-3.526156	本来	-0.220079
-5.077749	嗯哼
-5.218547	拍照
-4.122065	哼	-0.130527
-4.281106	厦门	-0.180908
-4.096215	也说	-0.097695
-4.753966	很热
-3.939853	冬天	-0.164255
-4.886357	很冷
-4.652645	下雪
-4.163975	沙	-0.212290
-5.436625	尘暴
-5.218547	温室
-4.971594	养殖	-0.081552
-3.882531	食品	-0.082144
-3.756848	改变	-0.270717
-4.501530	会来
-3.587727	吸	-0.219939
-5.218547	引人	-0.028270
-4.389639	渐渐	-0.373774
-4.163975	会好	-0.304271
-3.708006	都能	-0.038867
-4.971594	见得
-4.753966	它很
-5.077749	盆地	-0.162847
-4.470741	四季	-0.084772
-4.262312	明显	-0.070292
-3.957724	想要	-0.138574
-3.561309	得到	-0.184532
-3.825126	它就	-0.232154
-4.652645	模拟	-0.395699
-4.096215	海边	-0.152630
-4.971594	先天	-0.163329
-4.122065	雪	-0.139040
-5.335781	李方
-4.210366	天哪	-0.142773
-4.389639	五岳	-0.116618
-3.792755	真的很	-0.114996
-4.886357	气温
-4.886357	分明	-0.165888
-4.534669	冬
-4.815136	天和
-5.335781	方会
-4.262312	冰	-0.093552
-5.218547	冰雪
-5.218547	冰灯
-4.470741	哪呢	-0.345501
-4.700357	热带	-0.067216
-5.436625	媒介
-4.149551	宣传	-0.048080
-4.389639	人为	-0.090570
-4.108948	整体	-0.142191
-5.436625	领地	-0.125558
-3.995835	白天	-0.037975
-4.700357	上会	-0.038852
-4.026787	会很	-0.057161
-4.971594	游览	-0.081429
-3.995835	看那	-0.028731
-4.389639	空闲	-0.465660
-4.886357	方都	-0.003134
-5.436625	多相
-4.194345	拿个	-0.040426
-4.342925	风光
-5.335781	树木
-4.815136	说和	-0.038854
-5.436625	树种
-5.436625	常绿
-4.389639	充足	-0.268943
-4.365654	概念	-0.061071
-4.122065	很久	-0.279328
-3.906178	运	-0.370197
-3.346267	过来	-0.280720
-4.178895	交通	-0.088817
-5.077749	便利
-4.281106	吃到	-0.038931
-5.335781	但总
-5.218547	变小
-4.037614	以外	-0.227286
-4.178895	科学	-0.124689
-3.786560	几乎	-0.235572
-3.762630	蛮好	-0.690325
-4.886357	太对	-0.095355
-3.591635	也很	-0.190950
-4.135591	综合	-0.116211
-5.436625	难人	-0.125558
-4.083846	人去	-0.086645
-4.108948	值	-0.110438
-4.753966	下边
-4.415027	没上	-0.066900
-4.971594	电力
-3.624239	打得	-0.260928
-3.931186	打个	-0.341759
-4.441991	差点	-0.035131
-4.700357	奖学金
-4.281106	班级	-0.028399
-4.060115	配	-0.130707
-4.210366	俺	-0.059968
-4.178895	多吗	-0.470796
-4.389639	顶多	-0.014535
-3.966943	四级	-0.103022
-4.083846	会打	-0.113652
-3.745509	乒乓	-0.933015
-3.922689	排球	-0.089692
-3.948697	羽	-0.604380
-5.335781	毛球
-4.753966	样样
-4.534669	精通	-0.056407
-5.436625	晨练
-5.335781	多起
-4.971594	挺早
-4.441991	下子	-0.008047
-4.194345	美好	-0.466011
-4.178895	干点	-0.343653
-4.365654	九十	-0.073775
-3.723684	类	-0.384283
-4.227001	污染	-0.104909
-3.723684	游泳	-0.177257
-4.971594	淹	-0.163875
-4.135591	不死	-0.258305
-4.441991	上到	-0.014532
-3.922689	合	-0.116292
-4.815136	扣分
-4.700357	自觉	-0.206453
-3.451848	公司	-0.205557
-4.365654	睡着	-0.319170
-4.342925	就上	-0.045283
-4.083846	半天	-0.074042
-3.966943	广播	-0.091638
-4.700357	唠嗑
-4.753966	唠唠	-0.083576
-4.415027	家常	-0.171929
-4.971594	两大	-0.081548
-4.501530	节课	-0.104041
-4.971594	剩余
-4.281106	其余	-0.366321
-4.135591	上午
-4.501530	时就	-0.034435
-4.886357	看报
-5.436625	联播
-4.570548	大事
-3.874926	两天	-0.035401
-4.281106	重视	-0.167799
-4.122065	矮	-0.115279
-4.122065	不打	-0.121879
-4.048719	安排	-0.153327
-4.652645	汪	-0.139755
-4.415027	玉	-0.029691
-4.026787	兵	-0.076432
-4.971594	网线	-0.181861
-4.700357	眼里	-0.008389
-5.335781	机能
-4.470741	几级	-0.062571
-5.077749	点起	-0.049144
-4.342925	去干	-0.236145
-4.281106	就差	-0.435160
-4.441991	十九	-0.036097
-4.415027	世纪	-0.029576
-4.281106	广场	-0.152601
-4.534669	再也	-0.151994
-4.470741	管你	-0.015766
-4.210366	扣	-0.068814
-4.609659	不应	-0.104581
-4.971594	该上
-4.441991	想好
-4.609659	钟
-3.734460	睡	-0.249559
-4.321326	一想
-5.218547	二天
-5.077749	躺下
-4.534669	躺着	-0.104656
-4.300751	天上	-0.126835
-4.415027	一回	-0.086118
-3.874926	去打	-0.174486
-4.501530	放学	-0.081845
-4.365654	特殊	-0.277502
-5.335781	游去
-4.470741	大专	-0.063276
-4.441991	不累	-0.125037
-4.534669	善	-0.112836
-4.570548	长跑	-0.119921
-4.652645	短跑
-3.311953	上网	-0.258367
-3.490514	网络	-0.340303
-5.436625	坑人
-5.218547	正比
-3.838781	这里	-0.029382
-4.609659	这儿
-4.342925	屋	-0.062148
-4.096215	热闹	-0.203135
-3.291807	爱好	-0.144945
-4.753966	较强	-0.105355
-3.948697	上不	-0.110014
-5.077749	靠我
-4.700357	不熟	-0.092974
-3.659492	了啊	-0.475002
-4.342925	分数	-0.066719
-4.262312	线
-4.534669	一不	-0.071597
-5.218547	校门
-4.886357	能动
-4.815136	动手	-0.043387
-4.389639	再过	-0.128942
-3.890271	两年	-0.134181
-3.966943	任何	-0.132795
-4.609659	喝水	-0.102839
-4.700357	不热
-5.436625	王鸿	-0.125558
-4.389639	亮	-0.209865
-4.570548	吉大	-0.034921
-4.534669	寻	-0.122153
-4.300751	思考	-0.210277
-4.971594	没走
-4.652645	竟	-0.073462
-3.914355	决赛	-0.132108
-4.321326	同一	-0.169517
-4.342925	本人	-0.054800
-5.335781	概不
-4.441991	危害
-4.083846	青	-0.187303
-4.321326	少年	-0.011750
-4.096215	精力	-0.006236
-4.244298	浪	-0.358375
-5.218547	吃上
-5.335781	挣点
-5.077749	物价
-4.609659	边吃	-0.088624
-5.335781	夸大
-5.077749	小康
-5.335781	出在
-4.342925	屋里	-0.024613
-3.697860	连	-0.053299
-3.603577	选	-0.196218
-4.321326	都快
-3.948697	哭	-0.251928
-4.652645	侃	-0.031990
-3.825126	搁	-0.173002
-5.335781	热热	-0.058257
-5.077749	闹闹
-4.441991	总比	-0.037321
-4.570548	人少
-5.436625	冷清
-4.227001	不爱	-0.028227
-3.931186	听你	-0.331591
-5.218547	控球	-0.145904
-4.281106	你啦	-0.319821
-4.005909	挣钱	-0.116001
-3.526156	也许	-0.216277
-4.210366	能去	-0.057757
-4.365654	汽车	-0.021776
-3.867453	出名	-0.290421
-5.436625	述说
-4.415027	热门	-0.143400
-4.122065	去不	-0.184354
-4.700357	只好
-4.365654	通知	-0.138341
-5.436625	接走
-4.700357	咋办	-0.131882
-4.971594	制图
-4.700357	材料
-5.077749	高数
-4.060115	掌握	-0.139076
-4.178895	理论	-0.174118
-3.914355	来吧	-0.286780
-4.652645	接到
-4.971594	厂子
-4.135591	人说	-0.032282
-4.210366	不见	-0.095316
-4.048719	实习	-0.209358
-4.060115	大三	-0.204091
-4.122065	大四	-0.252704
-4.534669	不长	-0.134984
-5.335781	悠哉	-0.058257
-5.077749	手工
-5.218547	不重
-4.415027	学点	-0.163877
-5.218547	接上
-4.178895	推荐	-0.057339
-4.389639	等下	-0.020013
-4.470741	一批
-4.441991	工厂	-0.020992
-4.971594	招人
-4.415027	奔	-0.053405
-4.609659	说给	-0.056618
-3.995835	推	-0.120010
-4.281106	存	-0.082873
-4.083846	我才	-0.024946
-3.751142	难	-0.092930
-3.786560	远	-0.247147
-4.886357	栋	-0.104572
-4.194345	教学	-0.146155
-5.436625	摆满
-4.534669	操场
-4.501530	百米	-0.018916
-4.149551	老大	-0.103014
-4.700357	大小
-4.570548	能上	-0.038857
-3.931186	不起	-0.150646
-4.342925	得起	-0.041808
-5.335781	和上
-4.753966	忙啥	-0.146023
-4.971594	点水
-4.415027	那头
-4.700357	头也
-3.595579	三十	-0.215211
-5.436625	六度	-0.125558
-4.470741	坐着
-4.753966	出汗	-0.093040
-4.244298	看好
-4.281106	支	-0.209872
-4.244298	齐	-0.193657
-5.218547	达内
-5.335781	王磊
-4.441991	点球	-0.107798
-3.708006	报纸	-0.158423
-5.077749	停电
-4.096215	状态	-0.033346
-4.071818	戴	-0.127512
-3.939853	球星	-0.066478
-4.501530	非洲	-0.069447
-5.218547	国足	-0.081546
-3.860106	球队	-0.118217
-4.470741	能对
-4.244298	信心	-0.042192
-4.389639	小将
-4.281106	年青	-0.160188
-4.083846	巴西	-0.169589
-5.436625	SHIT
-4.163975	进球	-0.147761
-4.570548	我猜
-5.077749	猜错	-0.163875
-3.799039	你打	-0.198256
-4.971594	全场
-4.886357	姓王
-3.931186	王	-0.124006
-4.342925	石	-0.050905
-5.077749	磊
-4.178895	大二	-0.153153
-4.342925	不动	-0.181574
-5.436625	猜得
-3.305811	蛮	-0.249978
-3.874926	准	-0.273396
-3.799039	瘦	-0.301060
-3.805415	男人	-0.129238
-5.335781	吓唬
-4.365654	再聊	-0.220597
-4.060115	两千	-0.241161
-4.178895	都行	-0.374310
-3.723684	你这	-0.144593
-4.365654	幽默	-0.215793
-4.971594	来见	-0.081546
-3.898151	酒	-0.081602
-4.178895	你来	-0.007801
-4.570548	我请	-0.202374
-4.501530	农业	-0.090498
-4.415027	四三	-0.013484
-5.218547	五四
-5.077749	九六
-4.501530	晕	-0.189282
-4.321326	口	-0.073435
-4.071818	呵	-0.103127
-4.389639	听清	-0.179661
-5.077749	和蔼	-0.163329
-5.218547	随和
-3.628493	胖	-0.239106
-4.262312	懒	-0.047525
-4.389639	不胖	-0.043568
-3.874926	如	-0.204509
-5.077749	FIFA
-5.077749	我晕
-4.470741	切磋	-0.259300
-4.700357	键盘
-5.335781	手柄
-3.939853	控制	-0.165201
-4.210366	回头	-0.048614
-4.441991	一脚
-4.652645	那点
-4.570548	E	-0.021942
-4.083846	笑	-0.123995
-5.218547	TWO
-4.609659	新秀
-5.218547	闯进
-4.281106	球迷
-4.071818	每年	-0.085682
-5.218547	盼着	-0.145836
-5.218547	出头
-4.096215	举行	-0.191311
-5.218547	但听
-3.729038	结束	-0.325273
-5.335781	张兵
-4.971594	你笑	-0.132007
-5.436625	太笨
-4.501530	四强
-4.210366	出线	-0.149203
-5.077749	北美
-4.886357	南美
-4.037614	错	-0.267062
-4.071818	当年	-0.009064
-4.149551	守门	-0.714125
-4.652645	发福	-0.253205
-4.534669	一听	-0.037356
-4.700357	动静	-0.094834
-5.436625	瘦子
-4.534669	玩笑
-4.389639	误会	-0.138549
-4.096215	还想	-0.008638
-3.976361	高考	-0.148767
-4.389639	啥事	-0.037035
-5.335781	转学
-5.335781	转去
-4.700357	你请
-4.244298	农	-0.061842
-4.753966	留个	-0.136860
-4.365654	话吧	-0.155642
-5.436625	哑巴
-4.815136	几遍	-0.082680
-4.389639	等会	-0.099286
-3.762630	就好	-0.390357
-4.441991	小事	-0.080341
-4.570548	死人	-0.069765
-4.441991	我老	-0.161879
-5.436625	瘦人
-4.570548	辈子
-4.971594	脾
-4.971594	如去
-4.652645	较量	-0.219206
-3.860106	网吧	-0.194607
-3.957724	玩得	-0.073808
-4.753966	高档
-3.818456	下次	-0.154370
-5.436625	张亮
-4.652645	乡
-4.570548	眼泪
-5.218547	汪汪
-4.815136	融洽
-3.874926	长大	-0.511814
-4.971594	幼	-0.081549
-4.415027	幼稚	-0.148470
-3.931186	成熟	-0.298170
-5.436625	折点
-4.971594	小到	-0.243433
-4.652645	面人
-4.609659	转变
-4.048719	请你	-0.139976
-4.210366	很累	-0.302334
-4.244298	体重	-0.055859
-4.108948	轻	-0.136691
-4.609659	习	-0.066855
-3.762630	玩玩	-0.174219
-4.753966	忙碌	-0.081925
-4.300751	松	-0.022004
-4.262312	想做	-0.131339
-3.874926	者	-0.088754
-4.135591	要想	-0.019975
-4.753966	招聘
-4.815136	年到	-0.056621
-4.609659	得要
-3.939853	工	-0.183346
-4.753966	这门	-0.043381
-5.218547	人学
-5.218547	遍布
-4.753966	全球
-5.335781	看做
-4.227001	挺忙	-0.576747
-4.534669	程序
-3.906178	调	-0.102892
-4.071818	系统	-0.106418
-3.825126	正	-0.154422
-4.281106	忙着	-0.064549
-4.321326	找我	-0.089946
-3.966943	我能	-0.085190
-4.048719	帮你	-0.041919
-5.436625	附件
-4.037614	回答	-0.175948
-5.335781	稀奇
-4.342925	心中	-0.129634
-5.218547	恕我
-4.971594	冒昧
-4.609659	话都	-0.056162
-4.652645	萧	-0.121051
-4.501530	野	-0.066849
-4.135591	是嘛	-0.120294
-5.077749	茫茫
-5.218547	人海
-4.281106	有缘	-0.091650
-3.780453	初中	-0.300995
-4.971594	憧憬
-4.501530	前就	-0.116670
-4.886357	一出
-4.163975	走向	-0.136156
-5.218547	中很
-5.218547	玩伴
-5.436625	尔虞我诈
-5.077749	悲观
-4.534669	向上	-0.170513
-5.077749	树立
-4.886357	本性	-0.066840
-5.218547	人话
-4.415027	一圈	-0.086893
-4.262312	打完	-0.114450
-4.570548	一身	-0.118320
-4.753966	汗	-0.150657
-5.436625	总和
-4.652645	你心	-0.192160
-4.501530	中你
-4.262312	三点	-0.155010
-4.753966	一线	-0.035183
-5.218547	刷牙	-0.323999
-3.472240	回家	-0.224112
-4.815136	掐	-0.056642
-5.335781	算来
-3.939853	已	-0.179569
-4.244298	休闲	-0.111908
-5.335781	闲散
-5.436625	人等
-4.815136	成员
-3.914355	羡慕	-0.208539
-4.135591	一旦
-4.108948	初	-0.211937
-4.886357	进修	-0.082766
-4.321326	积累	-0.050677
-4.609659	磨练
-3.922689	挣	-0.197737
-4.470741	学科	-0.064122
-3.532962	我跟	-0.437733
-4.570548	开拓	-0.066842
-4.609659	探索	-0.222165
-4.365654	也听	-0.056413
-3.561309	C	-0.535654
-5.436625	DELPHI
-4.262312	做过	-0.012153
-4.415027	数据	-0.260045
-4.534669	库
-4.534669	形势
-4.365654	F	-0.197458
-4.815136	较小	-0.013446
-5.436625	叨	-0.125558
-4.652645	努	-0.233671
-5.436625	奠基
-5.335781	感慨
-5.335781	如前
-5.077749	阵子
-4.753966	马加	-0.368717
-4.971594	爵	-0.146513
-3.376292	不就	-0.218802
-5.218547	震憾
-4.700357	多岁	-0.057345
-4.501530	俗	-0.335824
-4.194345	话说	-0.121434
-5.218547	林子	-0.145848
-4.534669	鸟	-0.075032
-3.624239	心里	-0.184117
-4.096215	西安	-0.119451
-3.708006	不也	-0.283955
-4.016222	伤	-0.135054
-4.501530	室友	-0.040942
-4.122065	辅导	-0.477434
-5.335781	概括
-4.300751	一对	-0.069074
-3.756848	我那	-0.093621
-4.415027	谈过	-0.226717
-4.210366	归	-0.023124
-3.739949	你没	-0.144370
-4.609659	人人	-0.073467
-5.436625	白说	-0.125558
-4.026787	一句	-0.098304
-3.702904	不想	-0.048300
-4.886357	因人	-0.625029
-5.436625	而异
-4.083846	为主	-0.262910
-4.135591	异性	-0.466680
-4.321326	没到	-0.026648
-4.971594	境
-4.753966	地步	-0.061686
-4.415027	份
-4.470741	说句	-0.285497
-4.415027	缘分
-5.436625	超男
-4.415027	不久	-0.159015
-5.218547	刚下
-4.321326	火车
-3.697860	吃过	-0.182904
-4.815136	杜绝
-4.700357	要像
-4.415027	官员	-0.013480
-5.218547	开支
-4.194345	加上
-4.534669	吃喝	-0.156896
-3.678252	造	-0.208198
-5.436625	艘	-0.125558
-4.570548	航空	-0.393845
-5.335781	母舰
-3.922689	古	-0.197990
-4.700357	至今
-3.931186	方	-0.101964
-5.335781	法能	-0.104583
-3.867453	上来	-0.260252
-4.321326	说对	-0.041952
-5.436625	下达
-4.389639	文件	-0.134056
-5.335781	条令
-4.441991	国民	-0.309427
-4.300751	自私	-0.110313
-4.389639	谈到	-0.033633
-4.470741	西北	-0.033576
-4.342925	大大	-0.352837
-4.971594	成效	-0.130429
-5.436625	肥水
-5.077749	外人
-4.753966	田
-4.652645	那对	-0.084836
-3.673486	型	-0.437814
-5.436625	达也
-4.609659	性吧	-0.137225
-3.481281	还要	-0.076464
-5.335781	上任
-5.218547	衰败
-3.620028	了一	-0.151409
-5.436625	蹶	-0.125558
-5.436625	不振
-4.971594	侵犯
-4.886357	颁布
-5.436625	三亿
-5.335781	稍稍
-4.815136	说别	-0.109280
-3.702904	外	-0.135273
-4.365654	论	-0.061321
-4.501530	就还	-0.166713
-4.753966	句	-0.048244
-4.652645	秦朝	-0.138137
-5.077749	末期
-3.931186	清朝	-0.134301
-4.441991	贪官	-0.103163
-5.436625	污吏
-5.335781	大飞
-4.281106	吃吧	-0.359242
-4.609659	没吃
-4.194345	体制	-0.103217
-4.886357	国情	-0.066432
-4.753966	深度	-0.093206
-4.652645	人士
-4.753966	抓到
-5.335781	上缴
-5.436625	钱款
-4.971594	百个
-5.077749	地里
-4.753966	抓着
-3.838781	不都	-0.201523
-4.971594	倡导
-3.768490	正在	-0.028460
-4.570548	新生	-0.022435
-4.389639	一面	-0.075533
-5.335781	国力
-3.650407	有人	-0.041879
-5.436625	活水	-0.125558
-5.218547	平和
-4.048719	物质	-0.221197
-5.335781	自足
-4.700357	欲望
-5.436625	反腐	-0.125558
-5.436625	倡廉
-4.971594	开展
-3.914355	向	-0.047779
-4.501530	趋势	-0.084631
-5.335781	政局
-5.335781	变革
-4.300751	先进	-0.156107
-4.122065	落后	-0.167807
-5.436625	硬性
-5.436625	西比
-3.860106	看他	-0.088410
-4.262312	要钱	-0.063596
-4.048719	他对	-0.045199
-4.262312	积极	-0.159858
-4.700357	想出	-0.043380
-5.436625	贪欲
-4.415027	管他	-0.068080
-4.262312	国人	-0.014332
-4.652645	跑出	-0.129410
-5.218547	这片	-0.104585
-4.971594	土地	-0.144192
-5.335781	去向
-4.122065	它也	-0.257597
-5.436625	施加
-4.389639	毕	-0.106678
-5.436625	竟会	-0.125558
-4.342925	破坏	-0.052262
-4.570548	要来
-4.501530	采	-0.090590
-4.321326	采取	-0.115659
-5.335781	措
-4.886357	得当
-4.210366	随	-0.180630
-3.825126	实力	-0.100120
-5.335781	人均
-4.244298	一项	-0.063841
-4.886357	日益
-5.218547	上涨
-4.060115	有所	-0.113123
-5.436625	减退
-3.882531	共同	-0.345093
-4.096215	要说	-0.019036
-5.436625	高举	-0.125558
-4.135591	邓	-0.426194
-5.077749	小平
-5.436625	大旗
-3.739949	坚持	-0.233138
-5.436625	盼望
-4.815136	到来
-4.441991	它会
-4.194345	相同	-0.160864
-4.149551	那在	-0.013575
-4.321326	状况	-0.049550
-5.335781	贯彻	-0.058257
-4.415027	再好	-0.154303
-5.436625	高权	-0.125558
-5.218547	握
-4.971594	议员
-5.218547	有权
-4.971594	机关
-4.700357	越高	-0.038702
-5.077749	好转
-4.122065	甚至	-0.021198
-4.415027	彻底	-0.057922
-5.218547	象我
-5.335781	公有制
-5.436625	私有制
-4.016222	清	-0.071328
-5.077749	官吏
-3.948697	好呀	-0.206853
-5.077749	真假
-5.335781	赖昌星
-5.335781	走私
-3.985989	受到	-0.096142
-4.815136	贿赂
-4.886357	下到
-4.149551	并且	-0.054192
-5.335781	过失
-5.218547	避风
-4.652645	作风	-0.031980
-4.700357	不良	-0.172278
-4.300751	处于	-0.118647
-4.262312	必然	-0.124085
-4.441991	平等	-0.188339
-5.436625	丰衣足食
-4.262312	地位	-0.080705
-4.441991	之下	-0.041503
-4.609659	禁	-0.104994
-4.441991	诱惑	-0.124253
-4.342925	人类	-0.087091
-4.652645	顶峰	-0.029573
-4.570548	消除	-0.091879
-4.753966	再给	-0.032135
-4.971594	如在
-5.218547	海关
-4.971594	国能
-5.335781	多出
-5.218547	朱镕基
-4.501530	会变	-0.326857
-4.178895	防	-0.051029
-4.652645	更强	-0.074544
-4.389639	促进	-0.046367
-4.178895	都到	-0.085194
-4.815136	都让	-0.049095
-4.501530	大好	-0.043569
-5.218547	河山
-4.048719	大哥	-0.034642
-4.815136	输入
-5.077749	国中	-0.164507
-4.609659	成立	-0.051663
-3.957724	战争	-0.078771
-4.365654	革命	-0.075426
-5.218547	领袖
-4.300751	打败	-0.163531
-4.342925	都被	-0.031980
-5.335781	糖衣
-4.886357	炮弹	-0.066558
-4.609659	伴	-0.104997
-5.436625	推移
-4.886357	消失
-3.874926	绝对	-0.182897
-5.335781	特性
-4.886357	不由	-0.132458
-3.882531	工资	-0.047469
-4.609659	某种	-0.140824
-4.501530	好比	-0.095107
-4.815136	正当
-4.342925	共	-0.179783
-4.971594	义
-4.886357	缩小
-5.218547	严于	-0.323999
-5.436625	律己
-4.652645	当官	-0.231984
-4.300751	统治	-0.049571
-4.753966	阶级
-3.780453	下面	-0.073229
-4.753966	添
-5.077749	偷车
-4.244298	不光	-0.228441
-4.753966	犯法
-4.262312	脏	-0.140826
-5.436625	严惩
-4.815136	经受	-0.056619
-4.753966	教训
-4.300751	记住	-0.086251
-3.845774	不敢	-0.082231
-4.365654	从这	-0.209670
-5.436625	正反
-4.321326	有利	-0.129158
-4.971594	弊
-5.436625	方太
-5.335781	贫富
-4.470741	相差	-0.040961
-5.436625	救济	-0.125558
-5.335781	灾
-4.886357	款
-4.753966	贫困	-0.218424
-5.077749	手中
-4.178895	农大	-0.172469
-4.470741	来过	-0.033576
-4.389639	邻居	-0.031636
-4.886357	波折
-3.637126	传奇	-0.161678
-4.415027	平凡	-0.262551
-4.570548	能再	-0.027068
-5.077749	活过	-0.163329
-3.687945	成绩	-0.146381
-3.860106	娱乐	-0.169810
-4.108948	玩呀	-0.215146
-4.342925	每一	-0.197423
-3.995835	一半	-0.193419
-4.321326	难得	-0.035172
-5.436625	海州
-4.037614	他跟	-0.092335
-5.335781	乏
-4.389639	闷	-0.048824
-5.335781	抬头
-5.218547	张脸
-4.700357	叛逆	-0.038861
-4.415027	青春	-0.018074
-5.436625	上师
-4.534669	师大	-0.061327
-4.083846	向往	-0.233728
-5.436625	梦寐	-0.125558
-5.436625	以求
-4.389639	对它	-0.017206
-4.886357	厌倦	-0.094408
-4.389639	重复	-0.241756
-4.652645	乘	-0.038848
-4.342925	凉	-0.161676
-3.985989	牛肉	-0.141867
-4.441991	腻	-0.298805
-4.652645	大部	-0.067086
-5.077749	花销
-4.753966	忙于
-5.077749	全省	-0.216859
-3.985989	全国	-0.145324
-4.389639	五百	-0.215861
-4.389639	十多	-0.149799
-4.244298	四百	-0.149313
-4.470741	多分	-0.077056
-5.436625	统招	-0.125558
-4.389639	贵姓	-0.343146
-5.077749	大名
-5.218547	施亮
-4.815136	张扬	-0.156324
-5.335781	张张	-0.125558
-5.335781	扬扬
-3.734460	张	-0.260542
-4.210366	千	-0.236223
-4.971594	里来
-5.077749	相会
-4.886357	无缘	-0.066855
-4.365654	对面	-0.061295
-5.077749	相逢
-5.436625	上可	-0.125558
-4.753966	精英
-5.077749	系呢	-0.197376
-4.321326	物理	-0.106049
-4.971594	原子	-0.081554
-4.652645	精华	-0.051702
-4.016222	太少	-0.583446
-4.470741	勉强	-0.025402
-4.389639	能过	-0.051339
-5.077749	力差
-4.321326	前途	-0.053613
-5.436625	无量
-3.774430	高兴	-0.233657
-4.262312	会议	-0.109493
-5.436625	建院
-5.218547	间见	-0.145902
-4.753966	早起
-4.470741	来回	-0.025471
-3.723684	挂	-0.241587
-4.815136	事多
-4.700357	搞搞
-4.281106	你只	-0.124985
-4.244298	你个	-0.064662
-4.227001	要你
-3.762630	离开	-0.356353
-4.060115	欢迎	-0.360757
-4.122065	当你	-0.049978
-4.122065	兄弟	-0.115068
-4.652645	这来
-4.300751	当我	-0.025458
-5.218547	不烦
-4.037614	变化	-0.082836
-4.570548	带给	-0.098219
-4.300751	佩服	-0.126375
-3.818456	打工	-0.185438
-4.037614	学过	-0.071826
-5.335781	提早
-4.321326	十三	-0.061981
-4.415027	考完	-0.087630
-5.436625	线型
-4.470741	六百	-0.032111
-4.178895	姓	-0.097649
-4.534669	施	-0.102512
-4.262312	一人	-0.082169
-5.436625	好动
-5.335781	年生
-4.971594	见着
-4.163975	是啥	-0.142469
-4.122065	一到	-0.053878
-4.815136	大伙
-4.753966	要命	-0.102017
-3.845774	学到	-0.173204
-3.729038	幸福	-0.287813
-5.335781	做操
-4.194345	操	-0.051100
-3.756848	马	-0.171634
-4.470741	上回
-4.470741	抓紧	-0.278583
-4.700357	高等	-0.419862
-5.077749	院校
-5.335781	早操
-4.037614	六级	-0.149806
-4.026787	挺大	-0.532416
-4.281106	劲	-0.072595
-3.554047	考研	-0.196206
-4.652645	八级
-5.335781	黄哥
-5.436625	陈静
-4.227001	你给	-0.121493
-4.037614	海南	-0.099063
-4.441991	也多	-0.163486
-4.971594	坐船
-5.218547	概要
-4.071818	还会	-0.044856
-5.335781	孤岛
-3.591635	台湾	-0.127367
-4.534669	打下	-0.126508
-4.501530	椰子	-0.099211
-4.227001	说它	-0.133779
-4.342925	跑题	-0.213139
-5.436625	东山
-5.335781	山岭
-4.753966	岭
-5.335781	崎岖	-0.242626
-3.867453	你听	-0.183731
-4.753966	大个
-5.218547	深厚
-4.470741	挺长	-0.487286
-5.335781	伪	-0.058257
-4.037614	满	-0.086500
-5.077749	皇宫
-5.436625	旧址
-5.218547	溥仪
-4.210366	办公	-0.368229
-5.436625	就寝
-4.570548	市里
-4.652645	保留	-0.038831
-5.436625	遗址
-4.753966	滑雪	-0.167843
-4.163975	滑	-0.186014
-5.436625	雪场
-5.436625	雾凇
-4.060115	天下	-0.011939
-5.077749	闻名
-4.815136	蹦迪	-0.083050
-4.389639	草	-0.082862
-4.652645	森林	-0.107253
-5.335781	往北
-3.914355	黑	-0.190715
-5.436625	龙江
-5.436625	漠河	-0.125558
-4.415027	村	-0.092928
-5.218547	境内
-5.436625	昼	-0.125558
-5.218547	几夜
-5.436625	极圈
-5.218547	米多
-4.652645	厚	-0.072382
-4.886357	看山
-5.335781	晴朗
-4.227001	日子	-0.094824
-4.971594	阴天
-4.886357	阴
-4.815136	蒙蒙	-0.108717
-5.436625	后见	-0.125558
-5.218547	赶着
-4.570548	浇	-0.029381
-5.436625	避雨
-5.436625	观景	-0.125558
-5.436625	种树
-4.415027	原始	-0.207382
-5.077749	野生	-0.314662
-4.194345	动物	-0.205963
-4.441991	踏入	-0.359856
-5.335781	向海
-5.218547	丹顶鹤
-5.335781	未经
-4.609659	人工	-0.191180
-3.805415	关	-0.208733
-5.436625	笼子	-0.125558
-5.335781	水边
-5.335781	山坡
-4.470741	客	-0.019989
-5.436625	倾角
-4.971594	十度
-4.886357	前些	-0.091617
-4.005909	年	-0.014804
-4.470741	全身	-0.116504
-3.768490	红	-0.163126
-5.218547	近看
-4.415027	那年
-4.281106	赶上	-0.108759
-5.335781	洪水
-4.652645	天涯	-0.433491
-5.436625	海角
-4.971594	一宿
-4.342925	你从	-0.023268
-4.163975	飞机	-0.075437
-4.342925	蓝	-0.056476
-4.971594	邻
-4.609659	海水
-4.700357	算上	-0.043088
-4.060115	一道	-0.118406
-3.792755	接	-0.171768
-4.210366	嫁	-0.180449
-5.436625	铸成	-0.125558
-3.713170	各种	-0.167717
-4.501530	万	-0.041013
-3.487415	全部	-0.174816
-4.886357	形状
-4.886357	猴子
-5.436625	新龙	-0.125558
-4.534669	温泉
-5.335781	不美
-4.652645	很美
-4.037614	我上	-0.158907
-4.135591	朋	-0.220663
-4.501530	月亮	-0.044461
-4.815136	湾
-3.708006	后	-0.075222
-5.436625	面带
-4.534669	这话	-0.023874
-4.815136	般	-0.197936
-4.815136	趁着
-5.436625	凉风	-0.125558
-5.436625	习习
-4.753966	都为
-3.768490	去吃	-0.228388
-5.218547	下海
-4.753966	游玩	-0.127016
-4.300751	剩	-0.034300
-4.652645	躺	-0.056169
-5.335781	罗浩	-0.242626
-5.335781	近来
-4.753966	南边
-5.335781	日月	-0.242626
-4.971594	潭	-0.018558
-4.026787	四川	-0.150035
-4.194345	九寨	-0.816706
-4.815136	沟	-0.005263
-4.609659	那水
-4.971594	乐山
-5.436625	大湖
-5.436625	大可
-3.799039	也还	-0.439547
-4.971594	温度
-4.281106	十七	-0.092489
-5.077749	八度	-0.081552
-4.971594	贺
-3.922689	不出	-0.045830
-5.436625	少来
-3.745509	说不	-0.231102
-5.436625	实像
-4.005909	到过	-0.059749
-5.335781	远门
-3.756848	有没	-0.257020
-5.218547	靠在
-4.570548	春	-0.056643
-4.609659	温	-0.025520
-5.335781	度高
-4.886357	西南	-0.081553
-4.210366	老家	-0.034525
-5.077749	巴山
-5.218547	小山
-4.815136	也大
-4.700357	讨	-0.115416
-4.609659	东南	-0.154250
-5.335781	花莲	-0.058257
-4.652645	港	-0.056156
-3.831900	台	-0.149552
-4.971594	台北
-5.436625	高雄
-4.178895	能看	-0.203365
-4.886357	少点
-4.652645	但也
-5.218547	落日
-5.077749	多美	-0.164229
-5.436625	泸	-0.125558
-5.218547	旮
-4.096215	苦	-0.035940
-4.700357	成年
-4.135591	历	-0.412624
-4.971594	刮风
-3.906178	通	-0.155662
-4.149551	过你	-0.041507
-4.815136	定能
-4.700357	江山
-5.218547	美化
-4.570548	出过
-4.700357	持
-4.389639	乐观	-0.252425
-4.886357	地大	-0.243776
-4.886357	博
-5.218547	生态
-4.971594	现成	-0.545847
-5.436625	卧龙
-4.281106	不跟	-0.125008
-5.436625	雨林
-4.194345	双	-0.066588
-5.335781	温带
-4.210366	亚	-0.142677
-4.815136	寒	-0.110879
-5.436625	寒带
-4.005909	你知	-0.716142
-5.335781	川大	-0.058257
-5.218547	村庄
-5.436625	大巴	-0.125558
-5.436625	山山	-0.125558
-4.971594	山庄	-0.130429
-5.077749	瘩
-5.077749	我曾
-4.342925	善良	-0.146403
-5.436625	王盛
-4.652645	领着
-4.262312	粗	-0.093901
-5.335781	砍柴
-5.335781	烧火
-4.122065	刀	-0.179450
-5.335781	一刀
-4.753966	过大	-0.032139
-5.335781	周旋
-5.077749	赞美
-4.753966	山水	-0.012284
-4.501530	甲	-0.063053
-4.470741	佛	-0.021158
-4.244298	字	-0.033702
-5.077749	引号
-5.335781	只见
-4.534669	迫害
-4.534669	做法	-0.098317
-4.700357	溜溜	-0.038860
-4.122065	米	-0.108327
-4.194345	听不	-0.378615
-4.971594	太清	-0.009487
-4.534669	这回	-0.015769
-4.244298	响	-0.142867
-4.342925	浙江	-0.024229
-4.149551	耍	-0.194365
-3.774430	不说	-0.067209
-3.745509	听过	-0.183483
-5.436625	查核
-5.335781	毙
-5.335781	提拔
-5.077749	检
-4.470741	机构	-0.032153
-4.501530	一方	-0.056924
-5.077749	快速
-5.436625	复述	-0.125558
-5.436625	一轻	-0.125558
-5.335781	一重
-4.700357	常说
-3.774430	政治	-0.103153
-4.342925	模式	-0.049801
-4.441991	难以	-0.095463
-3.995835	从事	-0.093969
-4.321326	人员	-0.120800
-4.048719	具	-0.421137
-5.077749	家产
-4.652645	各人	-0.204416
-4.652645	资产	-0.029582
-5.335781	细细
-4.570548	人大	-0.061187
-4.096215	常	-0.075480
-5.077749	委会
-5.436625	陈克	-0.125558
-4.389639	杰	-0.053876
-4.652645	江西	-0.056163
-3.874926	要看	-0.095890
-5.218547	寻求
-4.470741	更高	-0.100442
-4.609659	守	-0.029551
-5.436625	贪图	-0.125558
-4.026787	一时	-0.179648
-5.218547	蔓延
-4.281106	河	-0.076596
-4.244298	事吧	-0.252829
-4.971594	暖和
-4.815136	地貌
-5.077749	人参
-5.335781	貂皮	-0.058257
-4.470741	不比	-0.037510
-4.652645	旱
-5.335781	多度
-5.077749	大旱
-5.436625	涝
-5.077749	玉米
-4.700357	还大	-0.108144
-5.218547	丰收
-4.108948	去那	-0.090829
-3.966943	傻	-0.294272
-5.335781	正道
-4.016222	信号	-0.188605
-3.708006	干吗	-0.282813
-5.218547	对劲
-5.436625	而退
-4.700357	总得	-0.038841
-5.335781	痴
-5.077749	所知
-4.108948	著名	-0.408166
-4.753966	东岳	-0.369131
-4.815136	西岳	-0.168869
-5.218547	南岳	-0.323999
-4.815136	衡山	-0.127016
-4.815136	北岳	-0.110879
-4.886357	恒山
-4.753966	中岳	-0.043406
-4.815136	嵩山	-0.267652
-4.886357	雄
-5.436625	见称
-5.077749	险
-4.700357	秀
-5.335781	嵩
-4.281106	奇	-0.110454
-4.700357	浏览	-0.192169
-5.436625	堂上
-4.886357	有感	-0.368781
-4.149551	就听	-0.043458
-5.436625	以水
-4.534669	一篇	-0.084767
-4.815136	课文
-5.436625	提及
-4.886357	座山
-3.939853	叫做	-0.079479
-5.077749	大象
-5.436625	印像
-4.971594	太烂	-0.368781
-4.971594	总该	-0.066811
-4.501530	譬如	-0.256153
-4.971594	甘蔗
-4.178895	有吗	-0.429028
-5.077749	丘陵	-0.081556
-5.218547	山地
-4.886357	过上
-4.971594	潮湿
-5.335781	多雨
-4.609659	年年
-4.886357	水稻	-0.131966
-5.436625	作物	-0.125558
-4.815136	生长	-0.167272
-4.886357	支援
-5.335781	一展	-0.058257
-5.077749	抱负
-4.262312	理	-0.036686
-4.470741	再来
-5.436625	扼杀
-5.218547	干燥
-4.971594	风沙
-4.886357	候	-0.056648
-3.645935	又不	-0.254841
-3.966943	这不	-0.160858
-4.415027	错过	-0.219902
-3.708006	我会	-0.080839
-3.792755	像我	-0.148927
-5.436625	屋脊
-5.335781	格尔
-5.436625	塔里木	-0.125558
-4.281106	我国	-0.181088
-5.218547	牧羊
-4.700357	过着
-5.436625	游牧
-5.436625	迁徙
-5.436625	虫害
-4.026787	你又	-0.033466
-5.436625	中海
-5.077749	描绘	-0.217696
-5.077749	耗费
-4.609659	体能
-5.218547	负荷
-4.194345	哪种	-0.107009
-4.163975	步	-0.176299
-5.077749	行去
-4.886357	走遍	-0.132435
-5.335781	笼统
-5.335781	乘坐
-4.389639	一番	-0.129219
-4.342925	从你	-0.302365
-3.774430	那天	-0.169228
-5.077749	心得
-3.852880	以及	-0.058227
-5.335781	见闻
-4.149551	向你	-0.155929
-5.436625	亲朋	-0.125558
-4.886357	好友
-5.335781	你曾
-4.135591	站在	-0.024650
-4.886357	不经	-0.185497
-4.389639	增长	-0.040238
-4.886357	风情
-4.210366	到时	-0.041569
-5.335781	宜人
-4.415027	沙滩	-0.135339
-3.825126	长城	-0.088884
-4.135591	中华	-0.309822
-4.609659	骄傲
-5.335781	之首
-5.077749	遗产
-4.037614	秦	-0.571163
-5.436625	始皇	-0.002468
-4.609659	兵马	-0.888270
-5.436625	俑
-5.436625	皇陵
-4.441991	几千	-0.268006
-4.415027	年来	-0.070506
-5.436625	结晶
-4.971594	标志
-5.335781	先于
-4.470741	张家	-1.022969
-5.077749	界
-5.335781	版纳
-4.700357	独特	-0.304535
-4.570548	聚集	-0.310290
-4.135591	体会	-0.187337
-4.609659	风土	-0.704601
-4.886357	人情
-3.576207	让我	-0.088419
-4.441991	雪山	-0.137726
-5.335781	洁
-4.700357	山峰	-0.043289
-4.570548	珠	-0.045162
-4.886357	穆	-0.110880
-5.436625	朗玛
-4.210366	峰	-0.174915
-4.389639	古老	-0.339853
-4.815136	藏族	-0.197936
-4.609659	佛教	-0.230891
-4.244298	愉快	-0.299988
-4.470741	最佳	-0.170999
-5.077749	匆忙
-4.060115	旅行	-0.283878
-5.436625	敞	-0.125558
-5.077749	蓬
-5.218547	国度
-5.335781	许许	-0.242626
-4.083846	多多	-0.122381
-4.534669	开开	-0.269343
-4.815136	眼界
-3.529546	写	-0.279051
-5.436625	随笔	-0.125558
-4.441991	散文	-0.033907
-5.436625	写景
-4.501530	时刻	-0.018031
-4.415027	心灵	-0.053292
-5.077749	感悟
-4.815136	一一	-0.056627
-5.077749	记载
-4.415027	编辑	-0.056854
-4.534669	本书
-4.886357	中去
-4.178895	上看	-0.153002
-4.609659	形容	-0.079708
-4.163975	显得	-0.105578
-4.886357	渺小
-5.335781	火红
-4.570548	云海	-0.142994
-5.436625	壮美
-5.218547	景象	-0.216518
-5.218547	别笑
-4.108948	不讲	-0.043045
-4.262312	资料	-0.110075
-4.609659	跑去
-4.149551	顶	-0.018495
-5.436625	观山
-5.335781	八层
-4.971594	地狱
-4.441991	和尚	-0.038051
-5.335781	大钟
-5.436625	抗美	-0.125558
-5.436625	援朝
-4.753966	抗日	-0.257391
-4.026787	时期	-0.107094
-4.108948	留下	-0.172787
-4.342925	军	-0.040244
-4.470741	炮	-0.104041
-4.281106	还去
-5.077749	度假
-4.971594	牡丹	-0.145906
-5.335781	方可
-4.135591	干净	-0.194760
-4.886357	游客	-0.056516
-4.753966	呆过
-5.436625	烈士	-0.125558
-5.335781	碑
-5.218547	宏伟
-3.922689	至少	-0.095499
-5.335781	镇里
-5.218547	后像
-5.436625	良田
-5.436625	寺院
-3.931186	说明	-0.163253
-5.335781	古物
-4.534669	文物	-0.143362
-5.218547	遗迹
-4.971594	战斗	-0.066838
-4.096215	还说	-0.059264
-4.470741	还可	-0.025510
-5.218547	渡
-5.436625	家村	-0.125558
-4.389639	钓鱼
-5.077749	兜风
-4.342925	钓	-0.170711
-4.342925	带你	-0.039784
-4.570548	净	-0.081869
-4.300751	月	-0.185380
-3.906178	听着	-0.147432
-4.365654	不远	-0.139216
-3.496781	只要	-0.107594
-3.620028	好吧	-0.235791
-3.976361	一张	-0.099978
-5.335781	下游
-5.335781	上游
-4.210366	确定	-0.165455
-4.135591	那儿	-0.072425
-5.077749	写生
-3.252318	好多	-0.183791
-5.335781	塑像	-0.058257
-5.436625	雕像
-4.365654	登山	-0.015099
-4.048719	太远	-0.287960
-4.753966	小点	-0.074538
-4.886357	丹
-5.218547	梅花	-0.323999
-4.886357	鹿	-0.056643
-5.077749	之乡
-5.218547	花果	-0.323999
-4.652645	骗你	-0.201399
-4.971594	争论
-4.244298	山东	-0.061253
-4.071818	那叫	-0.211324
-5.436625	岗山
-5.335781	抗
-5.335781	水帘	-0.242626
-4.389639	洞	-0.059158
-4.971594	渡假
-4.365654	江苏	-0.135445
-4.108948	苏州	-0.134273
-4.534669	园林	-0.085611
-5.436625	景德	-0.125558
-4.753966	镇	-0.035175
-5.436625	陶瓷
-4.652645	留恋
-4.609659	也像
-5.218547	较晚
-4.652645	丝绸	-0.265782
-5.335781	之路
-3.890271	爽	-0.240656
-5.218547	铁路
-5.218547	川藏
-4.037614	一条	-0.128549
-5.077749	大漠
-5.436625	铃声
-4.700357	爽啊	-0.189950
-3.718395	还在	-0.079319
-4.971594	王国
-5.218547	之称
-4.700357	贵阳
-4.415027	就成	-0.219902
-5.436625	酸雨
-5.436625	伏特	-0.125558
-4.886357	溶洞
-4.971594	碳酸	-0.164596
-4.815136	钙
-4.342925	组成	-0.178708
-5.218547	发好
-4.281106	劳动	-0.118383
-5.218547	下半
-4.321326	陶冶	-0.303928
-5.077749	长安
-4.886357	史上	-0.002672
-4.886357	弄好	-0.242547
-4.135591	组	-0.016814
-4.415027	沙漠	-0.205477
-3.890271	就这	-0.183179
-4.415027	别说	-0.084281
-5.335781	日晕
-5.335781	灰尘
-4.971594	清晰	-0.129478
-4.244298	结合	-0.092670
-5.335781	产物
-4.389639	制造	-0.090952
-4.609659	小型	-0.179601
-4.815136	越看	-0.310710
-4.389639	队伍	-0.060155
-4.570548	我的家	-0.071644
-5.436625	江畔
-5.218547	秀丽
-5.077749	近些	-0.217753
-4.700357	潜力	-0.114845
-4.389639	完善	-0.106353
-4.815136	说中
-5.436625	梅雨
-4.083846	闹	-0.108370
-5.436625	春城
-4.652645	孤	-0.121089
-3.595579	烟	-0.116364
-4.365654	川	-0.066970
-4.971594	也受	-0.081177
-4.037614	反应	-0.094568
-4.652645	挨着
-4.971594	雨水
-4.609659	春天
-5.335781	三尺
-5.077749	三日
-5.335781	睛
-5.436625	氧化	-0.125558
-5.335781	碳
-5.218547	再下
-5.436625	溶解
-4.342925	闲着	-0.224182
-5.077749	化成
-4.501530	简	-0.152891
-5.436625	单点
-4.534669	埃及	-0.074903
-4.815136	尼罗	-0.448937
-4.886357	流域
-4.441991	军事	-0.078768
-5.077749	武装	-0.104456
-4.281106	长江	-0.066991
-5.335781	珠江
-4.005909	也看	-0.118966
-4.300751	淡	-0.228202
-4.971594	特大
-5.436625	光圈
-4.365654	当成	-0.163362
-5.436625	河川
-4.815136	差得	-0.110873
-4.609659	天时	-0.544808
-5.218547	地利	-0.022370
-5.077749	看样
-4.441991	建国	-0.095605
-4.048719	拥	-0.856187
-5.218547	进程
-5.077749	必备	-0.448937
-4.501530	类似	-0.330660
-5.436625	思绪
-5.335781	腐化
-4.321326	所说	-0.470322
-4.501530	广阔	-0.183973
-5.335781	屹立
-4.365654	东方	-0.180161
-4.365654	赞同	-0.126650
-4.971594	实施
-5.218547	广开
-5.436625	言路	-0.125558
-4.300751	集中	-0.268633
-3.487415	其他	-0.266556
-5.218547	升华
-4.389639	都来	-0.058779
-5.218547	做主
-3.620028	掉	-0.370884
-5.077749	却不	-0.104194
-5.335781	分钱
-4.700357	心思	-0.029561
-4.652645	毛钱
-5.436625	依此	-0.125558
-5.436625	类推
-4.886357	恶性	-0.393846
-4.886357	循环
-5.436625	于利
-5.218547	无利
-5.077749	可言
-4.441991	过于	-0.016468
-4.700357	片面	-0.185651
-5.218547	何止
-4.178895	无法	-0.072894
-5.335781	分辩
-5.335781	推断
-3.957724	另	-0.338289
-4.609659	过分	-0.071196
-4.470741	会让	-0.176055
-4.652645	智商
-5.335781	近似	-0.242626
-4.700357	阿甘	-0.233672
-5.218547	刘云	-0.323999
-4.609659	那您	-0.050810
-5.218547	称呼
-4.227001	哥哥
-4.026787	弟弟	-0.056388
-4.365654	讲得	-0.086080
-3.683072	年龄	-0.157452
-3.799039	帅	-0.240229
-4.281106	谢	-0.324832
-5.335781	霆锋	-0.003852
-4.300751	诚实	-0.053801
-5.436625	伙子
-3.774430	读	-0.171865
-4.971594	败在
-4.470741	其次	-0.138471
-4.178895	才会
-4.342925	大于	-0.083092
-4.815136	批评
-4.534669	虚	-0.046090
-4.971594	给出
-3.976361	慢	-0.181189
-4.300751	九点	-0.035447
-5.436625	五和	-0.125558
-4.534669	像个	-0.102424
-4.005909	我又	-0.063622
-4.886357	种种	-0.130989
-5.436625	听声	-0.125558
-4.753966	音像	-0.121085
-3.867453	讲话	-0.116255
-4.609659	厕所
-4.700357	哪位	-0.023860
-3.568694	刘	-0.454124
-5.218547	飞云
-5.436625	刘小	-0.125558
-5.436625	刘大	-0.125558
-3.976361	遗憾	-0.267443
-5.077749	发掘
-5.436625	陈德	-0.125558
-4.971594	笑吧	-0.308975
-4.321326	转转	-0.129368
-5.077749	白云
-5.436625	行云	-0.125558
-4.415027	草原
-4.753966	骑马	-0.073918
-4.501530	梦想	-0.012572
-4.470741	说完	-0.279862
-5.436625	转瞬	-0.125558
-4.886357	寒冷	-0.130989
-4.753966	冻
-5.218547	关节
-5.077749	炎
-4.609659	不必
-4.971594	怕冷
-5.436625	觉海	-0.125558
-4.321326	蓝色	-0.299877
-4.178895	信	-0.068555
-4.501530	不信
-4.886357	不惯
-4.753966	能为	-0.043248
-3.668771	事业	-0.125107
-4.108948	做出	-0.071149
-4.501530	平淡	-0.218510
-4.108948	创业	-0.100185
-4.060115	去吗	-0.582695
-4.210366	等你	-0.021127
-4.753966	进展	-0.043214
-4.971594	总裁	-0.162847
-4.700357	愿望
-4.365654	及	-0.015771
-5.077749	山清	-0.448937
-5.436625	水秀
-4.815136	后会
-4.652645	太久
-4.365654	啰	-0.305663
-4.700357	珠海	-0.055533
-5.436625	湿热
-4.700357	这才	-0.322266
-4.971594	等待
-5.335781	女神
-5.335781	天蓝
-5.218547	清澈
-5.218547	撒谎
-4.071818	聪明	-0.219952
-4.815136	低调	-0.459897
-4.415027	激情	-0.166364
-5.077749	贫瘠
-4.210366	不准	-0.086220
-4.886357	真会	-0.066830
-3.939853	实现	-0.194174
-4.262312	还真	-0.143507
-5.335781	正向
-5.077749	那方
-5.218547	李冰
-4.300751	工大	-0.096361
-5.077749	要见
-4.210366	意义	-0.144012
-4.281106	保险	-0.034296
-4.652645	图片
-5.335781	结冰
-4.071818	租	-0.173137
-4.365654	船	-0.029097
-5.335781	泳池
-5.335781	环绕
-5.077749	江水
-4.753966	冒
-5.218547	蒸汽	-0.145901
-4.886357	虫
-4.971594	昆虫
-4.194345	春节	-0.094373
-4.534669	克服	-0.056048
-4.470741	这要	-0.036904
-4.321326	抱着	-0.015704
-4.135591	去啦	-0.510913
-3.786560	要去	-0.057523
-4.652645	年在
-3.957724	就想
-4.700357	想跟	-0.067038
-3.966943	爸爸	-0.165140
-5.218547	搞出
-4.815136	规	-0.056642
-4.441991	偶然	-0.241944
-4.700357	仙境	-0.146521
-4.441991	用来	-0.014525
-4.026787	吸引	-0.044509
-5.218547	白雪
-5.436625	学姐
-4.342925	民	-0.050366
-4.149551	照片	-0.023529
-4.570548	最初	-0.218510
-5.077749	每到
-3.906178	节	-0.103437
-4.501530	假日
-5.335781	春来	-0.058257
-5.436625	看雪
-5.436625	淞
-5.077749	相象
-5.436625	如春
-5.436625	暧	-0.125558
-4.753966	事我	-0.061132
-5.218547	胆大
-5.436625	家室
-4.700357	就带	-0.032123
-4.321326	提到	-0.021591
-5.335781	边挺
-5.077749	为大
-4.971594	若干	-0.132453
-4.971594	欣慰
-4.652645	潇洒
-4.026787	赶	-0.138483
-4.108948	羊	-0.077320
-4.886357	蓝天	-0.066854
-5.436625	后脚	-0.125558
-5.436625	踏着
-5.218547	眼看
-5.436625	边际
-5.335781	洒脱
-4.753966	视野	-0.032138
-4.194345	八十	-0.146053
-4.815136	人造	-0.122177
-4.753966	就真	-0.231509
-4.227001	就被	-0.069254
-4.415027	你当	-0.038857
-4.700357	嘿	-0.025520
-4.886357	丁磊	-0.393844
-4.365654	同志	-0.010746
-5.077749	起着
-4.441991	制约	-0.074448
-4.262312	搞好	-0.151561
-4.971594	当前	-0.130989
-4.971594	改造	-0.163329
-4.570548	前提	-0.170925
-5.436625	成败	-0.125558
-5.077749	与否
-5.335781	实业
-4.342925	法制	-0.074976
-4.700357	从我	-0.135544
-4.300751	决	-0.122187
-5.335781	伴随
-5.077749	而生
-5.335781	狼狈	-0.242626
-5.335781	奸
-4.262312	狼	-0.159474
-4.005909	身上	-0.096068
-5.436625	狈
-4.609659	真想	-0.027365
-4.886357	真真	-0.056650
-5.218547	正正
-4.700357	踏
-5.335781	实实
-5.077749	一党	-0.104585
-4.700357	执政	-0.144834
-4.037614	做到	-0.132186
-5.436625	扎下
-4.700357	很深	-0.206864
-4.753966	风气
-4.501530	办事	-0.202558
-5.335781	求人
-4.753966	渠道
-4.389639	要走	-0.082801
-4.971594	偏偏	-0.066834
-4.815136	捷径
-4.060115	需	-0.241213
-4.365654	要给	-0.019809
-3.985989	等于	-0.095992
-4.570548	通常	-0.062959
-5.436625	送上
-4.815136	联络	-0.095352
-5.335781	土壤
-4.178895	体	-0.082873
-5.436625	从人
-4.886357	娃娃	-0.049145
-5.335781	抓起
-5.436625	急功近利
-5.436625	商界
-4.083846	生意	-0.080197
-4.321326	于你	-0.164542
-4.108948	企业	-0.068786
-4.700357	高高	-0.352838
-4.210366	真实	-0.301868
-3.914355	说嘛	-0.153166
-4.753966	您说	-0.093681
-5.335781	从政
-4.700357	商人	-0.032140
-3.805415	效果	-0.125011
-4.886357	当做
-4.342925	来做	-0.015708
-4.700357	细节
-5.218547	纷纷
-5.436625	落网
-5.335781	至到
-5.335781	省级	-0.058257
-5.436625	单元
-5.335781	李鹏
-4.470741	千年
-5.077749	您对
-4.971594	透彻
-4.342925	天才
-5.436625	结为
-4.300751	封建	-0.180607
-5.335781	以致
-4.037614	断	-0.299589
-5.335781	现行
-4.753966	我谈	-0.038850
-4.501530	分为
-4.415027	两点	-0.015770
-4.037614	矛盾	-0.198273
-4.815136	两面	-0.095341
-4.886357	外部	-0.066838
-5.436625	放缓	-0.125558
-5.436625	衰退
-5.436625	僵化
-3.957724	传统	-0.231725
-5.436625	欲与	-0.125558
-4.135591	规定	-0.136126
-5.335781	便捷
-4.971594	曲折
-4.971594	但在
-4.441991	点点	-0.027921
-5.436625	变通
-4.262312	对吗	-0.514644
-4.005909	懂	-0.150994
-4.609659	不需
-4.815136	要谈
-4.886357	来谈	-0.132363
-5.335781	请您
-4.753966	圆满	-0.218424
-5.335781	只需
-4.470741	要听	-0.073531
-4.753966	缘
-4.753966	圈子
-4.016222	永远	-0.132045
-4.300751	不谈	-0.154157
-5.077749	对谁
-4.389639	背后
-5.077749	是您
-5.436625	破烂
-4.815136	懂吗	-0.459556
-3.948697	喊	-0.124062
-4.971594	口号
-4.415027	提倡	-0.020020
-4.281106	聊吧	-0.288939
-5.436625	本位
-4.501530	浓	-0.086183
-5.077749	虚弱
-5.077749	较弱
-3.457577	美国	-0.139125
-5.436625	颁发	-0.125558
-5.436625	禁令
-5.335781	处级	-0.058257
